[
  [
    {
      "desc": "I0",
      "z": 0.95,
      "a": 0.7211151780228631,
      "b": -2.5506841405407354,
      "w": [
        -1.6591915934830959,
        -1.6199609129609598,
        -1.6563423242592008,
        0.07020265032318249,
        -1.668804018923937,
        5.143146254251157
      ],
      "delta": -0.018185264063039296,
      "dw": [
        0.2393608520673387,
        0.20194438082790062,
        0.23334942904553413,
        0.004023893913319975,
        0.24331118209699912,
        -1.6069181349721535
      ],
      "db": -0.035831019670527514,
      "ap": 0.20110807804791758
    }
  ],
  [
    {
      "desc": "H00",
      "z": -3.74031359566035,
      "a": 0.023195831700042226,
      "b": 0.3393633250459871,
      "w": [
        0.6313476946578835,
        1.049982078683609,
        -5.743384413736291,
        -1.2341878178297272,
        2.2118913380293304,
        -0.3973284570620168,
        6.774721445427335
      ],
      "delta": 0.002296148124703091,
      "dw": [
        0.009202075524808138,
        0.00965288868678256,
        -0.024246516130823206,
        0.004135241130993298,
        0.014477349863904157,
        0.0054868061275740645,
        0.031495710412056795
      ],
      "db": 0.0038274492705652865,
      "ap": -0.007505843616163725
    },
    {
      "desc": "H01",
      "z": -3.7133728357576126,
      "a": 0.023814154900124146,
      "b": 0.22547474626286756,
      "w": [
        0.07425077499507224,
        0.9618664509795698,
        -4.829907293346435,
        -0.706316936225258,
        1.5446979822052334,
        0.06051744688231917,
        5.64090871104453
      ],
      "delta": 0.0019448864423692962,
      "dw": [
        0.009414163929718802,
        0.009875139705027647,
        -0.024806839395498395,
        0.0042307237997244425,
        0.014810503656067526,
        0.005613429705165393,
        0.03221693853278146
      ],
      "db": 0.0032286760627568407,
      "ap": -0.007526382777075896
    },
    {
      "desc": "H02",
      "z": -3.7384756907958527,
      "a": 0.02323751106624015,
      "b": 0.32947003414737724,
      "w": [
        0.7617504097088209,
        -0.059234399375271043,
        -6.152581009595503,
        -0.21364543928029492,
        2.19321905171654,
        -0.7160132479284487,
        6.356374274506703
      ],
      "delta": 0.0022536685860385162,
      "dw": [
        0.009216394478072931,
        0.009667893936896942,
        -0.024284344666785015,
        0.004141687420085289,
        0.014499842836964824,
        0.0054953548739956545,
        0.03154440707521515
      ],
      "db": 0.003730357766113546,
      "ap": -0.007507375696276349
    },
    {
      "desc": "H03",
      "z": -2.5017064102900006,
      "a": 0.07573864086462616,
      "b": -0.12100255523023527,
      "w": [
        -1.592228881069395,
        -0.44955627890993616,
        -2.042023162737679,
        -0.7703560817908964,
        -1.7078918297838481,
        -1.0063002293563414,
        0.15306795049587665
      ],
      "delta": 0.00010500450497984143,
      "dw": [
        0.02575562715007256,
        0.02698828143255193,
        -0.06805511431240288,
        0.011596344739089296,
        0.040454403478316754,
        0.015377982567870006,
        0.08755715960001259
      ],
      "db": 6.023846880251256e-05,
      "ap": 0.0009911472902118443
    },
    {
      "desc": "H04",
      "z": -3.7471028293962245,
      "a": 0.023042499646634747,
      "b": 0.347163988685022,
      "w": [
        0.8013392658239414,
        0.6386928496500182,
        -5.841933969742764,
        -0.5330710990591307,
        2.160248790516213,
        -0.11469589908155903,
        6.934882345558179
      ],
      "delta": 0.002333546656323042,
      "dw": [
        0.009149369669018085,
        0.00959765645497984,
        -0.0241072766081648,
        0.00411151350665579,
        0.014394556197783091,
        0.005455339672959935,
        0.03131646096871135
      ],
      "db": 0.0038906463404621994,
      "ap": -0.0075000216322802845
    },
    {
      "desc": "H05",
      "z": 1.0983864823592517,
      "a": 0.7499576589270487,
      "b": -0.7013274004945955,
      "w": [
        -2.9153174569692832,
        -3.1763474000228586,
        2.032763466263442,
        -2.5995931857986965,
        -3.201351887957935,
        -2.6923389671065316,
        -4.217859137927411
      ],
      "delta": -0.015000997409788535,
      "dw": [
        0.2231953853886129,
        0.23362224344973115,
        -0.5914399489573756,
        0.10068745897113153,
        0.34999416095122743,
        0.1334477947820391,
        0.7535441866985443
      ],
      "db": -0.025719396188192262,
      "ap": 0.19092843727326764
    }
  ],
  [
    {
      "desc": "H10",
      "z": -1.827275951027727,
      "a": 0.13856310481910813,
      "b": 0.00527473905287399,
      "w": [
        -2.5246339745014783
      ],
      "delta": 0.0025365760487477654,
      "dw": [
        -0.16450610581074512
      ],
      "db": 0.003420651305481988,
      "ap": -0.0684075629277801
    },
    {
      "desc": "H11",
      "z": -1.9280721539609789,
      "a": 0.12696411709954628,
      "b": 0.007014395736575931,
      "w": [
        -2.780864323433606
      ],
      "delta": 0.0025933715702989124,
      "dw": [
        -0.15467254044138895
      ],
      "db": 0.0035845194494663036,
      "ap": -0.06918336928289387
    },
    {
      "desc": "H12",
      "z": 1.2400442242853353,
      "a": 0.7755717120522289,
      "b": -0.10532188294268094,
      "w": [
        4.914103687506871
      ],
      "delta": -0.00712687993071135,
      "dw": [
        -0.6788571895564623
      ],
      "db": -0.009037484792644915,
      "ap": 0.09572277659748633
    },
    {
      "desc": "H13",
      "z": -1.6481948743097983,
      "a": 0.1613530667391272,
      "b": -0.034237358486929825,
      "w": [
        -1.0407034650664622
      ],
      "delta": 0.0011919238098446713,
      "dw": [
        -0.18288741269079203
      ],
      "db": 0.0015400115582173703,
      "ap": -0.0644064374834856
    },
    {
      "desc": "H14",
      "z": -1.9094588208221228,
      "a": 0.12904166301696798,
      "b": 0.018400748253932522,
      "w": [
        -4.06149659033717
      ],
      "delta": 0.0038373759010214546,
      "dw": [
        -0.16010723203076654
      ],
      "db": 0.00537317839118628,
      "ap": -0.0753569716460991
    },
    {
      "desc": "H15",
      "z": -1.698731478811304,
      "a": 0.15463101386939898,
      "b": -0.026860410438862455,
      "w": [
        -1.4148656321094242
      ],
      "delta": 0.0015614995731896427,
      "dw": [
        -0.17765246012106342
      ],
      "db": 0.0020422644066546217,
      "ap": -0.06601538303970768
    },
    {
      "desc": "H16",
      "z": -2.10531195011247,
      "a": 0.10858159882172486,
      "b": 0.13854042541763972,
      "w": [
        -9.018721717831282
      ],
      "delta": 0.007330348225949249,
      "dw": [
        -0.15624820504677278
      ],
      "db": 0.011631826459838623,
      "ap": -0.09592478625617758
    }
  ],
  [
    {
      "desc": "O0",
      "z": 1.188837759754851,
      "a": 0.766533134046554,
      "b": -20.332203893559665,
      "delta": -0.008390073215130208,
      "dw": 0.0,
      "db": 0.2085461638432517,
      "ap": 0.3878913070074309
    }
  ]
]