[
  [
    {
      "desc": "I0",
      "z": 1.0,
      "a": 0.7310585786300049,
      "b": -5.565323801409534,
      "w": [
        -0.7209334153518911,
        0.20737208986738084,
        -0.0354709969169519,
        10.024182861564723,
        -1.152290785146362,
        -0.45248323525482914,
        -1.210096382993895,
        -0.4257996404942775,
        6.916918865041924,
        0.6821773262592143
      ],
      "delta": -0.003628788445749667,
      "dw": [
        3.1893631857444086e-07,
        1.0188748131172087e-07,
        1.4250638500333634e-07,
        4.1159471344576844e-05,
        3.983543027087848e-07,
        2.6144304408287203e-07,
        4.85909409353191e-07,
        1.9918581178741498e-07,
        -8.972713037446952e-06,
        9.474642858115416e-08
      ],
      "db": -4.9826208011898986e-05,
      "ap": 0.19661193324148185,
      "app": 0.0
    }
  ],
  [
    {
      "desc": "H00",
      "z": -6.092380757585282,
      "a": 0.002254925758752267,
      "b": 0.2806211813062909,
      "w": [
        -0.8109389603082559,
        0.9131459315304836,
        0.7096925816648949,
        0.393743209182291,
        1.1671067645863944
      ],
      "delta": 1.7226227325134471e-06,
      "dw": [
        -2.1168200157744312e-07,
        4.677572634262004e-07,
        1.9535477925039378e-07,
        -2.1748648427556309e-07,
        1.575223761521928e-08
      ],
      "db": 1.3368119904857975e-07,
      "ap": -0.0003189016903302788,
      "app": 0.0
    },
    {
      "desc": "H01",
      "z": -5.413735094074126,
      "a": 0.0044352106399204744,
      "b": 0.06444787647805485,
      "w": [
        -0.1383588756374716,
        0.2999602347994784,
        0.24555040224904812,
        0.2137308921918557,
        0.6025387578976233
      ],
      "delta": 3.026558765526603e-06,
      "dw": [
        -3.2908277091357937e-07,
        6.217822402709655e-07,
        3.969420131143632e-07,
        -3.229427908437131e-07,
        1.2519167312640766e-08
      ],
      "db": 5.3385584354421454e-08,
      "ap": 0.00018002963877477448,
      "app": 0.0
    },
    {
      "desc": "H02",
      "z": -5.591267608505104,
      "a": 0.0037164329151185686,
      "b": 0.09997425547157839,
      "w": [
        -0.3258062558425895,
        0.4760306300247258,
        0.19111829858482213,
        0.1839111464127599,
        0.7576594133697432
      ],
      "delta": 3.1143331973808925e-06,
      "dw": [
        -2.933754181538308e-07,
        5.869063643704037e-07,
        3.339789678138711e-07,
        -2.915518171111407e-07,
        1.2141267747786247e-08
      ],
      "db": 7.85786270067696e-08,
      "ap": -2.582213199182671e-05,
      "app": 0.0
    },
    {
      "desc": "H03",
      "z": 1.7629361392373797,
      "a": 0.8535770096650168,
      "b": -1.181641676963516,
      "w": [
        7.906484012877983,
        0.4145405008193374,
        2.69623136156588,
        6.4902369124269965,
        -2.5869329965749976
      ],
      "delta": -0.0010138132408784655,
      "dw": [
        -2.330790942292388e-05,
        1.9439017002463458e-05,
        0.00011421050331457178,
        -1.2343235288493274e-05,
        -5.80075269924087e-05
      ],
      "db": -1.9918423878464455e-05,
      "ap": 0.24632658223108983,
      "app": 0.0
    },
    {
      "desc": "H04",
      "z": -6.407728248714006,
      "a": 0.0016460518825710737,
      "b": 0.6722240377158543,
      "w": [
        -0.9742529336523039,
        1.577734751170599,
        0.985042985446223,
        0.8362551927332734,
        2.0781279261186167
      ],
      "delta": 2.6711822011463593e-06,
      "dw": [
        -1.7211674221465201e-07,
        3.9136333004085826e-07,
        1.3305228392309287e-07,
        -1.802931826900834e-07,
        1.8409005580522138e-08
      ],
      "db": 1.6041106521578523e-07,
      "ap": -0.0003723059563871564,
      "app": 0.0
    },
    {
      "desc": "H05",
      "z": -5.896127960998293,
      "a": 0.002742530460374611,
      "b": 0.18500652084195923,
      "w": [
        -0.6768104195044169,
        0.6139281314831178,
        0.5059675778161505,
        0.16246919130561022,
        1.0186884375824419
      ],
      "delta": 2.6653760651816897e-06,
      "dw": [
        -2.406323913639461e-07,
        5.161061182537465e-07,
        2.4328805806415803e-07,
        -2.441225452511228e-07,
        1.3973159682966831e-08
      ],
      "db": 1.1512020288200353e-07,
      "ap": -0.00024331622033651928,
      "app": 0.0
    },
    {
      "desc": "H06",
      "z": -6.449987510911304,
      "a": 0.001578047737558774,
      "b": 0.8275697501588856,
      "w": [
        -1.415576276063347,
        1.676200710913039,
        1.2692658687537606,
        0.7172600282235043,
        2.2005985881332664
      ],
      "delta": 2.4413605280730197e-06,
      "dw": [
        -1.673956871755761e-07,
        3.8149037976482354e-07,
        1.259322673389704e-07,
        -1.7578811908700253e-07,
        1.8705293402997906e-08
      ],
      "db": 1.8989538072617278e-07,
      "ap": -0.00037485564121686254,
      "app": 0.0
    },
    {
      "desc": "H07",
      "z": -5.876620701518326,
      "a": 0.002796403861007068,
      "b": 0.18356418067873123,
      "w": [
        -0.5713694734964985,
        0.758522046927025,
        0.31050422846677855,
        0.5416687504877011,
        0.9146193375375753
      ],
      "delta": 2.039550067231279e-06,
      "dw": [
        -2.4371181817895316e-07,
        5.208598022514181e-07,
        2.484775455635217e-07,
        -2.469293809455155e-07,
        1.380745315882335e-08
      ],
      "db": 9.776048717311931e-08,
      "ap": -0.00023345266835090927,
      "app": 0.0
    },
    {
      "desc": "H08",
      "z": -0.5086650238796304,
      "a": 0.37550652720164535,
      "b": 0.12548200043724883,
      "w": [
        2.7534153168085354,
        0.608468830481357,
        0.36232026973168013,
        1.401046973639679,
        -1.9849809291163245
      ],
      "delta": -0.0011981137448598977,
      "dw": [
        -6.304274298040656e-06,
        -6.660164065733297e-05,
        5.033467180483444e-06,
        -3.254991920194658e-06,
        1.3651984439468415e-05
      ],
      "db": 2.2081625534604144e-06,
      "ap": 0.3189097581053114,
      "app": 0.0
    },
    {
      "desc": "H09",
      "z": -5.066624654136561,
      "a": 0.006264174077843565,
      "b": -0.008045613198191262,
      "w": [
        -0.004588977313153102,
        0.027001180279303198,
        0.1863745123800059,
        -0.11380298454019115,
        0.3310671451325868
      ],
      "delta": 3.1382630337474334e-06,
      "dw": [
        -4.114250422069481e-07,
        6.610585882433437e-07,
        5.440482691510097e-07,
        -3.934036075529936e-07,
        2.0377835147017824e-08
      ],
      "db": 3.4337709124713666e-08,
      "ap": 0.0008349143669820427,
      "app": 0.0
    }
  ],
  [
    {
      "desc": "H10",
      "z": 9.020937825956004,
      "a": 0.9998791618693734,
      "b": 2.481172736984401,
      "w": [
        -10.996321056921767,
        -7.043323161319146,
        -15.987635712360104,
        -19.489761808018674
      ],
      "delta": -9.692785085605915e-06,
      "dw": [
        -2.244661023765096e-05,
        -2.8020340677166618e-05,
        -1.044757951707432e-05,
        -6.496237441773207e-07
      ],
      "db": -1.5646068235300513e-05,
      "ap": 0.00019608582963468628,
      "app": 0.0
    },
    {
      "desc": "H11",
      "z": 1.8458972067547785,
      "a": 0.8636446680238662,
      "b": 9.684722865475274,
      "w": [
        -9.603550629517061,
        -11.530585565259813,
        -5.758199243380883,
        -2.1241783279030795
      ],
      "delta": -0.001167270026725548,
      "dw": [
        -1.398022718862807e-05,
        -2.724463521821749e-05,
        7.171916322754697e-06,
        1.6149846030731824e-05
      ],
      "db": 3.106701619647158e-05,
      "ap": 0.02459255399282456,
      "app": 0.0
    },
    {
      "desc": "H12",
      "z": 3.6971653301689775,
      "a": 0.9758061464332326,
      "b": 7.944360707426151,
      "w": [
        -9.305560140820562,
        -9.643570418237326,
        -8.794998798530493,
        -7.997287343627753
      ],
      "delta": -0.0007698610115794131,
      "dw": [
        -2.310000902448745e-05,
        -2.505953892957568e-05,
        -5.296170940868785e-06,
        5.758868455614085e-06
      ],
      "db": 1.7971403605105928e-05,
      "ap": 0.010207596650735163,
      "app": 0.0
    },
    {
      "desc": "H13",
      "z": 7.321489765259,
      "a": 0.9993392603861008,
      "b": 6.8888960594024615,
      "w": [
        -10.32098814171331,
        -9.764707626771708,
        -10.767903281892051,
        -11.417288329726885
      ],
      "delta": -3.0148005570020295e-05,
      "dw": [
        -2.355307811001487e-05,
        -2.743251519564632e-05,
        -1.163409666175147e-05,
        -1.2803885793047885e-06
      ],
      "db": -1.5520651945998737e-05,
      "ap": 0.0007566936749028,
      "app": 0.0
    },
    {
      "desc": "H14",
      "z": -1.6818940591381164,
      "a": 0.1568448270987828,
      "b": 12.697441369784952,
      "w": [
        -9.940191743512914,
        -13.612098755997613,
        -2.0748281651348273,
        4.195546880196306
      ],
      "delta": 0.0020408820026244752,
      "dw": [
        -1.3136227771878768e-05,
        -6.4834220280568684e-06,
        -6.91268021918297e-05,
        -7.577116254843476e-05
      ],
      "db": 6.347309579598582e-07,
      "ap": -0.10135667459351079,
      "app": 0.0
    }
  ],
  [
    {
      "desc": "O0",
      "z": -0.5461289686011561,
      "a": 0.36676298331731194,
      "b": -162881.10739629928,
      "delta": 0.0009335407120930271,
      "dw": 0.0,
      "db": 11.365178681283256,
      "ap": -0.6208705387087989,
      "app": 0.0
    },
    {
      "desc": "O1",
      "z": 1.3922731948052522,
      "a": 0.8009548977926156,
      "b": -108172.59838608166,
      "delta": -0.0013970042547141817,
      "dw": 0.0,
      "db": 8.936288383255263,
      "ap": -0.5409276579185395,
      "app": 0.0
    },
    {
      "desc": "O2",
      "z": -0.9305799288050363,
      "a": 0.28280707433790125,
      "b": -200210.31450207336,
      "delta": 0.002081336972390046,
      "dw": 0.0,
      "db": 13.804205392166908,
      "ap": -0.2371386282898493,
      "app": 0.0
    },
    {
      "desc": "O3",
      "z": -0.18083897905321678,
      "a": 0.45491306050908253,
      "b": -206407.47220909913,
      "delta": 0.002386947706250884,
      "dw": 0.0,
      "db": 14.753382923633362,
      "ap": 0.026281968649710073,
      "app": 0.0
    }
  ]
]