[
  [
    {
      "desc": "I0",
      "z": 0.95,
      "a": 0.7211151780228631,
      "b": -0.38173084310458383,
      "w": [
        -1.445464877794658,
        -0.13359587921720556,
        0.788124675622768,
        -1.5002811296823164,
        -1.831093441005757,
        -2.342851571430785,
        -1.733190081862238,
        -2.1906535774432787,
        -2.2614897907018574,
        0.33739027964048207,
        1.0434290975827003,
        1.9816654729446403,
        -2.2318782543707245,
        -2.2106847706683848,
        -0.8142752899224835,
        1.5838996765761582,
        -2.0672576636915685,
        -0.6835400291863727,
        1.8607282574638877,
        1.971142512942104,
        0.9380837484769472,
        2.1422575819338454,
        1.9336904462053566,
        -2.1837870439501694,
        -1.4867809304836543,
        -2.263379991330563,
        -2.3282589826959437,
        -1.027900936289384,
        -2.4572979572398514,
        -2.4544866957789555,
        -2.4033385668882707,
        -2.427118097753004,
        -0.5815021397640558,
        -1.1280884982769963,
        -1.7556068678527152,
        -2.471260384267645,
        -2.4079989598879683,
        -1.8383991987636903,
        -1.8109358820418804,
        2.099204792129451
      ],
      "delta": -0.0019296913742151397,
      "dw": [
        0.242134640151399,
        0.005641789455890135,
        -0.19876174623202617,
        0.23984224290801637,
        0.28819639115252,
        0.36604064864585845,
        0.2766433938375109,
        0.3371676456654158,
        0.3427844768883479,
        -0.08505955512720215,
        -0.2545515150568556,
        -0.4863810788798715,
        0.3435202651576001,
        0.342680076852361,
        0.14187978816836283,
        -0.3670931956765323,
        0.3248715522150638,
        0.13084406333441767,
        -0.44398941279578125,
        -0.46990240395936556,
        -0.2388332925099828,
        -0.511443676781234,
        -0.45557720315980255,
        0.3323360730126246,
        0.2429591368124217,
        0.3502212972052432,
        0.3678749752985597,
        0.16920028910060603,
        0.4055485121326169,
        0.3900743433195326,
        0.3908051046903768,
        0.3924116767410088,
        0.09291386899906458,
        0.18567217668079367,
        0.2780407050404813,
        0.41878491398123574,
        0.37955146720263017,
        0.2756658412068621,
        0.28930868383522024,
        -0.49378622297760794
      ],
      "db": -0.04090300450624417,
      "ap": 0.20110807804791758,
      "app": 0.0
    }
  ],
  [
    {
      "desc": "H00",
      "z": -1.417392307799673,
      "a": 0.19507071298840875,
      "b": 0.0076815741575108135,
      "w": [
        0.048659164399277643,
        -0.006367478770209155,
        0.02546998147520235,
        -0.28412254717280355,
        -0.5455277839773597,
        -0.10924572065536982,
        0.04039403359821878,
        -0.16219417683554088,
        0.12725491399465733,
        -0.20510707111091692,
        0.14291397659097385,
        -0.09450659424761695,
        0.8857464194842605,
        0.3044028907084675,
        0.3907049069789587,
        -0.5365416394760786,
        -0.5436648243705448,
        -0.2592735455683333,
        -0.14457714044738199,
        0.004331385925494013,
        -0.14926017885899612,
        0.032540492992093585,
        -0.02319134429359622,
        -0.5605337335969118,
        -0.11204646539966646,
        -0.7493293438955362,
        0.34950969332210846,
        0.6086387350325699,
        0.053312558822235026,
        -0.10955056495811741,
        -0.17429142342039697,
        0.004614209672803614,
        -0.6928698027376778,
        -0.5651164275613558,
        0.5251402448183251
      ],
      "delta": 0.00010434224306840748,
      "dw": [
        -0.03706673927168071,
        -0.015139933653362327,
        -0.08282287638184399,
        -0.057820764716388064,
        -0.036122901920572756,
        -0.04651083156680844,
        0.004598967943483398,
        -0.013935476083842496,
        0.011429134098995304,
        0.01025319538711791,
        0.015432295524447573,
        0.023958182982379856,
        0.08977155545309777,
        0.04626265049989253,
        0.009022113566173768,
        -0.0461639318253833,
        -0.06240301802183768,
        -0.009040638400661128,
        0.03478392237528471,
        0.08067543853065222,
        0.06345011783759877,
        0.024048868990353155,
        -0.019759788816224488,
        -0.052645864901656944,
        -0.02151187970035809,
        -0.12945777731968355,
        0.04682602020903201,
        0.06330800427075554,
        -0.0039454850803963964,
        0.004372230602712325,
        0.02733840491828991,
        0.021028368254401845,
        -0.06531382274487074,
        -0.036590510137523145,
        0.059500494971647264
      ],
      "db": 0.00183637185312077,
      "ap": -0.04526203072072024,
      "app": 0.0
    },
    {
      "desc": "H01",
      "z": -0.47991059055433954,
      "a": 0.3822732381916206,
      "b": 0.002036073995129201,
      "w": [
        0.1780688107858201,
        -0.4033206330349896,
        0.12911846558450985,
        0.29583953763402693,
        -0.10633180340424486,
        -0.1355164287327339,
        -0.39553734400107116,
        -0.27711181947707825,
        -0.48225822454402373,
        -0.5036038236632768,
        -0.2015823555796028,
        0.30213213711359316,
        0.35952883037115035,
        0.22523130947772851,
        -0.00932007187095803,
        0.22881641949995335,
        -0.11162988390084662,
        0.20459713913990216,
        -0.17516203197369193,
        -0.186133250153763,
        0.30873002452450604,
        0.007782586038066446,
        -0.4986716611942126,
        -0.05823845299299922,
        0.3269367704810355,
        0.22326076081568175,
        0.1153634076402371,
        0.30541157121669055,
        -0.3373165556697036,
        -0.3767254682665383,
        0.11191304176166648,
        -0.43857735656057417,
        -0.0769214967715494,
        0.11710582618453184,
        -0.16464776355236052
      ],
      "delta": -1.4362778803199452e-06,
      "dw": [
        -0.06806111257821569,
        -0.02775103580233302,
        -0.1514021034632201,
        -0.10622956741208141,
        -0.06624946106389987,
        -0.08534852188720923,
        0.008512182583153715,
        -0.025747973148791438,
        0.020647413305877955,
        0.019123736701935935,
        0.027703805685633673,
        0.04441846240694887,
        0.16466932780439786,
        0.0849591380724996,
        0.01662974434297134,
        -0.08435135680010984,
        -0.11508567883367518,
        -0.017112696311435246,
        0.06454359850138688,
        0.14826611418267788,
        0.11724955777424716,
        0.044264790000287435,
        -0.03590091240538901,
        -0.09683038541758167,
        -0.0402848210973589,
        -0.23528382608019952,
        0.08615935182662367,
        0.11619686063203029,
        -0.007328751881765922,
        0.008287477679683969,
        0.049787573983098174,
        0.038075997631106605,
        -0.12020801536646768,
        -0.0673132619791313,
        0.10971326560252151
      ],
      "db": 4.0711650563912945e-05,
      "ap": -0.006331037735283676,
      "app": 0.0
    },
    {
      "desc": "H02",
      "z": 0.17738616683511538,
      "a": 0.5442306229661309,
      "b": -0.0008130155859965118,
      "w": [
        0.2863662863573194,
        -0.19948348383966438,
        0.08761432492349464,
        -0.3839275249666657,
        0.19771549917509168,
        0.22755802768531547,
        0.163248792702164,
        -0.06647023002229518,
        -0.5165786752746115,
        -0.24175583346780177,
        -0.4714591983761466,
        -0.5318301265681403,
        -0.2500943111804377,
        -0.3652420000594601,
        -0.4840908777546624,
        0.35405675371675427,
        -0.2483890825510878,
        0.04616433142613531,
        -0.24788915171576462,
        -0.42065101327173204,
        -0.6762298729835827,
        -0.24848625896465018,
        -0.22259173046358874,
        0.4965524308979915,
        0.22378284880487279,
        0.13548459228584864,
        -0.3111612892730373,
        -0.11886561501206358,
        -0.6139303271175359,
        -0.07904488334633651,
        -0.18266318013399277,
        -0.03603054318867949,
        -0.16339595189824851,
        -0.10022495454113371,
        -0.5798677025874474
      ],
      "delta": -9.011036443511726e-05,
      "dw": [
        -0.09426216139091444,
        -0.038406291389396253,
        -0.20929094048675337,
        -0.1471512080123739,
        -0.09170491266727862,
        -0.11817497956080142,
        0.011825735709297064,
        -0.035752030292676616,
        0.02841498294322009,
        0.02664417870172114,
        0.03802785282425222,
        0.061746910395063366,
        0.22792103207240344,
        0.11765767999129242,
        0.023065110756669727,
        -0.11659023603867595,
        -0.15965528510529095,
        -0.023978515260404724,
        0.0897455535011375,
        0.2053771922358367,
        0.16276477442665693,
        0.06135324876485564,
        -0.04950752903850845,
        -0.1341898161233311,
        -0.0562184857418803,
        -0.32448268142852116,
        0.1194121552502954,
        0.1608768883101415,
        -0.010191228649101085,
        0.011618942073827939,
        0.06872431954785164,
        0.05243800625431272,
        -0.16662394016830456,
        -0.09329322844737964,
        0.1521807835509774
      ],
      "db": -0.0015077424601939852,
      "ap": 0.038818734585895825,
      "app": 0.0
    },
    {
      "desc": "H03",
      "z": -1.457003793160501,
      "a": 0.18892601504286236,
      "b": 0.008123382422696564,
      "w": [
        -0.1680544496140573,
        -0.585771860343963,
        -0.5737502705023213,
        -0.582469069397487,
        -0.5240869718967994,
        -0.04875517483708935,
        -0.05426968336846202,
        -0.16086941887707218,
        0.2904446827120786,
        -0.23365474917138382,
        0.21138155833837552,
        0.28538027536625554,
        0.5830245568771459,
        0.422079133343424,
        -0.11050490952192564,
        -0.6351166861770371,
        -0.5187518319637976,
        0.0035578012892514854,
        0.6461647360751885,
        0.405113360174733,
        0.20796462597457344,
        -0.04452708337532051,
        -0.08244951868473592,
        -0.3770158663278124,
        -0.43919220348035815,
        -0.370493383902698,
        -0.1918375494438488,
        0.2626336891891124,
        -0.1621053576527399,
        -0.1877878665515727,
        0.4671488341180729,
        0.25885672316966474,
        0.08412660594929969,
        -0.15442297184577683,
        0.5002749874756863
      ],
      "delta": 0.00010426684985925162,
      "dw": [
        -0.03601288399277041,
        -0.014710804181240518,
        -0.08048599551183218,
        -0.05617476994900782,
        -0.03509783716102192,
        -0.04518999216183174,
        0.004466250790761379,
        -0.013534942711715021,
        0.011114154261123896,
        0.009952922974679016,
        0.015011999110212289,
        0.023264493812923427,
        0.08722121168203378,
        0.04494613193728791,
        0.008763707194843482,
        -0.04486290905505073,
        -0.06061385597127197,
        -0.008768754670564346,
        0.03377481614790398,
        0.07837574061728889,
        0.06162313412249362,
        0.02336146394161391,
        -0.019208645338088155,
        -0.051144038505954226,
        -0.02087749082339556,
        -0.12584374194931586,
        0.04548881476444003,
        0.06150797726410359,
        -0.003830611878766364,
        0.004240434690896339,
        0.026572633446514043,
        0.02044572863383901,
        -0.06344806047479774,
        -0.035546418612363705,
        0.05779447829464163
      ],
      "db": 0.0018163266230707183,
      "ap": -0.0458636937156993,
      "app": 0.0
    },
    {
      "desc": "H04",
      "z": -1.6938141264216846,
      "a": 0.15527490369037097,
      "b": 0.012182196542752738,
      "w": [
        -0.5677898641051659,
        -0.11783343768181832,
        -1.083379098592937,
        -0.09788605382232056,
        -0.28587229542989745,
        -0.6903268152499511,
        0.19485106810003236,
        -0.20798024931584053,
        0.4487020888099699,
        -0.3958368046842979,
        0.14631116802595373,
        0.20993065870675934,
        0.7640990975964599,
        -0.04419571017191112,
        0.1905795806474601,
        -0.34302679501994915,
        -0.6700829109948415,
        0.23688945264400935,
        -0.023795376766020455,
        0.9786178358670661,
        0.7630704576052219,
        0.5536155697233716,
        -0.4905264118651539,
        -0.12916204045391405,
        0.044684175987037784,
        -0.9575935772093709,
        0.14036896818476882,
        0.4234426167702857,
        -0.32313572026554477,
        -0.17567937301120234,
        0.44782612862359455,
        -0.3152155194972944,
        -0.25878845702746006,
        0.10357878054913743,
        0.22864390076187868
      ],
      "delta": 0.00011604964630883513,
      "dw": [
        -0.03017314681019079,
        -0.012332226833460339,
        -0.06752701756965612,
        -0.04705392471470796,
        -0.029416328064287664,
        -0.03787021583271197,
        0.003731518278986874,
        -0.011317591112830327,
        0.009365504523911987,
        0.008291846925004823,
        0.012676688282074437,
        0.019424714860507876,
        0.07308277466954764,
        0.037649715553479075,
        0.007332369692857377,
        -0.03764847308422262,
        -0.050704125927005655,
        -0.007267455716351526,
        0.028189039357986487,
        0.06563037426643824,
        0.05150465592163044,
        0.019552554839608875,
        -0.016150023083298607,
        -0.04282316580666419,
        -0.017370209181098373,
        -0.10578662108917379,
        0.038079684913774565,
        0.051530664507283865,
        -0.003194527079694673,
        0.003512828679961058,
        0.02232439353401886,
        0.017211145184191052,
        -0.05311112323238305,
        -0.02976192383632111,
        0.04834407569388823
      ],
      "db": 0.002183700366694018,
      "ap": -0.047920956933020585,
      "app": 0.0
    },
    {
      "desc": "H05",
      "z": -2.0600439479677575,
      "a": 0.11304142363940758,
      "b": 0.025708386166829165,
      "w": [
        0.06766482453156043,
        -0.1533879200762001,
        -0.8791637976510029,
        -0.5335982627271233,
        -0.3704584934651145,
        -0.4269150518946594,
        0.04835764693389093,
        0.1070285082463446,
        0.031075689350475152,
        -0.04508390193173847,
        0.07993458409578928,
        0.0028331023650976306,
        1.0636778227646504,
        0.1730375654927109,
        -0.007260594453323426,
        -0.1002915278413752,
        -0.9057169203806115,
        -0.34619647506522244,
        0.7114121808007353,
        1.3658325702574459,
        1.0068400016972403,
        -0.2176749829309495,
        -0.24378665020811002,
        -0.8445397721473803,
        -0.08563585374252848,
        -1.6163173873036758,
        0.8511304941367316,
        0.7671099474884057,
        -0.540271766487987,
        -0.07737522843053372,
        0.6039026361178168,
        0.3626707990978708,
        -1.0690985852153794,
        -0.9207485877357766,
        0.9134747744714949
      ],
      "delta": 0.00014300322633105419,
      "dw": [
        -0.022640647840976694,
        -0.009262206907420984,
        -0.05078244529607477,
        -0.03528998064505957,
        -0.022084048585508345,
        -0.02842676251746771,
        0.0027860562254789427,
        -0.008464042200426238,
        0.00709928622894607,
        0.006158590027732968,
        0.009643853234272907,
        0.01448555768640724,
        0.05482916988760761,
        0.02823541081180352,
        0.005488044981478953,
        -0.028326969470454537,
        -0.037937097296395994,
        -0.005348097823557116,
        0.021004197475733614,
        0.049186360213825185,
        0.03847224359079832,
        0.014640886833509592,
        -0.012190472738430068,
        -0.03209458962102693,
        -0.012872394549123256,
        -0.0798204359411292,
        0.02852605491876077,
        0.03865380072263764,
        -0.002375847353102695,
        0.002583072224183565,
        0.016829427886402536,
        0.013019886600132534,
        -0.03978450158043329,
        -0.022304484482363742,
        0.03616565656902071
      ],
      "db": 0.0027597797066699374,
      "ap": -0.04687154588176487,
      "app": 0.0
    },
    {
      "desc": "H06",
      "z": -1.6236310802496452,
      "a": 0.16470470842873622,
      "b": 0.010758594282503942,
      "w": [
        -0.530029875925309,
        0.09915793645248867,
        -0.6939865188238649,
        -0.17419063466297063,
        -0.41859749447010575,
        0.10473510954430064,
        0.35911295970470314,
        -0.5610912333098682,
        -0.45092589705747493,
        0.29948112516822833,
        -0.25675421477664834,
        0.5362974176179678,
        0.5661494709128386,
        0.5989908696993945,
        0.4730099816404232,
        -0.787936507494397,
        -0.42501544273429565,
        -0.458731407626587,
        -0.01689788869208262,
        0.06593490665980686,
        0.14007793328999335,
        0.10866392486264966,
        -0.22099322666788357,
        -0.48341215823536215,
        -0.6530174799184589,
        -1.1725419431651234,
        0.3611057970572342,
        0.5186886403518706,
        -0.5357883224516194,
        -0.20654845109258727,
        -0.3092028086662317,
        0.2783376704344262,
        -0.6007167592046251,
        0.13254489474085115,
        0.5636340336150101
      ],
      "delta": 0.00011425784669196284,
      "dw": [
        -0.031822139855114964,
        -0.013003994121535016,
        -0.07118806472917374,
        -0.04962939009024113,
        -0.031020879870157073,
        -0.03993724536429936,
        0.003938858173414807,
        -0.011943322887805757,
        0.009859889579145138,
        0.008760360838718713,
        0.013337305039943894,
        0.020508188128621815,
        0.07707621086889924,
        0.03971024165921264,
        0.007736434827793507,
        -0.03968658357303579,
        -0.053501518678946675,
        -0.007690394397427615,
        0.029765187198166114,
        0.0692296775327186,
        0.05436081680039291,
        0.02062804226990381,
        -0.017014546147361,
        -0.04517253563719305,
        -0.018359067482859752,
        -0.11145589941149223,
        0.040171682175322486,
        0.05434849899353772,
        -0.0033740494329682603,
        0.0037177785916819926,
        0.023524890021647645,
        0.018125624901722766,
        -0.05602965549576015,
        -0.0313951027255718,
        0.05101201681533101
      ],
      "db": 0.0020941259322703526,
      "ap": -0.04757095334765751,
      "app": 0.0
    },
    {
      "desc": "H07",
      "z": -1.9513327024729494,
      "a": 0.12440811324684546,
      "b": 0.019489596752806735,
      "w": [
        -0.7892523381472379,
        -0.4584824121774666,
        -0.7273121753942838,
        -0.15649446207945472,
        -0.018907707054411756,
        -0.6444421265310327,
        0.02989760277540151,
        0.1265060367416207,
        0.056245617260326,
        -0.24534927202364157,
        -0.2415553056571341,
        0.18079517029439515,
        1.348525930895337,
        0.34789381698262684,
        0.15252345406455314,
        -0.43417163615581617,
        -0.6075881858826391,
        0.15251006394851138,
        0.8546638042567948,
        0.6992335314525422,
        0.972598195900981,
        0.4152571076876712,
        0.05329658183199027,
        -0.7768683786795872,
        0.03166992863577273,
        -1.5175214578487772,
        0.7528826159030393,
        0.2085881396631882,
        0.048580367116038733,
        0.3073075862425366,
        0.26868522143434825,
        -0.1638872035698153,
        -0.9894681073525488,
        -0.01675618215664265,
        0.7067436459619507
      ],
      "delta": 0.00013248658672511648,
      "dw": [
        -0.0246943762796103,
        -0.010099503028390468,
        -0.05535162996186514,
        -0.038497267487876394,
        -0.0240836796294988,
        -0.03100176616072495,
        0.003043528483102828,
        -0.009241200108578705,
        0.007718646194672114,
        0.0067389307238775635,
        0.010473579708932822,
        0.015830330872770523,
        0.05980797544883409,
        0.030802508833857267,
        0.005990630447375271,
        -0.03087057081057003,
        -0.04141588917823974,
        -0.005869070539541638,
        0.02296032382248227,
        0.0536701246679896,
        0.04202274235542416,
        0.015979802048959272,
        -0.013271951281773442,
        -0.03501910762548488,
        -0.014095148156423027,
        -0.08691267223396507,
        0.031130327251111044,
        0.04216551103426449,
        -0.002598786019957339,
        0.002835375622060644,
        0.018329667587629408,
        0.014165199081251885,
        -0.04341700128258343,
        -0.024337216066990453,
        0.03948442183153168
      ],
      "db": 0.0025447318935779744,
      "ap": -0.04762100674231707,
      "app": 0.0
    },
    {
      "desc": "H08",
      "z": -2.0022112518950124,
      "a": 0.1189709501811168,
      "b": 0.021643172583692485,
      "w": [
        -0.5069547946074152,
        -0.01308053019492674,
        -0.6953914421007286,
        -0.2369150571558163,
        0.13857804848489097,
        -0.04095861721283819,
        0.17145012106222748,
        -0.6659006423094073,
        -0.3812568676933758,
        0.37535223755626956,
        -0.07670580668633013,
        0.2635026572710807,
        0.9181607176337925,
        0.7008761396180146,
        0.009821039594702702,
        -0.7714426692523397,
        -0.9171480330580046,
        0.03725453827516876,
        0.05116787147153711,
        0.8441793272401674,
        1.0673683642782466,
        0.6916313682692229,
        -0.050306652278755304,
        -0.8135698670807688,
        -0.7258915104350093,
        -1.4425778702940353,
        0.22587454859485295,
        0.6762967355457908,
        0.29440397001105867,
        0.4680150256447037,
        0.5091891324066118,
        0.07234113067567237,
        -1.0858752354691554,
        -0.7842453332661387,
        0.8143226772154429
      ],
      "delta": 0.00013745215847009063,
      "dw": [
        -0.02371468754909189,
        -0.009700114866229728,
        -0.05317238366011458,
        -0.0369672801552127,
        -0.02312984662149081,
        -0.029773440653117413,
        0.002920674149821547,
        -0.008870384297953358,
        0.0074233509190513814,
        0.006461953514628389,
        0.010078076053382934,
        0.015188634094678657,
        0.05743312701101133,
        0.02957795285290058,
        0.005750853658423465,
        -0.02965741702612887,
        -0.0397561753297127,
        -0.005620303772362253,
        0.02202689164895331,
        0.051531255033139475,
        0.04032874549183336,
        0.015341069858761675,
        -0.01275625354360461,
        -0.03362395900712674,
        -0.013511480582597915,
        -0.08353077210168508,
        0.029887953022915397,
        0.04049040057376797,
        -0.0024924068304011697,
        0.002714893318613808,
        0.017614222431708803,
        0.013619121179078379,
        -0.04168408231465687,
        -0.023367486335106585,
        0.037901089124078864
      ],
      "db": 0.0025837266651576223,
      "ap": -0.04730982795688084,
      "app": 0.0
    },
    {
      "desc": "H09",
      "z": -0.14354562857567116,
      "a": 0.46417508713884365,
      "b": 0.0007509654278100418,
      "w": [
        -0.47382684299681294,
        0.09133613061167144,
        0.18727804006955753,
        -0.4586734133981275,
        0.38688577100217636,
        -0.19427380891085066,
        -0.23618042768283018,
        -0.20995599379199048,
        -0.42408215687952305,
        -0.38254519121383296,
        0.1590625972808339,
        -0.3468506607423996,
        -0.39471834226822733,
        -0.40075404562066014,
        -0.12894248773533115,
        0.2663927627660702,
        -0.034902876608855195,
        -0.15201731218532433,
        -0.5990806326370505,
        -0.18407892256617367,
        0.16744228244789436,
        -0.41693020832904537,
        0.29092866466281037,
        -0.07385005088426891,
        0.010713867929296982,
        -0.35127022475592684,
        -0.10857752082912818,
        -0.17713763213949812,
        -0.6039989831624385,
        -0.34718419553488317,
        -0.5835997661153209,
        -0.4108077901794924,
        0.4356900420599408,
        0.2648844676144528,
        0.12026097286187981
      ],
      "delta": -3.7262151523425436e-05,
      "dw": [
        -0.08130369515075517,
        -0.03313640408283475,
        -0.18065976052934968,
        -0.12691208673370946,
        -0.07911506882508608,
        -0.10193972791014679,
        0.010186907790892766,
        -0.030804344784741443,
        0.024573470597356713,
        0.022924586717789883,
        0.03292202170184115,
        0.053176458461391664,
        0.19663682254471448,
        0.10148529487495102,
        0.019882276196577706,
        -0.10064545089834788,
        -0.13761181755007168,
        -0.02058270535434759,
        0.07728075689813578,
        0.17713024941813646,
        0.1402530724511746,
        0.05290137632656458,
        -0.04277789972636377,
        -0.11571247021034298,
        -0.04833783402449607,
        -0.28036578755548686,
        0.10296566592288721,
        0.13877843744070822,
        -0.008775367707445584,
        0.009971219338335613,
        0.05935853224246538,
        0.04533486068282711,
        -0.14366724399234712,
        -0.08044402231617725,
        0.13117668311457212
      ],
      "db": -0.0006437078604416828,
      "ap": 0.016663165553859122,
      "app": 0.0
    },
    {
      "desc": "H010",
      "z": 0.3594785180728775,
      "a": 0.5889141921303964,
      "b": -0.0022354993687718704,
      "w": [
        0.08723013751138006,
        -0.6153720944019607,
        0.14648205948296547,
        -0.2595053684146096,
        0.185766852907552,
        -0.07496289509199916,
        0.13021786571941646,
        0.17279057577184836,
        0.40295934058048594,
        -0.48046978078847197,
        0.12227426827435639,
        -0.24965990128612256,
        -0.6143438638282076,
        -0.4014166589848913,
        -0.6322343674523926,
        0.22130272334421866,
        0.4893810712139737,
        0.3506650130499341,
        -0.16055961604813027,
        -0.5762848115501406,
        -0.5925735683179254,
        -0.25007310861790244,
        -0.18563604656303162,
        0.5286865662346074,
        -0.41371790192308056,
        0.1876373794740576,
        -0.5473178452123539,
        -0.5125800425308251,
        0.017307309697489146,
        -0.5302290828594437,
        -0.6073874490628003,
        0.14145720826063504,
        -0.2359497677424223,
        -0.2587948173399356,
        -0.539199339017838
      ],
      "delta": -0.00010565877009957102,
      "dw": [
        -0.10154633148242156,
        -0.04136899160663063,
        -0.22539153327957423,
        -0.1585283005549582,
        -0.09878287897864682,
        -0.12730140716165061,
        0.012746623128861694,
        -0.03853184589821307,
        0.03057569621976717,
        0.02873388200894081,
        0.04090073545155441,
        0.06656273998982833,
        0.2455127363678608,
        0.12675001666526825,
        0.024854036328272072,
        -0.1255560616379061,
        -0.17204462717254657,
        -0.025884871393502318,
        0.09675016201145238,
        0.22125882450164547,
        0.17541819572007356,
        0.06610477024767068,
        -0.0532929892644812,
        -0.14457604888240405,
        -0.06064458749307603,
        -0.34930020758075114,
        0.12865751083930274,
        0.17330189389744702,
        -0.010987201125389832,
        0.012543852576600355,
        0.0739917475039723,
        0.056433980289242,
        -0.17952825379475737,
        -0.10051557791472579,
        0.1639872815267881
      ],
      "db": -0.0019285379781408183,
      "ap": 0.050181881080960486,
      "app": 0.0
    },
    {
      "desc": "H011",
      "z": 1.027696218060169,
      "a": 0.7364690159408634,
      "b": -0.01407267028940514,
      "w": [
        0.5896048081195921,
        0.14081059202776333,
        0.7785283432985641,
        0.8376098222400604,
        0.3456715196319561,
        0.4312950035954233,
        -0.01607272655672197,
        0.2926156498051049,
        -0.5253051192180422,
        0.09743704262865872,
        0.04938862025298049,
        0.08202403396612616,
        -0.9687087805144579,
        -0.7855579017191523,
        0.14740876819531484,
        -0.1435249409850547,
        0.45096063500356587,
        0.16172482860661622,
        -0.0950145730260838,
        -1.1385294971685993,
        -0.9486016851966476,
        -0.5848256237638436,
        0.22805176183165482,
        0.6912295112339485,
        -0.11751871882568056,
        0.7862834356120111,
        -0.6187411620419409,
        -1.045711843601103,
        -0.5767546731453949,
        -0.3784018233622325,
        0.017314605068770555,
        -0.06087446735975832,
        0.5669760040427542,
        -0.05931771601069443,
        -0.07366717352549518
      ],
      "delta": -0.00020378975724906178,
      "dw": [
        -0.12619713458078072,
        -0.051400321326393,
        -0.279958084622306,
        -0.19703272234671682,
        -0.12274764144126352,
        -0.1581909506206601,
        0.015858518922256096,
        -0.04792226253739352,
        0.037907603699439414,
        0.03578879936087604,
        0.05066310438118827,
        0.08283457360350703,
        0.3051147222035412,
        0.15753605152996716,
        0.03090487211261496,
        -0.15593612550630268,
        -0.2139462396435553,
        -0.03230162564167145,
        0.12042184402550608,
        0.27503960779105896,
        0.2182185177572732,
        0.08218892423966428,
        -0.06613745884641957,
        -0.1797198991467596,
        -0.0755707627752091,
        -0.4335228525488525,
        0.1599475088222791,
        0.21538319139919243,
        -0.013680435847611394,
        0.015655889102376697,
        0.091853379243747,
        0.06999925341827365,
        -0.22319339982552833,
        -0.12495079390950886,
        0.2039317876761256
      ],
      "db": -0.0036860679045800566,
      "ap": 0.07639824377853487,
      "app": 0.0
    },
    {
      "desc": "H012",
      "z": -1.9808313941976186,
      "a": 0.12123023868925478,
      "b": 0.021366615744925398,
      "w": [
        -0.609267028333211,
        -0.4760066029025423,
        -0.8424920104272048,
        -0.6048100168416389,
        -0.6842109364829624,
        -0.577397448934717,
        -0.4295672208001819,
        -0.42602586711627327,
        0.5103389705010054,
        0.22561070238470313,
        0.010510852453540945,
        0.3409402959607034,
        0.9436906260868091,
        0.922912279712014,
        -0.08748841532960101,
        -0.2485049301404249,
        -0.7185140110129448,
        -0.08559766669302458,
        0.44200810775831384,
        1.4179235753533865,
        0.6615207056912352,
        0.22990053490290496,
        -0.15986406628836777,
        -0.5763673836638803,
        -0.12526098503996935,
        -1.107969781814919,
        0.17720218630986762,
        0.7466396699526482,
        0.03047405797038252,
        -0.10721888558250685,
        0.48543752649033295,
        0.23987465589198315,
        -0.7558098261412552,
        -0.7842094085159612,
        0.31079330906080155
      ],
      "delta": 0.00013943787501104505,
      "dw": [
        -0.02412236004410973,
        -0.009866315836016321,
        -0.05407930572978313,
        -0.037603941787237846,
        -0.02352677072632424,
        -0.03028458277610309,
        0.002971789863805556,
        -0.009024670662493784,
        0.0075462643226203085,
        0.006577181001935782,
        0.010242719277410977,
        0.01545561683242719,
        0.058421401232084454,
        0.03008752636000185,
        0.005850624497990062,
        -0.030162287261567278,
        -0.04044677411001935,
        -0.005723768538005401,
        0.0224152509121087,
        0.05242129580091164,
        0.04103359422938254,
        0.015606855697215124,
        -0.012970890999814619,
        -0.034204500123733154,
        -0.013754277704334064,
        -0.08493834550809831,
        0.03040492281626849,
        0.041187472564774,
        -0.002536667286252931,
        0.0027650018340319308,
        0.017911982680556174,
        0.013846415673251676,
        -0.0424051690203026,
        -0.023771002418194007,
        0.03855991349816185
      ],
      "db": 0.0025919789889549526,
      "ap": -0.04744942186474706,
      "app": 0.0
    },
    {
      "desc": "H013",
      "z": -1.9655787450516464,
      "a": 0.12286456652103735,
      "b": 0.0205892694434269,
      "w": [
        -0.6982585710406619,
        -0.30679671527196817,
        -1.1552267487109034,
        -0.3426301793934517,
        -0.6142912403054178,
        -0.11757221830513515,
        0.0991490473294241,
        0.13429045577543902,
        -0.11202724985494045,
        -0.30480963320501975,
        0.3800813893924507,
        -0.07352891932269055,
        0.8451246110427102,
        0.3753513641060323,
        0.472420686337462,
        -0.44319422105352735,
        -0.7441527438472494,
        -0.3909023805479346,
        0.07455967065940503,
        1.2899618553776306,
        1.1354932120257943,
        0.09700799174922796,
        -0.17696357463285012,
        -0.5210185470105001,
        -0.05955274760504489,
        -1.2900357642230116,
        0.34836745164057603,
        0.999293740791618,
        -0.02667089028021489,
        -0.330371000605784,
        0.16727629286578877,
        -0.1604040226873963,
        -0.6278862059181921,
        -0.9430663891461911,
        0.5173026190938502
      ],
      "delta": 0.0001355385577183309,
      "dw": [
        -0.02441674167875661,
        -0.009986324964201265,
        -0.05473412211689938,
        -0.038063680453315096,
        -0.02381338130081537,
        -0.03065367502487258,
        0.0030087069131008877,
        -0.009136098425421924,
        0.007634990355293273,
        0.00666041346427487,
        0.010361551227490917,
        0.01564844428877863,
        0.05913500040006757,
        0.03045548598131267,
        0.005922674839397777,
        -0.030526813660038524,
        -0.040945501286807476,
        -0.005798528182080071,
        0.022695744144677826,
        0.05306399310429156,
        0.04154262571818875,
        0.015798786153078954,
        -0.013125843120048872,
        -0.03462372362620494,
        -0.013929674723254994,
        -0.08595450787152872,
        0.030778239641641295,
        0.04169081504762232,
        -0.0025686337448301354,
        0.002801209529022134,
        0.018126955369593623,
        0.01401049401086143,
        -0.04292588893648393,
        -0.02406239360017702,
        0.03903568770570613
      ],
      "db": 0.002587214880858345,
      "ap": -0.04754124095653757,
      "app": 0.0
    },
    {
      "desc": "H014",
      "z": -0.9658466805468224,
      "a": 0.2757091204374797,
      "b": 0.004579737434728218,
      "w": [
        -0.03923458072467797,
        -0.5256651551888644,
        -0.7372039243895916,
        -0.32391883556986084,
        0.3366161014520713,
        -0.37263980436933297,
        0.13771931413897104,
        0.18984889184060674,
        -0.4207889420874475,
        0.2332041179287463,
        -0.22234832484316727,
        -0.07803568847284464,
        -0.004681651142494345,
        0.45975710793493946,
        0.10240025547423956,
        -0.6167330582373874,
        -0.4632013331360487,
        -0.4754082582301929,
        -0.35005309270843665,
        0.45189709192790284,
        -0.13037812828610487,
        -0.29877601644825946,
        0.1763194189922083,
        0.2895186645547843,
        -0.164215162273214,
        -0.3933327082350046,
        -0.17606431073982515,
        -0.11865782828789811,
        -0.5562919982890265,
        0.052078718994355386,
        -0.15381539874524056,
        -0.3834979120396863,
        0.0564488589456455,
        0.0325471434780795,
        0.560544308369465
      ],
      "delta": 6.0964359278658346e-05,
      "dw": [
        -0.05062762139820615,
        -0.02065950945898002,
        -0.11285693539490642,
        -0.07900123475934924,
        -0.04930819430038439,
        -0.06350504069773946,
        0.006309251231416127,
        -0.01909752049759685,
        0.01547077358924544,
        0.014127030764073772,
        0.020818064397586596,
        0.032899271369062046,
        0.12256320273361895,
        0.06319814012819225,
        0.01234923863427254,
        -0.06288646736753474,
        -0.08544165526863705,
        -0.012558235678901993,
        0.04778973450023323,
        0.1102576390376622,
        0.08697710410422642,
        0.03289436652372019,
        -0.026834914689004334,
        -0.07197514236447966,
        -0.029704065651434314,
        -0.17584807688100607,
        0.06403477242751972,
        0.0864585691712537,
        -0.005424997990831973,
        0.006077957415763761,
        0.03717426773705391,
        0.028503760087213226,
        -0.08932792375325434,
        -0.05002970937967543,
        0.0814633913371652
      ],
      "db": 0.0010778677435624277,
      "ap": -0.03241639809452008,
      "app": 0.0
    },
    {
      "desc": "H015",
      "z": 0.7451622801571123,
      "a": 0.6781236717830271,
      "b": -0.0064227874439852705,
      "w": [
        0.11765736752146898,
        -0.03855909670667826,
        0.5705904608626043,
        -0.09972289748898751,
        0.05627727557054434,
        -0.3844410267903666,
        -0.6387314487203493,
        -0.5019219364957935,
        -0.019823368278605313,
        0.21518156688661993,
        0.12527538777597977,
        -0.19356263528067177,
        -1.056262660875412,
        -0.4018921561409081,
        -0.5987673309071427,
        -0.3619613988948832,
        0.04804573863136705,
        -0.22429851326293807,
        -0.27151482463856946,
        -0.4186738078649145,
        -0.8369052716422533,
        -0.5389831330235518,
        0.22677748753652913,
        0.6988782784500673,
        -0.12722620249158556,
        0.8394296263660231,
        -0.833519781939301,
        -0.30163464861142336,
        0.011184621472521602,
        0.03156786389644529,
        -0.3268043699747872,
        0.11039699224914865,
        0.41536853653373285,
        -0.1642312134395879,
        -0.9748405379161309
      ],
      "delta": -0.0001427289155572995,
      "dw": [
        -0.11630594003084968,
        -0.04737399777522519,
        -0.25804400661637994,
        -0.18158227796419457,
        -0.11312893165539714,
        -0.14579539768368685,
        0.014611004233319307,
        -0.04415843319116393,
        0.03496061526042991,
        0.03296234979028943,
        0.04673577958511746,
        0.07631201495124453,
        0.28118348126417,
        0.14517948017166307,
        0.028477790288711554,
        -0.14373669807384803,
        -0.1971398529054048,
        -0.029735607901517715,
        0.11093217174806008,
        0.2534523413694456,
        0.20105082065198598,
        0.0757343552796282,
        -0.06097527728431024,
        -0.1656197286394935,
        -0.06959481789339397,
        -0.3996708089566099,
        0.14739214210239562,
        0.19849043680735368,
        -0.012600023660823271,
        0.014411696356299845,
        0.08467755975298713,
        0.06454568501470678,
        -0.20567431383307155,
        -0.11514776669913675,
        0.18790716654288694
      ],
      "db": -0.0027868522465411927,
      "ap": 0.0687215615094569,
      "app": 0.0
    },
    {
      "desc": "H016",
      "z": -1.862793381141463,
      "a": 0.13437779275298656,
      "b": 0.017220041409405744,
      "w": [
        -0.557201153573558,
        -0.5895108995928409,
        -0.5578845745828457,
        -0.36256528463767,
        -0.7180754348867101,
        -0.5898236199626598,
        -0.5465097573706126,
        -0.39177463957469083,
        0.1434020305332161,
        -0.21223084915644097,
        -0.048269738628403384,
        0.025348925141182473,
        0.9547212173824953,
        0.7480351816507486,
        0.01078324673876452,
        -0.21322405322974078,
        -0.6320480992458981,
        -0.4481108864334382,
        0.034555798369557515,
        0.41944485845140594,
        0.8832601356439505,
        0.5143297350761639,
        -0.29822027517308636,
        -0.8460866317217646,
        -0.2923903018925921,
        -0.9685516201498812,
        0.7943191783138092,
        0.9226017798934154,
        -0.3125962403902216,
        -0.45427403616387896,
        0.4068881530628236,
        0.24084035490717992,
        -0.40455269963105517,
        -0.3568075406173651,
        0.6798189323416404
      ],
      "delta": 0.00013349973136838857,
      "dw": [
        -0.026478706277921822,
        -0.010826800535282205,
        -0.05931902029405137,
        -0.041283937732909386,
        -0.02582069576686816,
        -0.03323882727228385,
        0.0032674269240151924,
        -0.009916966621804931,
        0.008255794152065558,
        0.007243989643466004,
        0.011192620451804216,
        0.016999934553912802,
        0.06413246747230365,
        0.03303269469131269,
        0.006427465139994715,
        -0.03307915690682099,
        -0.04443974544068517,
        -0.006323228713493564,
        0.02466170460516245,
        0.05756557614644827,
        0.04510934962584464,
        0.01714325957456835,
        -0.014210330986286096,
        -0.037560411622077246,
        -0.015159835321527999,
        -0.09306647196117161,
        0.03339333739051881,
        0.045216057702718464,
        -0.0027926655154418742,
        0.0030553606165373095,
        0.01963179147683622,
        0.015158607240885347,
        -0.046573669862940904,
        -0.02610365295728526,
        0.042368960625447497
      ],
      "db": 0.0024528840998859817,
      "ap": -0.047979315901683396,
      "app": 0.0
    },
    {
      "desc": "H017",
      "z": -0.8719694011611485,
      "a": 0.2948446758899543,
      "b": 0.004005787465003257,
      "w": [
        0.14344461579320714,
        -0.5848468858733327,
        -0.5829559380525955,
        -0.012123475686424261,
        -0.37236989556291034,
        -0.3407305534384138,
        0.28327625447890115,
        0.22904987105240576,
        -0.3646407058034284,
        0.03933905812734089,
        0.33198577658901013,
        -0.5406262941791091,
        -0.13456721198630858,
        0.4690005259042311,
        -0.15239707879779477,
        -0.6528291929709745,
        -0.3529848352276091,
        -0.041511503301411574,
        -0.373722234055078,
        0.1590437168047321,
        0.3338265612295683,
        -0.023813139574463328,
        -0.2645631289708574,
        0.28740815635145167,
        -0.28278594614150626,
        -0.4044291660511649,
        -0.32880402034618417,
        0.16628544540062443,
        -0.49661180627831264,
        -0.19503316823196679,
        -0.2930470753896121,
        -0.3609786352308265,
        -0.11423523927015106,
        0.22773130175442183,
        0.2397545608723636
      ],
      "delta": 5.484110698161719e-05,
      "dw": [
        -0.05378859968776735,
        -0.02194559012054074,
        -0.11984997701016922,
        -0.08393824391585823,
        -0.05238052448421744,
        -0.06746585931021332,
        0.006708417501179261,
        -0.02030245647980972,
        0.016410555172816938,
        0.01503200184876377,
        0.022068899910023098,
        0.03498637310057423,
        0.13020100361790576,
        0.06714448924094177,
        0.013125168461415922,
        -0.06678048219774202,
        -0.09081501604514436,
        -0.013382040455554956,
        0.05082543407787163,
        0.1171506763888151,
        0.09246444246850524,
        0.03495611742313848,
        -0.02848058013062358,
        -0.07648145370933025,
        -0.031619504892790536,
        -0.18663747084664736,
        0.06804627860120974,
        0.09185215450246031,
        -0.0057700904355759116,
        0.006477549493243678,
        0.03946323054583482,
        0.030241722264803914,
        -0.0949265307241681,
        -0.05316310835491716,
        0.08658470263064438
      ],
      "db": 0.0009978789975004444,
      "ap": -0.028307066744053054,
      "app": 0.0
    },
    {
      "desc": "H018",
      "z": 0.9420150200809223,
      "a": 0.719506502327274,
      "b": -0.010654293706231853,
      "w": [
        0.23391120641183777,
        0.2042139076403689,
        0.719991967610648,
        0.5025417720218954,
        -0.16504463888618967,
        0.4601921167735903,
        -0.2886138965622427,
        -0.15670536704293164,
        -0.22026096035373396,
        0.07442880441571637,
        -0.6247805928963177,
        -0.7347447942230612,
        -0.717101115728248,
        -0.09822403470735266,
        -0.5796438766367019,
        0.14897351210844242,
        0.6692676533859927,
        0.09675898459811787,
        -0.8848221213441465,
        -0.7079665596588249,
        -0.30458152366901053,
        -0.2974563741269845,
        0.34886352511541735,
        0.25155691996773255,
        -0.36285910327047105,
        1.0890097629793662,
        -0.9677516285087472,
        -0.6138195417958385,
        -0.23366108913567618,
        -0.10297136760478152,
        -0.4727000365904798,
        -0.1010112210027304,
        0.2127731278638772,
        -0.045202544240338795,
        -0.555888630447858
      ],
      "delta": -0.00018610148735890674,
      "dw": [
        -0.12329683971432571,
        -0.05021950870857175,
        -0.2735291298179532,
        -0.19250229782753045,
        -0.11992676960375878,
        -0.1545561404904119,
        0.015492931035757282,
        -0.04681934915799966,
        0.0370425512761027,
        0.03496083868206424,
        0.04950966895288986,
        0.08092324255895982,
        0.29809502220918316,
        0.15391229107451013,
        0.03019336125360207,
        -0.15235735824238433,
        -0.20901954492862018,
        -0.031550809430295736,
        0.11764092723986581,
        0.2687086331972418,
        0.21318586246201346,
        0.08029623682188632,
        -0.06462233068301113,
        -0.17558573470576042,
        -0.073820912815945,
        -0.42358664346324065,
        0.15626606800089973,
        0.21042868114616506,
        -0.013363711150452224,
        0.015291889432836499,
        0.08974772308399336,
        0.06839828004608668,
        -0.21805683112486404,
        -0.12207666627223711,
        0.19923374318257495
      ],
      "db": -0.0033714147910876855,
      "ap": 0.07462038250320387,
      "app": 0.0
    },
    {
      "desc": "H019",
      "z": 1.0207021030145564,
      "a": 0.7351093380584482,
      "b": -0.012431841503618335,
      "w": [
        0.028837881473571005,
        0.30390374805351106,
        0.5002778923835185,
        0.2857196081223897,
        0.012449964973782219,
        0.2322478807695502,
        -0.09170031053314086,
        -0.3740477861082754,
        -0.49051921534185344,
        -0.3630651213591306,
        -0.3877965462684891,
        -0.6505632141972241,
        -0.7635975054944836,
        -0.8072151143050879,
        -0.1793781725048033,
        0.20537152125891098,
        0.7436995269291672,
        0.115124210094155,
        -0.3199503356837389,
        -0.8219673085349023,
        -0.938854159717259,
        -0.7388941837826883,
        0.06222606069269753,
        -0.015248324535035027,
        0.08279646591335474,
        0.9649633821303194,
        -0.1172432445337151,
        -1.0723936762303574,
        -0.07569338270417769,
        -0.18239127449038595,
        -0.6554058975728138,
        -0.31652987341006933,
        0.5700474515074333,
        0.5353298575408174,
        -0.5904786473864932
      ],
      "delta": -0.00019401274568701861,
      "dw": [
        -0.12596382676801268,
        -0.05130532620476844,
        -0.27944081001012633,
        -0.19666828135116365,
        -0.12252070679921379,
        -0.1578985499186911,
        0.015829117224479217,
        -0.04783356534998221,
        0.03783798372610631,
        0.035722224252882545,
        0.050570253957305356,
        0.08268086310423776,
        0.30454995374957106,
        0.15724452802978645,
        0.03084764176755088,
        -0.15564818320372828,
        -0.21354996738277993,
        -0.03224128299904468,
        0.12019819741867731,
        0.2745302904302749,
        0.21781372310591823,
        0.08203666949171788,
        -0.06601552740655878,
        -0.179387345910478,
        -0.07543008369810221,
        -0.43272321245516954,
        0.159651366245862,
        0.21498459732281563,
        -0.01365496066217282,
        0.015626636394015795,
        0.09168394098975788,
        0.0698704021488851,
        -0.22278021420394772,
        -0.12471960216841844,
        0.20355388977651093
      ],
      "db": -0.003561902451824752,
      "ap": 0.07627082386546419,
      "app": 0.0
    },
    {
      "desc": "H020",
      "z": 0.28407912034110633,
      "a": 0.5705459896286714,
      "b": -0.0024348528976548887,
      "w": [
        0.03374846216195952,
        -0.018744500224844234,
        0.4120004191386325,
        0.31369091593706766,
        0.2882285868652589,
        -0.3497540664202093,
        0.20493841360394796,
        -0.12001044433068497,
        0.4430263629680118,
        -0.45011560506633325,
        -0.3377014528153784,
        -0.4172127395997461,
        -0.19704053411501848,
        -0.3986644677186395,
        -0.4346556665125468,
        0.14348111226453256,
        0.585362630688025,
        -0.3503194943339336,
        -0.2885025213408184,
        -0.0470480625493938,
        -0.26302824677245773,
        0.09008153200398455,
        -0.18377321091302865,
        0.06205483828947531,
        0.3342770048691896,
        0.483584833609034,
        -0.2245731007278512,
        -0.06945606978149711,
        0.32231017737693235,
        -0.4892060868826717,
        0.22300888661667947,
        -0.28132892868883164,
        0.2684862123375275,
        0.49125500887941603,
        -0.45495669185262094
      ],
      "delta": -0.00010709911581063,
      "dw": [
        -0.09854550100794293,
        -0.04014840699254474,
        -0.21875779852117283,
        -0.15384128765291125,
        -0.09586687030765645,
        -0.12354158661025834,
        0.012367292839052238,
        -0.03738683237065947,
        0.0296853707013787,
        0.027873154035734916,
        0.03971682150861939,
        0.06457902516296339,
        0.23826477333435006,
        0.12300409372582125,
        0.024117088323251008,
        -0.12186205473928942,
        -0.16694087506693478,
        -0.025099853928507897,
        0.09386479767157455,
        0.2147157099104957,
        0.17020556212608187,
        0.0641472415683733,
        -0.05173316409346596,
        -0.1402973086029918,
        -0.05882169187719113,
        -0.33907379885472344,
        0.12484868915247523,
        0.16818283513120316,
        -0.010659281956803789,
        0.012162996546832264,
        0.07182138313031804,
        0.054787352898615665,
        -0.1742121379923468,
        -0.09754027307466817,
        0.15912346852161574
      ],
      "db": -0.0018129886310012276,
      "ap": 0.045636723254966816,
      "app": 0.0
    },
    {
      "desc": "H021",
      "z": 1.1425979743356187,
      "a": 0.7581563108450278,
      "b": -0.016419651049195322,
      "w": [
        0.07804830781788054,
        -0.08591499317553924,
        0.4799874853876441,
        0.6425842773837327,
        0.2325728131499065,
        0.560435047151599,
        -0.8394211513982176,
        0.3815650722612666,
        -0.012432212814832722,
        -0.7128617328411999,
        -0.3036378124488142,
        -0.7828611772582713,
        -0.9222775169519127,
        -0.6341453299511923,
        -0.5018241442814566,
        0.42088601258418534,
        0.7155916109886207,
        0.08415867535744087,
        -0.21905541487707675,
        -0.8675090620019149,
        -1.0400699752145957,
        -0.6064944657155164,
        -0.5593390907678742,
        -0.16057589124962957,
        0.4627049639695283,
        1.1466496548253813,
        -0.566635052277803,
        -0.7671248503661489,
        0.21530688896295075,
        -0.49628737237899767,
        -0.07154137148106827,
        -0.3330665807971462,
        0.6314243103303872,
        0.5065097878777132,
        -1.0336112571651173
      ],
      "delta": -0.00021312212195041114,
      "dw": [
        -0.12993937983854947,
        -0.05292422385930868,
        -0.28825798537431085,
        -0.2028783508871376,
        -0.12638806183349538,
        -0.16288120897025546,
        0.016329932806847244,
        -0.049344340648702884,
        0.03902516297072274,
        0.03685591644691805,
        0.05215411418182972,
        0.08529897452617613,
        0.31417566662477936,
        0.16221251347848276,
        0.03182269658360233,
        -0.1605561517122546,
        -0.22030124435286597,
        -0.033268083432508144,
        0.12400758795502131,
        0.28320989207392305,
        0.2247101464581343,
        0.08463110554827327,
        -0.06809452804241148,
        -0.18505375114184147,
        -0.0778250660156203,
        -0.44635785676445167,
        0.16469752130300144,
        0.22177759233376326,
        -0.01408896797995316,
        0.016124361221281566,
        0.09457253586724573,
        0.07206768974719624,
        -0.22982047798185765,
        -0.12865880423638207,
        0.20999253801871984
      ],
      "db": -0.003868531710862375,
      "ap": 0.07805115656487376,
      "app": 0.0
    },
    {
      "desc": "H022",
      "z": 0.9942113552286023,
      "a": 0.7299189408891873,
      "b": -0.011828084228094452,
      "w": [
        -0.19719604348575318,
        0.07710709890880343,
        0.9125551618759574,
        0.5941151679043803,
        0.260745469576948,
        0.5086566654357969,
        0.0005827759538653909,
        -0.4514963376140682,
        -0.06241761189365539,
        -0.2678369725141498,
        -0.5457909068698079,
        -0.10990182015301699,
        -1.2104294246131968,
        -0.8104677906096643,
        -0.12545765110517448,
        0.47626189978099864,
        -0.09743797376930691,
        -0.32440915630428524,
        -0.959132743330188,
        -1.0673065025074824,
        -0.49490266377963194,
        0.15206573514392147,
        -0.13583784075147515,
        -0.18623987418050025,
        -0.24062114198789097,
        0.8968220480365333,
        -0.3829885759275366,
        -0.6886100477244097,
        0.2978874359364094,
        -0.5066302188091117,
        -0.08969933686337771,
        -0.7789018769610844,
        0.6146867789117817,
        -0.07588512901978865,
        -0.6369630400652596
      ],
      "delta": -0.00017949950317631085,
      "dw": [
        -0.12507455378215407,
        -0.05094325590777084,
        -0.2774693549388447,
        -0.19527918430253902,
        -0.12165575150280387,
        -0.1567840497869495,
        0.01571703826684219,
        -0.047495448720327516,
        0.037572674970136916,
        0.0354684208247234,
        0.05021645300190355,
        0.08209491268344167,
        0.3023974262123533,
        0.1561333900879516,
        0.03062949415773987,
        -0.15455075814976138,
        -0.21203946748817606,
        -0.032011191355802535,
        0.11934565325702616,
        0.27258904103089787,
        0.21627073649930875,
        0.08145633973592283,
        -0.06555085743523185,
        -0.1781197729799256,
        -0.07489373576573136,
        -0.42967587663471923,
        0.1585225880906297,
        0.21346538523493427,
        -0.013557854650975757,
        0.015515090503881942,
        0.09103819974847047,
        0.06937938000578286,
        -0.22120529745985162,
        -0.12383837648507476,
        0.20211345600117558
      ],
      "db": -0.003458998599954333,
      "ap": 0.07575980891770287,
      "app": 0.0
    },
    {
      "desc": "H023",
      "z": -1.9465553469693484,
      "a": 0.12492944855046786,
      "b": 0.01894471177280587,
      "w": [
        -0.5184356099711622,
        0.18067652413467686,
        -0.9165105413557453,
        -0.7181293082696486,
        -0.5808238139173455,
        -0.4414959991609346,
        -0.32418041923335206,
        0.22927551149980285,
        0.3565041437539926,
        0.39023722956450824,
        0.10568492895352703,
        0.6370135688414532,
        0.9709878273327528,
        0.1859252312655024,
        0.044122162695131924,
        -0.08759038238165362,
        -0.8769249787604914,
        0.041854319845719114,
        0.27985374401673074,
        0.8446313466597519,
        0.30819589941643755,
        -0.14293431870681725,
        -0.17728557979888043,
        -0.29624560284740814,
        -0.6846621099096349,
        -1.2645335109710878,
        0.5958564310513068,
        1.0994922488177863,
        -0.26308063968391154,
        -0.3971197234433511,
        0.26544240523662205,
        0.4916765968471968,
        -0.672781192068697,
        -0.3824791172093076,
        0.8951626909013933
      ],
      "delta": 0.00013345979237684984,
      "dw": [
        -0.024788062028928276,
        -0.010137693290413042,
        -0.0555599911144127,
        -0.03864357874073442,
        -0.024174888221974316,
        -0.031119226109440432,
        0.0030552797786083563,
        -0.009276668696555817,
        0.007746870345446372,
        0.006765430068699651,
        0.010511373549284159,
        0.015891713392890985,
        0.060035059730725586,
        0.030919608257502652,
        0.006013562456964161,
        -0.030986562249600655,
        -0.04157462516799101,
        -0.005892882254376906,
        0.02304961364397992,
        0.05387465849806639,
        0.04218476350916024,
        0.01604088540911894,
        -0.013321248145252425,
        -0.03515252911680814,
        -0.014150997735030028,
        -0.08723595664435806,
        0.031249138405318677,
        0.04232569108047549,
        -0.002608961616593567,
        0.0028469086549571788,
        0.018398064637993518,
        0.014217394721817442,
        -0.04358272687431474,
        -0.024429954650704792,
        0.03963584948274766
      ],
      "db": 0.002509011617974851,
      "ap": -0.04764643766407004,
      "app": 0.0
    },
    {
      "desc": "H024",
      "z": -1.447156212636876,
      "a": 0.19043961352577707,
      "b": 0.008669184685486934,
      "w": [
        -0.23945969511833373,
        -0.5275203608178091,
        -0.871983691109792,
        -0.7292238312141686,
        -0.4831934180153489,
        0.09960244833372905,
        -0.39664060218602737,
        -0.02166928007433803,
        -0.3387222665978723,
        0.1858193936244314,
        -0.1773277696623956,
        0.18026925030390847,
        0.041039994623858114,
        0.14363820361126747,
        0.02328559784530412,
        -0.44056540749104,
        -0.10902651786113493,
        -0.37209321688140756,
        0.5634997801001382,
        0.5310903567762159,
        0.3641707017122289,
        -0.22361263828772318,
        -0.4773118742554113,
        -0.6121634020171379,
        -0.1754898049977046,
        -0.2251972601897437,
        0.6694484077721259,
        0.19968922389820967,
        -0.5719795601286077,
        -0.014971456791605135,
        -0.12450022406113183,
        0.3377752193755496,
        -0.7936512795974239,
        -0.20836062421764473,
        0.3341505177183765
      ],
      "delta": 0.00010688015695438683,
      "dw": [
        -0.03627280330105727,
        -0.014816646235593103,
        -0.0810624013688208,
        -0.0565807321891135,
        -0.03535066192729796,
        -0.04551576232065665,
        0.00449898048884738,
        -0.013633718882108502,
        0.011191854768818192,
        0.0100269681616273,
        0.015115688766153728,
        0.023435563778242338,
        0.08785025025171314,
        0.0452708396058045,
        0.008827437057568232,
        -0.04518381268280488,
        -0.06105510795639744,
        -0.008835786658702108,
        0.034023671343628055,
        0.07894294105177446,
        0.0620737110945071,
        0.023531002553161783,
        -0.01934459888028141,
        -0.051514438483275124,
        -0.021033917056236837,
        -0.12673523938880377,
        0.045818615614302914,
        0.06195194373703996,
        -0.003858941830164661,
        0.004272927806055049,
        0.02676152349033466,
        0.020589456843836892,
        -0.06390821774175977,
        -0.035803924617717954,
        0.05821523046826712
      ],
      "db": 0.0018361869504261734,
      "ap": -0.045721450184767025,
      "app": 0.0
    },
    {
      "desc": "H025",
      "z": -2.0033061640575434,
      "a": 0.11885623279355796,
      "b": 0.021968335291239743,
      "w": [
        -0.45094397033630834,
        -0.07816816187299155,
        -0.39215525215307045,
        -1.0716126722970596,
        -0.7626778314755651,
        -0.19855582701015698,
        0.21735421772029706,
        -0.5518275775754952,
        -0.0759567925996696,
        0.4127438097038444,
        -0.505478447680598,
        0.016015552127952543,
        1.2421677126723616,
        -0.013455668697043094,
        -0.0752450031269607,
        -0.37810587390571765,
        -1.0745873100600907,
        0.04341856563035584,
        0.4686318760644585,
        1.0780236800914238,
        0.6911181677824592,
        0.7031427496067553,
        -0.44618343333239047,
        -0.4315670000364129,
        -0.10970075998367795,
        -1.6745940540183084,
        0.4831200782051526,
        0.7723681869245158,
        0.2553879860183537,
        0.25262622880521085,
        0.4989750588761337,
        0.4452464522108451,
        -0.7228856294885855,
        -0.5148617639563102,
        0.4338099115456242
      ],
      "delta": 0.0001384783334556566,
      "dw": [
        -0.02369396503654317,
        -0.009691666436022808,
        -0.05312628039917834,
        -0.03693491797633889,
        -0.023109670046739472,
        -0.029747458423625604,
        0.0029180761443609654,
        -0.008862542467528023,
        0.007417101759091023,
        0.006456097503141869,
        0.010069704522562612,
        0.015175064695029949,
        0.057382890187750134,
        0.029552050367695936,
        0.005745782419406029,
        -0.02963175199973284,
        -0.03972107321517405,
        -0.005615046592852984,
        0.02200715337481737,
        0.051486012967511076,
        0.04029291966850479,
        0.015327559875975005,
        -0.012745341582183161,
        -0.033594449925823805,
        -0.013499142053144066,
        -0.08345921243793511,
        0.029861675285572566,
        0.04045496685302988,
        -0.0024901572715869237,
        0.0027123472925448446,
        0.017599085116378706,
        0.0136075652562438,
        -0.04164742947301964,
        -0.02334697557455368,
        0.03786760177439115
      ],
      "db": 0.0026431504357961578,
      "ap": -0.047302343382413424,
      "app": 0.0
    },
    {
      "desc": "H026",
      "z": -2.0494548727048825,
      "a": 0.11410747494948331,
      "b": 0.026379132330071532,
      "w": [
        0.003499578540441139,
        -0.5907788781217088,
        -0.9475198898343912,
        -0.9416916266458734,
        0.13389240177001183,
        -0.6201425908680384,
        -0.5321949537267487,
        -0.1973209478504233,
        0.2659026526270152,
        -0.03925433647077411,
        -0.18659681364410743,
        -0.19141608345753144,
        1.3740871223344675,
        0.419198829582778,
        -0.23382407484073428,
        -0.2635314020188024,
        -1.0748621611311102,
        -0.5601325904357761,
        0.5424143892290431,
        0.9292220552561012,
        1.04742345231214,
        0.16607263235022868,
        -0.33347535808553347,
        -0.9862892384025206,
        -0.7565242272220768,
        -1.2584344961538898,
        0.8282771713422533,
        1.1467218155325731,
        -0.5174592753640798,
        -0.3281181209998082,
        0.06575523658536933,
        0.4030520945393171,
        -0.682147084411242,
        -0.09897381004809161,
        1.1567779250911687
      ],
      "delta": 0.00014511413139839063,
      "dw": [
        -0.022834193588054115,
        -0.009341123918750926,
        -0.05121318540435048,
        -0.035592232878346154,
        -0.022272513315998988,
        -0.02866944316884112,
        0.0028103093775435515,
        -0.00853725167541658,
        0.0071577104221580085,
        0.006213233964109652,
        0.009722152307495029,
        0.01461222072374911,
        0.05529844263536764,
        0.02847734551381512,
        0.005535399167024309,
        -0.028566757422841354,
        -0.0382648630339499,
        -0.005397108637403003,
        0.021188439406383326,
        0.04960892062501774,
        0.03880673990011032,
        0.014767056949977365,
        -0.012292461816479546,
        -0.03237017586161031,
        -0.012987496431810807,
        -0.08048926978399198,
        0.02877146339571096,
        0.03898477510088739,
        -0.002396846476223523,
        0.0026068056212503144,
        0.01697088636080201,
        0.01312791607335867,
        -0.04012679393988079,
        -0.022496031511124073,
        0.03647835621142068
      ],
      "db": 0.0027704032274535693,
      "ap": -0.0469581836701535,
      "app": 0.0
    },
    {
      "desc": "H027",
      "z": -1.1189103151622677,
      "a": 0.2462134648367104,
      "b": 0.005137213329201378,
      "w": [
        -0.29446496651670406,
        -0.12441918645637311,
        -0.23604427201597203,
        -0.7508803953225764,
        -0.38781679676242126,
        0.033141235598144476,
        0.0979509202334488,
        -0.15345430142456373,
        -0.38752461401702437,
        -0.12503221798502007,
        -0.46387336378263005,
        -0.2451684625632202,
        0.03223657305114327,
        0.10692855446439599,
        -0.048179740557121,
        -0.2773189924074597,
        -0.7105785054190927,
        0.07410844223769046,
        0.31487859925457257,
        0.15428055233457486,
        0.13458808868260436,
        0.37812957661904734,
        -0.07609659678876539,
        0.09687317254836947,
        0.09710391701889781,
        -0.38513862641820495,
        0.5653192956991915,
        0.23983287538351392,
        0.30922485124823323,
        0.38736239419238633,
        -0.20137029940969467,
        -0.43290494778401295,
        -0.13950294540835528,
        -0.560634835743546,
        -0.060910795226726364
      ],
      "delta": 7.774636506582696e-05,
      "dw": [
        -0.04571782693898926,
        -0.018661568539056043,
        -0.10198984957187655,
        -0.07133275844054014,
        -0.044535359477051,
        -0.05735259764135229,
        0.005689574483495062,
        -0.017227064456929998,
        0.014009571022053267,
        0.012722669216311034,
        0.018872251954000063,
        0.029659397083369884,
        0.1106958553489736,
        0.05706761501749538,
        0.011144275331055034,
        -0.05683550290200247,
        -0.07709749973477205,
        -0.011281168572488547,
        0.043077153136896876,
        0.0995493063755286,
        0.07845594264171671,
        0.029691853413408572,
        -0.02427647972498913,
        -0.0649761723183665,
        -0.026732716530722796,
        -0.15907367335436434,
        0.05780399732274157,
        0.07807913084040252,
        -0.004889112614902565,
        0.005458585423395718,
        0.033616489101589556,
        0.025801320393709713,
        -0.08063250566745127,
        -0.04516325447867851,
        0.07350985179897575
      ],
      "db": 0.0012812455122720007,
      "ap": -0.038049745261683254,
      "app": 0.0
    },
    {
      "desc": "H028",
      "z": -2.1411484878439584,
      "a": 0.10516126507153394,
      "b": 0.034504128780315196,
      "w": [
        -0.7412312713568644,
        -0.05607810006433716,
        -1.3693282000903564,
        -1.0783835576775138,
        -0.20569778432283062,
        -0.8965683085437418,
        -0.13089436273365848,
        0.21638179915479497,
        -0.25960208328521756,
        -0.16312034219322172,
        0.2495506626797053,
        0.6901650421788404,
        1.3491455687749525,
        1.0846122134661174,
        -0.31990527312957334,
        -0.9320441035401874,
        -0.8600528890018849,
        -0.250241535539711,
        0.8609006524376217,
        1.6101050007286715,
        0.8851445094090191,
        0.7289242701331514,
        0.06237213693061992,
        -0.27517258212600443,
        -0.7080577797017104,
        -1.7545641779722558,
        0.9558985858715656,
        0.518668690041548,
        -0.3048557431675203,
        -0.3952814969489062,
        -0.10273403034554603,
        -0.20901417992865984,
        -1.0573566476114178,
        -0.2422380198934358,
        0.6278114675101734
      ],
      "delta": 0.00015810485351695587,
      "dw": [
        -0.021203616010826074,
        -0.008676202714928643,
        -0.047583374573247184,
        -0.03304587572701354,
        -0.020684625275094345,
        -0.026624850518364634,
        0.002606061704710085,
        -0.007920691386783786,
        0.006665113032693357,
        0.00575321009617316,
        0.009061765632732565,
        0.013545606359201937,
        0.051344510761489354,
        0.02643905284734523,
        0.005136522327509278,
        -0.026546073012462725,
        -0.035504076224243994,
        -0.004984808636743655,
        0.019636992089843444,
        0.04604893571102297,
        0.03598945194218645,
        0.013704185410606418,
        -0.011432746557889482,
        -0.030048596108613625,
        -0.012018714477652988,
        -0.07485136442648714,
        0.02670411080547105,
        0.036196222797034834,
        -0.0022200129286952027,
        0.0024071652355723,
        0.01577861661197968,
        0.012217138253797869,
        -0.03724333943070005,
        -0.020882433729847858,
        0.03384439953194035
      ],
      "db": 0.003054216344587322,
      "ap": -0.04611999810195466,
      "app": 0.0
    },
    {
      "desc": "H029",
      "z": -2.1396791774350357,
      "a": 0.10529961090342842,
      "b": 0.03110071864929104,
      "w": [
        -0.2385461200817209,
        -0.18920772919070833,
        -1.1637373177510866,
        -0.29834405615502196,
        -0.6562720891884112,
        -0.09303848194759272,
        0.39443655082390483,
        -0.6855334504370109,
        0.17459917858061086,
        0.3237042636405308,
        0.48478338025774315,
        0.46549915681084986,
        1.5993554926395692,
        1.0145687484822201,
        0.39368349876168757,
        -0.5516836414487607,
        -0.6780690463348196,
        -0.6399159968180362,
        0.9290446025734557,
        1.552056381630825,
        1.2404295768881746,
        0.776850419371841,
        -0.38942718470743265,
        -0.7641979959879703,
        -0.4401561745847333,
        -1.7623278684127253,
        0.6648466573593199,
        0.5117603816894674,
        0.09811969649208648,
        0.17192122796807044,
        0.5989723898751828,
        0.5734282821772281,
        -0.3751689838168323,
        -0.20102006646478862,
        0.6559730069323221
      ],
      "delta": 0.0001494287863615272,
      "dw": [
        -0.021228944273195986,
        -0.00868653227592515,
        -0.04763977397801183,
        -0.03308542820428727,
        -0.020709292491987694,
        -0.026656610965080516,
        0.0026092329243848577,
        -0.007930264831317906,
        0.006672771643345845,
        0.0057603497170174035,
        0.009072036793673743,
        0.013562165588018862,
        0.051405935658048636,
        0.02647071508843671,
        0.005142716927149007,
        -0.026577470314935868,
        -0.03554695026839328,
        -0.004991202197967985,
        0.01966107776174126,
        0.04610423409115723,
        0.03603319992583785,
        0.013720693803017778,
        -0.011446109357343045,
        -0.030084654855865593,
        -0.012033746317342114,
        -0.07493899558513488,
        0.026736220770760846,
        0.03623954116759197,
        -0.002222758300259963,
        0.0024102608018570907,
        0.015797145692361087,
        0.012231297340049761,
        -0.037288123974546096,
        -0.02090749570606192,
        0.03388530519040194
      ],
      "db": 0.0029390947412263487,
      "ap": -0.04613492701198955,
      "app": 0.0
    },
    {
      "desc": "H030",
      "z": -2.1027691372086914,
      "a": 0.10882796691908239,
      "b": 0.030422499153936064,
      "w": [
        -0.8702384570717476,
        -0.1849411220779945,
        -0.9971874580006863,
        -0.8586056108133752,
        -0.8216772171493981,
        -0.8401166487830578,
        0.11533412019117531,
        -0.6514934895684892,
        -0.13160914051974648,
        0.25675068532951373,
        -0.3205358814157214,
        0.4273500486155296,
        1.1878894508077722,
        0.3382202584188426,
        -0.09759235910964288,
        -0.34210867377053017,
        -1.0312759821035304,
        -0.20604979657469358,
        1.000003797227477,
        1.3622485891935527,
        0.8586013267054051,
        -0.15391229916499127,
        -0.5995976267008134,
        -0.4731095874550703,
        -0.4447342065671439,
        -1.5792710102719423,
        0.38837641689213104,
        0.9698386603926837,
        0.3114784453580725,
        0.45352894260407345,
        0.3107052748764202,
        0.17171886664452654,
        -1.0296600713694726,
        -0.9308581528697117,
        0.6209958604686455
      ],
      "delta": 0.00015722067935523395,
      "dw": [
        -0.021873695982803882,
        -0.00894946746073403,
        -0.04907528977181062,
        -0.03409227862447368,
        -0.02133719454236986,
        -0.027465086627432665,
        0.0026899743573508576,
        -0.008174005507750886,
        0.006867652418837946,
        0.005942160597718542,
        0.009333354618615411,
        0.013983790147538063,
        0.0529694797915907,
        0.027276695092023934,
        0.005300419434321877,
        -0.027376612832247942,
        -0.036638454151149406,
        -0.005154072968131568,
        0.02027434447869714,
        0.04751190061848363,
        0.03714699155599771,
        0.014140945295737832,
        -0.011786177546837317,
        -0.031002593301834032,
        -0.012416573715115498,
        -0.077169114886908,
        0.027553637731282433,
        0.0373422149406607,
        -0.002292659750277959,
        0.002489120747566515,
        0.01626871918545758,
        0.012591601787070677,
        -0.03842820641208361,
        -0.021545496442283017,
        0.034926684065172256
      ],
      "db": 0.0029431139096748253,
      "ap": -0.046494447175899394,
      "app": 0.0
    },
    {
      "desc": "H031",
      "z": -2.119858991666999,
      "a": 0.10718156334483397,
      "b": 0.030589475106051568,
      "w": [
        -0.5267376978756345,
        -0.07628272591252323,
        -0.49082282706298297,
        -0.6054128432844196,
        -0.47003258803670517,
        -1.0048316445624572,
        0.301506015329378,
        0.2476249325424017,
        -0.02707843135908371,
        0.27342981835499913,
        -0.017708983402994306,
        0.4233026519192249,
        1.6533240525695718,
        0.37099486682202604,
        -0.11594829528516118,
        -0.901202295051856,
        -0.7428644386829075,
        -0.18693543717924802,
        0.9328201474182963,
        0.9642029388633188,
        0.48110011897846,
        0.7707412944199425,
        -0.7757119581679014,
        -0.8985851204297333,
        0.06364321140047134,
        -1.6968702822721122,
        0.9537052556376521,
        1.0095135732683842,
        -0.08636865240827726,
        0.009420156599599917,
        0.11261638106305066,
        0.3344549215630222,
        -1.1851871066614974,
        -0.5798751262664581,
        1.1548241204662795
      ],
      "delta": 0.0001541161082660417,
      "dw": [
        -0.021573131159599385,
        -0.00882689750980202,
        -0.0484061355421551,
        -0.03362291145790437,
        -0.0210444898402195,
        -0.027088201365049497,
        0.0026523313436049543,
        -0.008060370865769266,
        0.006776822477591692,
        0.0058573899024571136,
        0.009211569669387664,
        0.013787218085091743,
        0.05224061865170651,
        0.026900972272683617,
        0.005226899736821147,
        -0.027004099580935758,
        -0.03612960015603929,
        -0.005078119384161325,
        0.019988422383432895,
        0.046855686625798004,
        0.03662773799785393,
        0.013945032098530222,
        -0.011627669544733037,
        -0.030574668705940097,
        -0.012238067877144737,
        -0.07612964058352528,
        0.027172573877319733,
        0.036828187361600005,
        -0.002260069963169669,
        0.0024523443000727526,
        0.01604890874022339,
        0.012423668259091806,
        -0.037896719509077935,
        -0.02124807219144669,
        0.03444120125845192
      ],
      "db": 0.002957415726687804,
      "ap": -0.04633173888310981,
      "app": 0.0
    },
    {
      "desc": "H032",
      "z": -0.7997559323073262,
      "a": 0.31007772973904074,
      "b": 0.0031052053883554053,
      "w": [
        0.37963897463263074,
        -0.313573586236052,
        -0.24803258201843312,
        0.3278209732885833,
        0.17308297198685474,
        -0.3148513273647234,
        0.09617930909969329,
        -0.5254810844133344,
        0.23595181629973266,
        0.027835252769151848,
        0.024235213445866023,
        -0.12512672242066636,
        0.5885389681501495,
        0.2407361049391369,
        -0.5541497356316042,
        0.30913976708007446,
        0.31714273421630695,
        -0.48464420448631085,
        -0.28000149105692324,
        -0.03478614675091921,
        0.544963792171082,
        0.011320397141545376,
        0.14903542058372202,
        0.356169674190089,
        0.3155811834349012,
        -0.2010286397889654,
        -0.29696888388523424,
        0.0828547011120512,
        -0.20250600122319914,
        0.43059035122290235,
        -0.2718715757287316,
        -0.26003188375322567,
        -0.590932879159408,
        -0.5908473825483954,
        0.5119780145917285
      ],
      "delta": 3.575352028025263e-05,
      "dw": [
        -0.05629335334608342,
        -0.02296457595299817,
        -0.12538967649344326,
        -0.0878502986576777,
        -0.05481480742033924,
        -0.0706043153020214,
        0.00702481550054932,
        -0.021257586005261026,
        0.017154790034354262,
        0.015749485675923092,
        0.02305917043610575,
        0.036640766450627575,
        0.1362519588005647,
        0.07027129991591173,
        0.01374008884405764,
        -0.06986530611820341,
        -0.09507346375201542,
        -0.014035579790239137,
        0.05323170072971042,
        0.12261215933727351,
        0.09681319988434745,
        0.03658980834535916,
        -0.029783901356687875,
        -0.08005238290343669,
        -0.03313844590733009,
        -0.19518215617720286,
        0.0712250100590191,
        0.09612544415815233,
        -0.006043576681080089,
        0.006794577045927574,
        0.04127625687925454,
        0.03161798589501005,
        -0.09936303660007212,
        -0.05564615828179501,
        0.09064315210754548
      ],
      "db": 0.0007046857745308376,
      "ap": -0.02481807000947659,
      "app": 0.0
    },
    {
      "desc": "H033",
      "z": -1.1905631803534034,
      "a": 0.23315822654471105,
      "b": 0.005175998336888874,
      "w": [
        -0.11515342108651119,
        0.22006597135135064,
        -0.14564962033480253,
        -0.35149143254430526,
        0.06076221147278066,
        -0.4312144551706455,
        -0.17129288617705613,
        0.31302473305595424,
        0.1430932610412327,
        -0.4219690816186634,
        0.2430948975861034,
        0.24588566652876898,
        0.7465906668513329,
        -0.3560886221595297,
        0.08914556766377801,
        0.21386456287910036,
        0.16404248860332135,
        -0.5151229260307885,
        -0.10254604805095563,
        0.3199227490558177,
        0.3934740766081535,
        -0.3268773847740343,
        -0.3643975473692963,
        -0.08551226796926392,
        -0.19827463007638227,
        -0.5095381752011775,
        0.1602135438051262,
        0.26249900852686076,
        0.3260774412409479,
        -0.4223239638187746,
        0.14147753222673584,
        0.161797016064945,
        -0.3576508875523088,
        -0.5166437206036281,
        0.5535343502429734
      ],
      "delta": 7.791899104150345e-05,
      "dw": [
        -0.043527800756082036,
        -0.017770230667046423,
        -0.09714024148340032,
        -0.06791219668042776,
        -0.0424060957308359,
        -0.05460815002878368,
        0.005413317330331067,
        -0.016393246732446277,
        0.013357110917339201,
        0.012096845546382694,
        0.018002957614343194,
        0.02821512979795539,
        0.10540066488833359,
        0.054332708651471745,
        0.010606915293395755,
        -0.054135281920195885,
        -0.0733765098437692,
        -0.010712683167728623,
        0.04097631677156626,
        0.09477209595129983,
        0.07465603953526524,
        0.028263335106866544,
        -0.02313423486122195,
        -0.06185448602916078,
        -0.025409091449753753,
        -0.15158425328710393,
        0.055024810068126054,
        0.0743406515185099,
        -0.004650145978227121,
        0.0051829078750012785,
        0.03202841962568986,
        0.02459454296173862,
        -0.07675419849899781,
        -0.042992793597200436,
        0.0699627081924161
      ],
      "db": 0.0014100758912690451,
      "ap": -0.04022910562668674,
      "app": 0.0
    },
    {
      "desc": "H034",
      "z": -1.6397457837540244,
      "a": 0.16249965679572614,
      "b": 0.011002939772255424,
      "w": [
        -0.6288493460304816,
        0.2605484880725049,
        -0.8040893242780806,
        -0.5041540530795421,
        -0.6307347521201525,
        -0.3228243871354553,
        -0.17760965527237155,
        0.22105766439343127,
        0.4031659022342801,
        0.3041483933283264,
        -0.027961026478502876,
        0.246479645336204,
        0.3835903317815246,
        -0.20543671609803307,
        0.3683340101255576,
        -0.7787483948414556,
        0.005691711444380939,
        0.14228755412267227,
        0.6114177946424512,
        0.5495965285368002,
        0.5824142694795318,
        0.2734513638708669,
        -0.4864811603081162,
        -0.44207142478138817,
        -0.5793959897686082,
        -1.2604707235119073,
        0.5548202695246301,
        0.24503301189091634,
        -0.1145396986458876,
        -0.2051031923772049,
        0.41503790579398087,
        -0.4698863456618439,
        -0.3264982642541848,
        0.004343677173517425,
        -0.10510798326533638
      ],
      "delta": 0.00011395728728271257,
      "dw": [
        -0.03143747785315581,
        -0.012847299204356236,
        -0.07033418061402293,
        -0.049028606453211554,
        -0.03064660236607837,
        -0.03945507602733777,
        0.003890481963418883,
        -0.011797328574665863,
        0.009744610542027589,
        0.008651029639884365,
        0.013183292490165066,
        0.02025538579478026,
        0.07614473839721433,
        0.03922959533148758,
        0.007642169928119175,
        -0.03921122228181052,
        -0.052848902486862005,
        -0.007591659998977694,
        0.02939743099815006,
        0.06839008762262513,
        0.05369447685187439,
        0.02037715773015643,
        -0.016812941796669117,
        -0.044624478066821106,
        -0.018128281112656817,
        -0.11013384668765527,
        0.039683667682981955,
        0.0536912159650271,
        -0.0033321647845708873,
        0.0036699312637913806,
        0.023244917094356762,
        0.01791238772424845,
        -0.05534881908925163,
        -0.031014113231163754,
        0.050389616111853525
      ],
      "db": 0.0021077712129239506,
      "ap": -0.04766960070504263,
      "app": 0.0
    },
    {
      "desc": "H035",
      "z": -2.1507397573819644,
      "a": 0.10426211581946025,
      "b": 0.03549664738522366,
      "w": [
        -0.813880245090721,
        0.04788820027046116,
        -1.1244213246136172,
        -1.1435510001116431,
        -0.842607122711639,
        -0.9469062354672522,
        0.007207220511185087,
        -0.5886609406085233,
        -0.1645180843034581,
        0.45854475668854316,
        0.4819120671949738,
        0.6234458828994955,
        1.6160722873165048,
        0.6214196961243442,
        0.13991881227233663,
        -0.9966676161396358,
        -0.7308007091911153,
        -0.5554366092301726,
        0.40372650437701735,
        1.0903569296691409,
        1.2575005499985605,
        -0.05691137955101082,
        -0.6036415480099274,
        -0.8225632077453595,
        -0.5160682865308044,
        -1.4073347012751596,
        0.6745594202486238,
        1.3132957041549778,
        0.2685045555618526,
        -0.18262010111350885,
        0.6113006284860287,
        0.0011971050885882823,
        -0.8419512743739596,
        -0.9805686623563884,
        0.6228156215643132
      ],
      "delta": 0.00016850268435268618,
      "dw": [
        -0.021038911247471214,
        -0.008609030686990909,
        -0.04721660719163645,
        -0.03278867438599179,
        -0.020524217535835835,
        -0.026418317584083834,
        0.0025854410192574628,
        -0.00785844013763674,
        0.006615305002244788,
        0.005706787406309742,
        0.00899496370993851,
        0.013437931992589126,
        0.05094507103626889,
        0.026233158871077984,
        0.0050962410783845944,
        -0.02634189498374511,
        -0.03522528278265626,
        -0.004943241218862323,
        0.01948037846455628,
        0.045689341252704734,
        0.035704978503399515,
        0.013596835809761365,
        -0.011345844035716684,
        -0.029814115569643796,
        -0.011920978604543647,
        -0.07428147162563895,
        0.02649530829602666,
        0.03591452963758637,
        -0.0022021614853581276,
        0.0023870397805993556,
        0.015658118281338312,
        0.012125055128898084,
        -0.0369521183489738,
        -0.02071946261212444,
        0.03357840480578817
      ],
      "db": 0.003153390751772845,
      "ap": -0.04602141829657522,
      "app": 0.0
    },
    {
      "desc": "H036",
      "z": -2.1065355757763444,
      "a": 0.10846321880565438,
      "b": 0.028989564272124308,
      "w": [
        -0.20421365029606997,
        -0.5408630460435395,
        -1.3945655339487237,
        -0.7691666263602555,
        -0.01660047299549606,
        -0.5966270028386408,
        0.08463209771564226,
        0.06675211195240355,
        -0.08519802100983463,
        0.5770168291697076,
        -0.01872582539048227,
        0.5901155848139753,
        1.049986066715514,
        1.0565763481256862,
        -0.1529868822187948,
        -0.5499762411861351,
        -0.5682460738162136,
        0.2802297431934076,
        1.0086916613836843,
        1.4303068069104623,
        1.001160107575188,
        0.12300967864529788,
        -0.2106977420706605,
        -0.9908300601483999,
        -0.5584169918391977,
        -1.5703711649626948,
        0.7317565653720953,
        0.5840725456897297,
        -0.4275302181732121,
        -0.23476314458973743,
        0.31621867290568917,
        0.5159721402418791,
        -0.7329167888110636,
        -0.12936040623623307,
        0.8061097434036391
      ],
      "delta": 0.00014737376070882881,
      "dw": [
        -0.021807151386032918,
        -0.008922331094130048,
        -0.04892714633422312,
        -0.033988361111257755,
        -0.021272390955124,
        -0.027381645245611336,
        0.0026816397064945395,
        -0.008148845524000203,
        0.006847545466495813,
        0.005923390169282036,
        0.009306396659276026,
        0.013940266013150123,
        0.0528081138196427,
        0.02719351094120266,
        0.005284141795682214,
        -0.027294142558835447,
        -0.036525790777477744,
        -0.0051372528156778206,
        0.02021103661484508,
        0.04736661585078605,
        0.03703202431452331,
        0.014097569829587148,
        -0.011751087400353364,
        -0.030907850270963818,
        -0.012377046455927057,
        -0.07693899823642796,
        0.027469269677048852,
        0.037228411136081364,
        -0.002285443870111241,
        0.0024809763880673454,
        0.016220057004432565,
        0.012554426036769345,
        -0.038310534086480934,
        -0.021479646193238267,
        0.03481919569069648
      ],
      "db": 0.0028599104491329255,
      "ap": -0.04645915502978805,
      "app": 0.0
    },
    {
      "desc": "H037",
      "z": -1.699534217715628,
      "a": 0.15452610871802408,
      "b": 0.011381255018707667,
      "w": [
        0.04025401609441232,
        0.0036368519542611284,
        -0.3474054294313218,
        -0.7119468503292549,
        -0.13820206627756967,
        -0.7690362450292814,
        0.19177527459394786,
        -0.1384151589757136,
        -0.4552831916629968,
        0.35948824654871797,
        0.08417663096437014,
        0.6645383964985806,
        0.6262696704916003,
        0.7970101760098609,
        0.06842184086000366,
        0.0772306943726682,
        -0.32326620320088983,
        -0.6200212853324124,
        -0.08061566603620758,
        0.7147146840590658,
        0.5135650139492953,
        0.2542576853566148,
        -0.01712868408727465,
        -0.6133218209457384,
        0.16187247190144474,
        -1.4376094314459875,
        -0.08958704235831041,
        0.02286677852417083,
        0.09000879959683493,
        0.5284989543639023,
        -0.18581913609001402,
        -0.017925664852650437,
        -0.44568511376304487,
        0.09299059499342609,
        0.7323104632220678
      ],
      "delta": 0.00011096283430962289,
      "dw": [
        -0.03004174754992923,
        -0.012278693042973507,
        -0.06723522428477952,
        -0.046848701308901466,
        -0.029288461456410047,
        -0.03770550139791166,
        0.0037150013522163155,
        -0.011267744349917437,
        0.009326086683041225,
        0.008254533631676029,
        0.01262400291275303,
        0.019338408198556686,
        0.07276452084714803,
        0.03748551658985104,
        0.007300176041830401,
        -0.037486032563967105,
        -0.05048124958513384,
        -0.007233791068703617,
        0.028063487681596663,
        0.06534355476581358,
        0.05127710423030085,
        0.019466857545305975,
        -0.016081102664223263,
        -0.04263596632255112,
        -0.017291468922585134,
        -0.10533465875700802,
        0.03791299139410458,
        0.05130610943187887,
        -0.003180225586586379,
        0.003496516302861782,
        0.02222869914179683,
        0.017138233815472862,
        -0.052878575229560826,
        -0.029631792862955496,
        0.048131505815657186
      ],
      "db": 0.0020860319885417965,
      "ap": -0.04794055322519556,
      "app": 0.0
    },
    {
      "desc": "H038",
      "z": -1.6792381001441474,
      "a": 0.15719638334433345,
      "b": 0.01140098288808419,
      "w": [
        -0.1217100733949878,
        0.21594973615738808,
        -1.0451653483429812,
        -0.23141523677229042,
        -0.5693195283076179,
        -0.2700048633098778,
        0.0762133656806145,
        -0.07043023945536632,
        0.2709770685541155,
        -0.3671130561510896,
        0.17614489721049334,
        -0.2079540902353679,
        1.0351550224039707,
        0.2015516715361653,
        0.34039479736472683,
        -0.22331902052081581,
        -0.4575563641698163,
        0.008109459903595616,
        -0.22675857822589496,
        0.370922058165751,
        0.6055638894266185,
        0.39078030318130486,
        0.09138749793684585,
        -0.6399265402058478,
        -0.5470587761208678,
        -1.1584903573809429,
        -0.0727339018766481,
        0.6868739283463717,
        -0.04522666663318604,
        -0.08053195402698551,
        -0.14735533382668176,
        0.44531908539908516,
        -0.40971261746641685,
        -0.13369368230899406,
        0.37035374261217663
      ],
      "delta": 0.00011510278933464796,
      "dw": [
        -0.030510016055945728,
        -0.012469468837406872,
        -0.06827504596607444,
        -0.04758005846226763,
        -0.029744134718652223,
        -0.03829249259332692,
        0.003773866196205749,
        -0.011445393505273176,
        0.00946654444994743,
        0.008387521121850221,
        0.012811727490240371,
        0.019646000190790647,
        0.07389865805378379,
        0.038070669014527256,
        0.007414907624539833,
        -0.038064899234476736,
        -0.051275538197413914,
        -0.007353787559673725,
        0.028510946820629674,
        0.06636568847759827,
        0.052088059785727066,
        0.019772259378985108,
        -0.016326693340137883,
        -0.04330309673404739,
        -0.017572115108763227,
        -0.10694517695245477,
        0.0385070427779842,
        0.05210634633426316,
        -0.0032311944862336195,
        0.0035546619168594254,
        0.02256970298455065,
        0.0173980400347493,
        -0.05370731794377565,
        -0.03009554719765098,
        0.04888905920504513
      ],
      "db": 0.0021930402964821837,
      "ap": -0.047865051822558465,
      "app": 0.0
    },
    {
      "desc": "H039",
      "z": 1.1121886070485936,
      "a": 0.7525369102549446,
      "b": -0.01563307406838674,
      "w": [
        -0.10081239024252507,
        -0.11813826760394663,
        0.363245752682396,
        0.4114830465600891,
        -0.20289704411552956,
        0.3816188326067237,
        -0.422402181805851,
        0.28650913773615566,
        -0.5255244663274194,
        -0.771836793519891,
        0.11797013480985459,
        -0.5246036516277331,
        -1.1186143000178579,
        -0.5071097577992709,
        -0.19030391832803978,
        0.37121583262245544,
        0.27789879249297883,
        -0.3918614538321487,
        -0.5468046740312885,
        -0.9130433574028541,
        -0.8839196171695142,
        -0.7017071302933081,
        -0.060546138464032714,
        0.088699656772349,
        0.6060965084210052,
        1.2844182800891368,
        -0.4695068946423221,
        -0.7761069771228791,
        0.1624165883472267,
        -0.6413856349543197,
        -0.7791130650167115,
        -0.14007568182244928,
        0.5958227507265542,
        0.3117000963382786,
        -0.9879886936204534
      ],
      "delta": -0.00019928849104492173,
      "dw": [
        -0.1289658253842828,
        -0.05252774213225042,
        -0.2860982155442237,
        -0.2013575944693875,
        -0.12544092299980672,
        -0.16166099535831482,
        0.016207328672098405,
        -0.04897449929196559,
        0.03873426500072317,
        0.03657844387189045,
        0.05176590494587097,
        0.08465806349446144,
        0.31181805521123424,
        0.16099584002419137,
        0.031583950171511437,
        -0.15935396961803064,
        -0.21864819779159084,
        -0.03301692721194449,
        0.12307503889022539,
        0.28108421707863,
        0.22302157421451452,
        0.08399576343672337,
        -0.06758514900348228,
        -0.18366619081397528,
        -0.07723901429904881,
        -0.4430171493276329,
        0.16346181459800802,
        0.22011389451140226,
        -0.013982704806700972,
        0.016002626246904617,
        0.09386488270697278,
        0.07152926765529861,
        -0.22809650412321705,
        -0.12769421163974198,
        0.20841595602593346
      ],
      "db": -0.0037392522993403895,
      "ap": 0.07769345462211098,
      "app": 0.0
    }
  ],
  [
    {
      "desc": "H10",
      "z": -0.2078494943117121,
      "a": 0.4482238924283413,
      "b": 0.008471481379018075,
      "w": [
        0.026663584259900744,
        -0.8042826366831131,
        -0.6706598064328472,
        -0.16342854968840448,
        0.21568771512668006,
        -0.15898425348112905,
        0.5206084551496588,
        -0.6443084647322037,
        -0.1588283707939874,
        -0.09953475674765852,
        0.13000812889880928,
        -0.30835017574367213,
        -0.024889980064805778,
        0.3407922309664395,
        0.48037383728119254,
        -0.07835848631825137,
        -0.5194032970200946,
        -0.38574576386514503,
        -0.5015821850298089,
        0.15996082699860573,
        -0.23366029042529768,
        -0.2547715937564112,
        0.4341799182701485,
        0.05840740152481782,
        0.09738845885524362
      ],
      "delta": -7.346078894768277e-05,
      "dw": [
        0.03437589004201125,
        0.07040728672274472,
        0.03454684983570345,
        0.008310399845746339,
        -0.13835417714623877,
        0.052162510621650914,
        -0.09502593911942298,
        0.026998476600749385,
        0.06507919876920615,
        0.043748876721007204,
        -0.09227370413008387,
        0.024522042628733448,
        -0.14282501862576485,
        0.011388581594250744,
        -0.08082156375502837,
        0.06981454993474123,
        -0.022370287154403087,
        0.012508179045718769,
        0.07053400347615948,
        0.0409543200253438,
        -0.019736517849544173,
        0.028863857270712102,
        -0.04936257030633615,
        0.038766132972671265,
        -0.02732372831154189
      ],
      "db": -0.0008856588924725456,
      "ap": -0.2177556552438817,
      "app": 0.0
    },
    {
      "desc": "H11",
      "z": -0.8090046359554911,
      "a": 0.30810264229147655,
      "b": 0.007851359410898416,
      "w": [
        0.08435018616701824,
        0.08310682200824183,
        -0.17878812426218482,
        0.3160095729889997,
        0.1289792257427807,
        -0.13114613210378176,
        0.0002246580008061919,
        0.22456783161141483,
        -0.5255512034170391,
        0.005230544812619142,
        0.083998361674395,
        0.2233879544405964,
        0.40145325483066513,
        -0.4664044288587697,
        -0.2591183032781579,
        -0.00634404271789639,
        0.17753864556764223,
        -0.18673333130529723,
        -0.08621960942442625,
        -0.39881977874052604,
        0.12758506712166812,
        -0.05165412503231226,
        0.07584703895787273,
        -0.4462420048040786,
        -0.0005831305927777313
      ],
      "delta": -2.609656692382859e-05,
      "dw": [
        0.024390410423989314,
        0.05021568226334572,
        0.02437570112559091,
        0.005351934681174198,
        -0.10067251921388896,
        0.036706290792253855,
        -0.06891998014290523,
        0.019147930838963934,
        0.046006805412173626,
        0.031091225084791473,
        -0.06669420553217131,
        0.01749700187200731,
