[
  [
    {
      "desc": "I0",
      "z": 0.95,
      "a": 0.7211151780228631,
      "b": -3.3369731842950414,
      "w": [
        -1.3876065650398075,
        -0.5456463238990831,
        -1.30343755048761,
        -1.4007932847958087,
        -1.3986232522110413,
        -1.3972301445423005,
        -1.4017757262620882,
        4.661998190128352,
        5.072663588100001,
        -1.3846440680765262,
        -1.4000631689110021,
        0.9757832583302807,
        5.064263952240941,
        -1.384809188296384,
        -1.4087186589843557,
        -1.3950226828454388,
        3.8985529714992793,
        5.213354623885508,
        -1.381594022780282,
        -1.3881001614192088,
        -1.4018799301693552,
        -1.406505012121699,
        -1.3971751549371536,
        -1.4017085360101564,
        -1.4016173272533357,
        -1.384073637036643,
        4.610401045808206,
        -1.4014106273980527,
        -1.3514645329913548,
        -1.3923158667099127,
        -1.336807537669892,
        5.189213165914143,
        -1.389785621827195,
        -1.3424659327067148,
        -1.1181647081975898,
        -1.389687750203242,
        4.988549269120224,
        -1.408451395521186,
        -0.2264596525466922,
        0.8864988024752413
      ],
      "delta": 0.0011163066134176392,
      "dw": [
        0.020610097533606528,
        0.003698333336961658,
        0.010139810406774214,
        0.022253905311613736,
        0.023563238618178994,
        0.018069120960122465,
        0.022640460385185298,
        -0.17783053728632367,
        -0.2296337315842338,
        0.016762749906783808,
        0.02044905933849184,
        -0.01042420647783931,
        -0.21984620963486917,
        0.013349624433497565,
        0.021205435904839226,
        0.02025424651277513,
        -0.12111909217379019,
        -0.25474762578400645,
        0.020222985326612628,
        0.018164562078205482,
        0.01905164212513345,
        0.017447788532002986,
        0.018976003127825325,
        0.01943516548755671,
        0.022783691504652363,
        0.013669107474669399,
        -0.17701911013684257,
        0.023955256359618815,
        0.011466205381309953,
        0.01738272661776389,
        0.010815812481374974,
        -0.2426161852498414,
        0.015518891077607483,
        0.01128193084715496,
        0.007690813991783255,
        0.020362455174023315,
        -0.21254641518854375,
        0.01729532451302515,
        0.0014878722516607009,
        -0.00902523796552358
      ],
      "db": -0.01907427469074663,
      "ap": 0.20110807804791758,
      "app": 0.0
    }
  ],
  [
    {
      "desc": "H00",
      "z": -4.3378079404963525,
      "a": 0.012896640031924114,
      "b": 0.10540449424381146,
      "w": [
        -0.6242498068738516,
        -1.9158693591752722,
        -3.0606408281537023,
        1.0306185742824492,
        -1.2012075350509648,
        -0.40194680098433444,
        -2.6303389442119838,
        2.255849034216251,
        0.3701701867679965,
        -1.4801252526940454,
        1.146572645505932,
        -0.6524105092495411,
        -0.51127778166045,
        -1.7488117743867901,
        0.005193284420896897,
        1.3190662750214623,
        -0.07005900472064999,
        0.6996882399966706,
        0.45151726667403913,
        -0.10114340496174495,
        1.0975193923302848,
        1.108029449826906,
        0.696343216239707,
        -0.6122936093962391,
        -0.8333494161058442,
        -0.011978333062850637,
        2.307605973111196,
        -0.4563446510349132,
        -0.685978161046885,
        0.6152028451124181,
        -0.2567461537090923,
        -1.4497748516287905,
        0.45747583689558063,
        -1.7742309104507088,
        -0.628883965351549
      ],
      "delta": -5.6135998211805375e-06,
      "dw": [
        0.0004886104879983575,
        -0.0010802691495359071,
        -0.0015577253716427323,
        0.001248812717698982,
        -7.817001688936466e-06,
        0.0005889612484508343,
        -0.0011953414868044277,
        0.0022178431583416702,
        0.0013182540954489496,
        -0.0010029037866108462,
        0.0013299848263111258,
        0.0005694897831856109,
        0.00022251777052175186,
        -0.001130040220795595,
        0.000931704732341173,
        0.002108921580623182,
        0.0005377570175432936,
        0.0015364149712083514,
        0.0008935269232024805,
        0.0010334357179591954,
        0.0014012270435328177,
        0.001394581128379311,
        0.0013530466005064283,
        0.00025768041114057166,
        0.00029302178389257506,
        0.000862485305275876,
        0.002533679105385533,
        -0.00027927651974444465,
        -0.00024680181836200815,
        0.0008959716053732646,
        0.0006783517294226795,
        -0.00082463108160702,
        0.0010871415806324892,
        -0.0009246240859136376,
        0.0004171080437083574
      ],
      "db": 0.00018718471741643443,
      "ap": -0.003549869774778974,
      "app": 0.0
    },
    {
      "desc": "H01",
      "z": -3.7312673978104534,
      "a": 0.023401685002827025,
      "b": -0.017973150388564854,
      "w": [
        -0.056035317185606164,
        -0.4675597400282533,
        -0.6291465142903047,
        0.013918996095844117,
        -0.28445834514812307,
        0.022220526202794355,
        -0.9874752405060214,
        -0.1182106615445823,
        -0.25271302909403115,
        -0.926629005275825,
        0.18995990363223964,
        -0.15396260240828763,
        -0.5816745835394794,
        -0.40866196146566064,
        0.10926271489764536,
        0.21889504069293012,
        -0.45901045345539127,
        -0.44056729959020213,
        -0.23416258201774176,
        0.2845599751591867,
        -0.11447342402157612,
        0.40535081490525227,
        -0.4539942674725768,
        -0.3214471419860523,
        -0.42215829071126776,
        -0.6685483358365503,
        0.6441581732067613,
        -0.6575879136440802,
        -0.7081956089179177,
        0.1257318898499071,
        -0.050933086337311105,
        -0.27152282288494545,
        -0.4036145577983059,
        -0.6942004390638221,
        -0.38630381181903795
      ],
      "delta": 1.1749125878124691e-06,
      "dw": [
        0.000780375061832449,
        -0.0016994340459716081,
        -0.002449405697561009,
        0.001974724029396024,
        1.4571742224438386e-06,
        0.0009529713833661672,
        -0.0018739920034926928,
        0.003502439327063075,
        0.002083456493634405,
        -0.0015752793314377908,
        0.0021096899691210977,
        0.0009112285484428725,
        0.0003671711335687734,
        -0.0017745452935911117,
        0.001482795985893986,
        0.003336832160715146,
        0.0008666666552316005,
        0.0024353830069380046,
        0.0014207183181778296,
        0.0016394484689848808,
        0.0022182333667140493,
        0.0022076691442223044,
        0.002147961493394483,
        0.0004094450825855181,
        0.0004692905992246519,
        0.0013723327494608707,
        0.0039965886492938614,
        -0.0004193188389543525,
        -0.0003679863500653066,
        0.001425228201006443,
        0.0010782564316300003,
        -0.0012928645797584573,
        0.0017221570484554705,
        -0.001449734807559086,
        0.0006685555824934143
      ],
      "db": 3.4586593071867364e-05,
      "ap": -0.00250701333503053,
      "app": 0.0
    },
    {
      "desc": "H02",
      "z": -4.277489900731806,
      "a": 0.013687504498249145,
      "b": 0.0201920794276141,
      "w": [
        0.20361544571375204,
        -0.8528668411382554,
        -1.8505422833592253,
        0.48760384873984297,
        -0.08320471309417905,
        -0.0862902046532481,
        -0.9457543684550778,
        1.2797108001343098,
        -0.1358641330652964,
        -0.8367288352475422,
        0.39034581908445004,
        -0.67339079809707,
        -0.37036639115975983,
        -1.4487354418878189,
        0.2838320416571271,
        0.6812018175790768,
        0.1343845570847696,
        0.5369541848333631,
        0.37561575225589733,
        -0.08002198391084546,
        0.20781422558726323,
        -0.13980491676440676,
        -0.16467499216191606,
        -0.03009739181955085,
        -0.4336017165748391,
        0.1832920362097794,
        1.0716894277993183,
        -0.5709022993103166,
        -0.34262945629633035,
        -0.10992001033899358,
        -0.5791198158710912,
        -0.9140404544573737,
        0.19471103980532373,
        -1.1418489874876716,
        -0.20454512054536317
      ],
      "delta": -2.6452617345498254e-06,
      "dw": [
        0.0005119711924667807,
        -0.001130222232204084,
        -0.0016296810929520803,
        0.0013072226938920736,
        -7.274628320834364e-06,
        0.0006179292211072738,
        -0.001250192294483796,
        0.0023212798291568485,
        0.001379842511746343,
        -0.0010491184000124792,
        0.001392629080018106,
        0.0005968311823262058,
        0.0002339249456753071,
        -0.0011820866584406936,
        0.000975907476041961,
        0.002207700819927949,
        0.0005639803720972279,
        0.0016086666907912583,
        0.0009358344522215289,
        0.0010821226392262703,
        0.0014669295428959442,
        0.0014599731609448495,
        0.0014168884423952596,
        0.00026986204784691447,
        0.0003071132784156971,
        0.0009033826541093323,
        0.0026515464904698248,
        -0.0002908780804841128,
        -0.0002568868859629582,
        0.000938434977004763,
        0.0007104435193834203,
        -0.0008624708056638191,
        0.0011381956152247581,
        -0.0009670599909129317,
        0.00043720871940128715
      ],
      "db": 9.222358362766456e-05,
      "ap": -0.0035374441850772966,
      "app": 0.0
    },
    {
      "desc": "H03",
      "z": -4.347257815523815,
      "a": 0.012776892228128096,
      "b": 0.1141214209124555,
      "w": [
        0.014425308465239766,
        -1.9807082833765568,
        -2.7551617534110444,
        0.468200803992661,
        -1.1404207165345046,
        -0.45346760771647543,
        -2.361388208742103,
        2.255239654967102,
        0.9785634319126802,
        -1.532434385589575,
        0.5912005236453383,
        -0.5851079903668036,
        -0.022189720381772818,
        -2.4385173622529552,
        0.49387528490101557,
        1.8206396190923833,
        -0.46076491227671934,
        1.4877577774003907,
        -0.06533421676093365,
        0.3391694356920945,
        0.4525929310951122,
        1.1403042327270336,
        0.6531750388238511,
        -0.4155771242787162,
        -0.10639896878257009,
        -0.13157959492387913,
        2.602116844830014,
        -0.9574545411556407,
        -0.5816803005030436,
        0.32738870959865757,
        -0.17183634248378596,
        -1.4996252945185586,
        0.8433507299655316,
        -2.154202930219098,
        -0.19356269665365228
      ],
      "delta": -6.386406234752585e-06,
      "dw": [
        0.0004850473789833445,
        -0.0010726431241427745,
        -0.0015467400379640106,
        0.0012398984347413277,
        -7.896068623062662e-06,
        0.0005845461248145501,
        -0.0011869659749268826,
        0.0022020557892423204,
        0.0013088544283343547,
        -0.000995847829141042,
        0.0013204260498958737,
        0.0005653199041054795,
        0.00022078105857871563,
        -0.0011220937323545928,
        0.000924961250551,
        0.002093846764440713,
        0.0005337593194852553,
        0.0015253897438330267,
        0.000887072183269821,
        0.0010260067081177204,
        0.0013912004844916445,
        0.0013846018772309253,
        0.001343305531875096,
        0.00025582184461976284,
        0.0002908728567116142,
        0.0008562460325916983,
        0.0025156878917441767,
        -0.0002774998938882965,
        -0.0002452566204196556,
        0.0008894932664748557,
        0.0006734555728281442,
        -0.0008188531673393033,
        0.0010793507065153937,
        -0.0009181443695078043,
        0.00041404276487355907
      ],
      "db": 0.00020198541536703494,
      "ap": -0.0035505775222315745,
      "app": 0.0
    },
    {
      "desc": "H04",
      "z": -4.3456457630841125,
      "a": 0.01279724206145417,
      "b": 0.12941580319411278,
      "w": [
        -0.301022466822101,
        -2.2414352697102116,
        -3.162310356549368,
        0.8344082883050341,
        -1.1547835493023897,
        -0.7931299521596952,
        -2.315424253567582,
        2.3495239647374855,
        0.9834760697191329,
        -2.308608135836728,
        1.2393461253195188,
        -0.5006312439244254,
        -0.439660082349067,
        -2.3123263766115483,
        0.35642433225230763,
        2.0834928999948064,
        0.3532908006728231,
        0.6840030176016685,
        0.04205922873124911,
        0.4218293939621808,
        0.615292123027036,
        0.3248379028428849,
        0.9945113452150424,
        -0.9339625470000766,
        -0.4315629563535577,
        0.5466202001682732,
        2.613026817719669,
        -0.9410502276163258,
        -1.3237561485525038,
        -0.17654419767136276,
        0.44764100200841356,
        -1.1531796056005355,
        0.9298893751571794,
        -2.1905999064350845,
        -0.13262091241215013
      ],
      "delta": -6.522016760944215e-06,
      "dw": [
        0.0004856533860761031,
        -0.0010739402757864256,
        -0.0015486085981670625,
        0.0012414146597625173,
        -7.882690686892072e-06,
        0.0005852969793876115,
        -0.001188390644608131,
        0.0022047410780923365,
        0.001310453217830593,
        -0.0009970480274322634,
        0.0013220518636133727,
        0.0005660291021309463,
        0.00022107637498749297,
        -0.0011234454100695714,
        0.0009261081967490002,
        0.0020964108222006526,
        0.0005344392018921315,
        0.001527264989117757,
        0.0008881700269865384,
        0.0010272702776354078,
        0.0013929058829946256,
        0.0013862992305470868,
        0.001344962342461705,
        0.000256137956754858,
        0.0002912383349595822,
        0.0008573072228598176,
        0.002518748059488531,
        -0.00027780219403598705,
        -0.00024551955737005097,
        0.0008905951206117398,
        0.0006742883275847307,
        -0.000819835985893298,
        0.0010806758368190194,
        -0.0009192465638602021,
        0.0004145640906386444
      ],
      "db": 0.00021393487595898201,
      "ap": -0.0035504795249133177,
      "app": 0.0
    },
    {
      "desc": "H05",
      "z": -4.344839266581216,
      "a": 0.01280743491747066,
      "b": 0.08468963345024295,
      "w": [
        -0.1342108065897339,
        -2.003961150429549,
        -2.2951410926595113,
        0.8162263233752536,
        -0.7948085777239343,
        0.14443135059693493,
        -2.4520097254047046,
        1.4161003654495852,
        0.7679922447698843,
        -1.3964342556732843,
        0.5323673240746961,
        -0.17529770756710933,
        -0.47924108284762396,
        -1.8623922832947137,
        0.6269347626380996,
        1.513286133684001,
        -0.29342264479032915,
        1.1265802834186016,
        0.46359968192060474,
        0.3013518246041748,
        0.4694905102085144,
        0.2544742301268719,
        0.7319508648888629,
        -0.7657133607587131,
        -0.7137368695495969,
        0.521735561027739,
        1.773756100715415,
        -1.2073112630112435,
        -1.096919350933711,
        -0.2708968180590746,
        0.03738572720209997,
        -1.4243679766879251,
        -0.08504264224261086,
        -1.8037094479759044,
        -0.1991873659412798
      ],
      "delta": -4.864250229199424e-06,
      "dw": [
        0.00048595684735359973,
        -0.0010745898111437263,
        -0.0015495442596006378,
        0.0012421739020818188,
        -7.875980871093402e-06,
        0.0005856729833191101,
        -0.0011891040280896047,
        0.0022060857196316203,
        0.0013112538030189149,
        -0.000997649012456021,
        0.0013228659870026843,
        0.0005663842379618236,
        0.0002212242655697023,
        -0.0011241222462066423,
        0.0009266825319824121,
        0.0020976947630125145,
        0.0005347796626131837,
        0.0015282040135663122,
        0.00088871977293345,
        0.0010279030079948836,
        0.0013937598550050224,
        0.0013871491737561064,
        0.0013457919887874838,
        0.0002562962499650703,
        0.000291421351275144,
        0.0008578386155033054,
        0.00252028041544806,
        -0.00027795355163604603,
        -0.0002456512040036502,
        0.0008911468752991227,
        0.0006747053300488032,
        -0.0008203281187813299,
        0.0010813393916675493,
        -0.0009197984725669192,
        0.0004148251490308725
      ],
      "db": 0.0001641626515162549,
      "ap": -0.003550427003222996,
      "app": 0.0
    },
    {
      "desc": "H06",
      "z": -4.347952331440133,
      "a": 0.012768134815848028,
      "b": 0.11340891191716143,
      "w": [
        0.02983125849542431,
        -2.5281334257855597,
        -2.9969234720877265,
        0.3339281445697743,
        -1.072638257805703,
        -0.518532766713104,
        -1.859357036216731,
        2.36272231828593,
        0.5143442601625476,
        -1.5693619990018897,
        1.270398174152861,
        0.19227604021707842,
        -0.401544635827922,
        -1.986196709846039,
        0.5436671259371115,
        1.6536504223575197,
        0.011928207163718691,
        1.4997894031866734,
        -0.0016071919985928401,
        0.43649874623599627,
        1.1868304789180786,
        1.2867846356055272,
        1.2308792880828694,
        -0.6038187872959878,
        -0.732287158940004,
        0.28294447954748,
        2.362874174348881,
        -0.4422218383250288,
        -1.089370553890407,
        -0.29248726827793436,
        -0.1884172787986814,
        -1.6751245554506913,
        0.5003763077271615,
        -1.4524882574900866,
        -0.39543074185388355
      ],
      "delta": -6.689555965164951e-06,
      "dw": [
        0.00048478652524343546,
        -0.0010720847529359161,
        -0.001545935697803787,
        0.0012392457680645182,
        -7.901818301842226e-06,
        0.0005842229297539244,
        -0.0011863527080906,
        0.0022008998900376955,
        0.0013081662206338648,
        -0.0009953311908331194,
        0.0013197262143654995,
        0.0005650146331100633,
        0.00022065394825267044,
        -0.0011215118877601316,
        0.0009244675479423481,
        0.0020927430539929084,
        0.0005334666712710303,
        0.001524582538750025,
        0.0008865996158759596,
        0.0010254628015985282,
        0.0013904663887697863,
        0.0013838712444255372,
        0.0013425923547386103,
        0.0002556857738695613,
        0.0002907155387464921,
        0.0008557892434598366,
        0.002514370620456099,
        -0.0002773697527313764,
        -0.0002451434233188617,
        0.0008890189732199322,
        0.0006730971131007902,
        -0.0008184301009953601,
        0.0010787802993906153,
        -0.0009176699164048446,
        0.00041381836335700685
      ],
      "db": 0.0002052758394622776,
      "ap": -0.0035506168778928694,
      "app": 0.0
    },
    {
      "desc": "H07",
      "z": 0.017498941809436896,
      "a": 0.5043746238223848,
      "b": -0.09779904854625204,
      "w": [
        -0.7204931602549868,
        -0.03298760781455995,
        0.5555994942175182,
        -1.0570388544347689,
        0.02868329930932485,
        -1.0520234342473096,
        0.22808894563960436,
        -0.6851129690885961,
        -0.3381469404659086,
        0.6486113999810486,
        -0.3585770072194054,
        -0.5091565840830612,
        -0.09250005281231,
        0.16327599586459451,
        -0.5457597868667163,
        -0.8932516284518581,
        -0.05989972771458583,
        -0.4548904837638493,
        -1.062684271844339,
        -1.135766099197491,
        -1.048247236127904,
        -1.168074609201274,
        -0.8095725028585489,
        -0.7861552940000811,
        -0.32181163135465285,
        -0.3714773318314134,
        -1.1346292020180353,
        0.22701651598095698,
        0.05336685406315821,
        -0.9972476562503606,
        -0.9842828566016184,
        0.39106867209036694,
        -0.7398871206164147,
        0.6282194945630919,
        -0.5454911495244423
      ],
      "delta": 0.00012040904912913421,
      "dw": [
        0.01033116094609948,
        -0.02100252031189831,
        -0.030206941336059976,
        0.025002318058736265,
        0.0008118328483622569,
        0.013317598832472723,
        -0.022780269652419777,
        0.04406414269546533,
        0.02631348344848919,
        -0.019327732822440134,
        0.027078626108998523,
        0.012146249764773636,
        0.005550956463601679,
        -0.021742325704638167,
        0.019320432996847565,
        0.04234235220705365,
        0.011914938325716324,
        0.03115932247108761,
        0.018426760079400882,
        0.021051847839998653,
        0.028230712356551415,
        0.02807932285223537,
        0.027665446724545153,
        0.005300632642586224,
        0.0062981479437984,
        0.017869824068581633,
        0.04999964291158134,
        -0.0040137558893449995,
        -0.00336058323249945,
        0.01852382441682173,
        0.013986691637596192,
        -0.015732496351981363,
        0.021969159574459038,
        -0.01764271634150274,
        0.008978151713582705
      ],
      "db": -0.0015843878148926913,
      "ap": 0.23392642621716642,
      "app": 0.0
    },
    {
      "desc": "H08",
      "z": 0.31176818989167776,
      "a": 0.5773167974485356,
      "b": -0.14439707528810167,
      "w": [
        -1.0356545337182477,
        0.7911801713317305,
        0.5261037063348628,
        -0.35207135872653766,
        0.11135161655801122,
        -0.31532040170615255,
        0.38841369292402583,
        -0.946403584419858,
        -1.353494453890173,
        0.10577000432150847,
        -1.0972087925314606,
        -0.5985707225655166,
        -0.43450043175226777,
        0.26071581384509107,
        -0.8164957076986062,
        -1.1957984784874356,
        -1.0525362888791872,
        -0.9594922081310835,
        -1.321136605419021,
        -0.930234241114576,
        -1.0494081376608404,
        -0.4242424531702292,
        -1.2385831117742947,
        -0.9851497175892384,
        -0.36962877935371036,
        -1.2039946115554625,
        -1.3272671766935513,
        0.03349497489924761,
        -0.13376190790736386,
        -0.9280587363775119,
        -0.8041164091884161,
        0.3884381434363493,
        -0.7827533977268669,
        0.03427111357369926,
        -0.8402440437510156
      ],
      "delta": 0.00014789222774365382,
      "dw": [
        0.011972411429352422,
        -0.024341515668568448,
        -0.03500892034676859,
        0.028975766716563815,
        0.0009415895594591113,
        0.015433806084719783,
        -0.02640254681751773,
        0.05106912091710389,
        0.030495769859772627,
        -0.02240032916697662,
        0.03138401572966464,
        0.014077944315418055,
        0.006430511443441409,
        -0.02519951007837732,
        0.02239120167565989,
        0.04907472039695117,
        0.01380854279388519,
        0.03611330817619209,
        0.021356914653901604,
        0.024399095600838035,
        0.03271701208508012,
        0.03254370107755552,
        0.03206434907736776,
        0.006142755337726114,
        0.007297268709399084,
        0.020709256567457184,
        0.05795027408839146,
        -0.0046527550200299184,
        -0.0038961792910399973,
        0.021468968260607152,
        0.016207708621562376,
        -0.01823230224595222,
        0.02546247763871819,
        -0.020446619975284783,
        0.0104058415564314
      ],
      "db": -0.002045426776344278,
      "ap": 0.24837658125341572,
      "app": 0.0
    },
    {
      "desc": "H09",
      "z": -4.335810358009725,
      "a": 0.012922094649248915,
      "b": 0.07726092450092034,
      "w": [
        -0.6654134028052828,
        -1.7626008423770712,
        -1.913636866701684,
        0.7384021516185058,
        -0.699138383902704,
        -0.2769970346354157,
        -2.3093753557608903,
        1.7710877123690283,
        0.7427328369852484,
        -1.6390837857972909,
        0.8185564889805622,
        -0.31944981704493136,
        -0.6254204330865045,
        -1.382428533137211,
        0.26294609786193085,
        1.5007455366943794,
        -0.583178910668525,
        1.1886934561539764,
        0.4277957011606756,
        -0.19271723455111434,
        0.522906231264409,
        0.6932741591129654,
        0.5931609798643626,
        -0.650966942937908,
        -0.32666252057553613,
        -0.30833235988397173,
        1.5555990000219382,
        -1.220158169733512,
        -0.8949539105016606,
        0.1884655769270016,
        -0.31648018378298365,
        -1.6515360098183371,
        -0.15037862884385403,
        -1.6195285730402993,
        -0.5723688122637799
      ],
      "delta": -4.032422137974604e-06,
      "dw": [
        0.0004893669910128373,
        -0.001081888033875922,
        -0.001560057373422885,
        0.0012507051756028538,
        -7.800087933317144e-06,
        0.0005898987593741146,
        -0.00119711941367501,
        0.002221194693212339,
        0.0013202495874867217,
        -0.0010044016317140388,
        0.0013320141666304404,
        0.0005703751263252692,
        0.0002228866111132534,
        -0.001131727103825128,
        0.0009331364282778511,
        0.0021121219047864938,
        0.0005386058610792185,
        0.0015387556248446044,
        0.0008948973034929354,
        0.001035012907588385,
        0.0014033556555529633,
        0.001396699694644658,
        0.0013551146571131323,
        0.0002580749943428277,
        0.0002934780477022386,
        0.0008638099515957462,
        0.002537498453999537,
        -0.00027965347954754305,
        -0.00024712964673759887,
        0.0008973470019986273,
        0.0006793912128860199,
        -0.0008258576011187551,
        0.0010887955713131633,
        -0.0009259995823474685,
        0.0004177588702010516
      ],
      "db": 0.0001525012651925413,
      "ap": -0.003549678757889831,
      "app": 0.0
    },
    {
      "desc": "H010",
      "z": -4.346796392968826,
      "a": 0.01278271375629349,
      "b": 0.10047178658530315,
      "w": [
        -0.4355573718193688,
        -2.0342432637582033,
        -2.759640876630324,
        0.45282044332226506,
        -0.4276688628508862,
        0.09850597977006662,
        -2.3601721611872564,
        2.2876317073654717,
        1.0312418454726726,
        -1.7776721089741445,
        0.6746931678399003,
        0.27556191583012307,
        -0.6597608679875255,
        -1.7954689749374362,
        0.5738678073248552,
        1.884325040343906,
        -0.18437027076480067,
        0.7894582085655826,
        -0.30828786504490713,
        0.3489898791397278,
        0.8115507919525572,
        0.8347643873758465,
        0.2494654541634996,
        -0.10398016103098037,
        -0.6577887031597232,
        0.35727589786363284,
        2.1145422520975212,
        -0.5954888708957077,
        -0.575423003188733,
        -0.10909743087302427,
        -0.36221217210134854,
        -1.5893996785441127,
        0.4779736224303113,
        -2.0052694280926504,
        -0.822609087655241
      ],
      "delta": -5.9338611390225055e-06,
      "dw": [
        0.0004852207617592922,
        -0.0010730142536058908,
        -0.0015472746539912118,
        0.001240332241291008,
        -7.892244025322998e-06,
        0.0005847609468604787,
        -0.0011873735901342293,
        0.0022028240772263125,
        0.0013093118576161017,
        -0.0009961912197025162,
        0.0013208912094481212,
        0.000565522810202115,
        0.00022086554809009378,
        -0.0011224804630354278,
        0.0009252894008431907,
        0.002094580365643677,
        0.0005339538368660997,
        0.0015259262683134185,
        0.0008873862852665086,
        0.0010263682263965312,
        0.001391688414851757,
        0.0013850875058436956,
        0.0013437795595474923,
        0.00025591228690630705,
        0.00029097742222993026,
        0.0008565496474851984,
        0.0025165634373697683,
        -0.0002775863896873481,
        -0.0002453318540395902,
        0.0008898085157439041,
        0.0006736938307263599,
        -0.0008191343635471157,
        0.0010797298384095193,
        -0.0009184597205596195,
        0.0004141919192689502
      ],
      "db": 0.0001855928132445111,
      "ap": -0.0035505504221487417,
      "app": 0.0
    },
    {
      "desc": "H011",
      "z": -2.6346506326625097,
      "a": 0.06694138529324883,
      "b": -0.043986431789548266,
      "w": [
        -0.20175376188510785,
        0.10065238438592787,
        -0.316511548702642,
        0.2976332536100683,
        -0.7208604441018399,
        -0.7030275181015472,
        -0.3308318109678308,
        0.19343266338540133,
        -0.2752906849716168,
        0.06588469445187113,
        -0.6162513881874688,
        -0.7837409646200819,
        -0.21619913759926906,
        -0.09669802971885175,
        -0.5430352351883784,
        0.14388850011946192,
        -0.3434401468987592,
        -0.7333913999374013,
        0.09880070557490732,
        -0.24217728139232933,
        -0.49820960077056053,
        -0.0078029582868862305,
        -0.18280590074781616,
        -0.0023875051169563936,
        -0.18640728729813408,
        -0.5958435487938547,
        -0.4244230034485831,
        -0.035452194725940696,
        -0.36982396438731846,
        -0.3194180346739393,
        -0.3490541198765988,
        -0.11510212731928277,
        -0.3209971322975974,
        -0.4632477923329509,
        -0.39024985998740547
      ],
      "delta": 1.2282752826776125e-05,
      "dw": [
        0.0017938811130810452,
        -0.0038023074560884856,
        -0.005475772406371622,
        0.004459842792539547,
        5.880215892879417e-05,
        0.002239702472137776,
        -0.004166417213871575,
        0.007890811159775624,
        0.004700902837246594,
        -0.0035146759851481546,
        0.004790609014250813,
        0.0021006957789960635,
        0.0008919292212067462,
        -0.003957254732418475,
        0.003387078969405594,
        0.007543148319607769,
        0.0020231601096639498,
        0.005523189893920852,
        0.0032395167554169833,
        0.003723426164566732,
        0.005019939477391813,
        0.004995116317454009,
        0.0048842272275788174,
        0.0009328151216411151,
        0.0010845134244532365,
        0.003133843406413839,
        0.008984707514181373,
        -0.0008566635844101803,
        -0.0007406072972492121,
        0.003252445629011295,
        0.002458372609972602,
        -0.0028752899539462766,
        0.00390118183153728,
        -0.0032243486100729858,
        0.0015458876063242349
      ],
      "db": -9.096965504861307e-05,
      "ap": 0.012250518263362023,
      "app": 0.0
    },
    {
      "desc": "H012",
      "z": 0.30606398151549064,
      "a": 0.5759242340806886,
      "b": -0.14576480767962918,
      "w": [
        -0.7635375222110452,
        0.6398190934492417,
        0.8500967526764407,
        -0.9682395290817537,
        -0.10775287408757143,
        -1.1448802029443927,
        0.8155989677290976,
        -0.7499845324652608,
        -0.5686445852894111,
        0.4417093043991404,
        -0.48055724259869503,
        -1.2135909756836818,
        -0.6447696600178491,
        0.7729431029728479,
        -1.1236637792041961,
        -1.5007316373956114,
        -0.5907803210438732,
        -0.7055066853966168,
        -0.4860374361606414,
        -0.9612034771157265,
        -1.0276020117595512,
        -0.6598675541998312,
        -0.9619649141439365,
        -0.8101776906056616,
        -0.8641883056426143,
        -0.5459250667608682,
        -1.0391290778355462,
        0.1428713232228629,
        -0.33628430347701366,
        -0.496441128567878,
        -0.33550575746378714,
        0.41400160694549276,
        -1.0025277326388902,
        0.09334224034861983,
        -0.7501686677486545
      ],
      "delta": 0.0001445124276280538,
      "dw": [
        0.011939709930968982,
        -0.024274710120148514,
        -0.03491283309298123,
        0.028896387333878233,
        0.0009391420705563552,
        0.0153917638952685,
        -0.02632999819073114,
        0.05092911673650067,
        0.03041220398869177,
        -0.022338827743436564,
        0.03129806419556799,
        0.01403946136206291,
        0.006413120441789846,
        -0.025130301425223767,
        0.02232995577931385,
        0.04894022715108047,
        0.013770888619150816,
        0.03601439089122854,
        0.021298451623162653,
        0.024332273526803904,
        0.03262741505222555,
        0.03245452903665823,
        0.031976547208990284,
        0.006125955007159404,
        0.007277383913623483,
        0.020652626434322103,
        0.05779130755662764,
        -0.00463974286226891,
        -0.0038852296351840885,
        0.021410215109019574,
        0.016163408729694902,
        -0.018182246795616894,
        0.025392711967338985,
        -0.02039047272208325,
        0.01037741182560354
      ],
      "db": -0.0019591053489212856,
      "ap": 0.24820525305611874,
      "app": 0.0
    },
    {
      "desc": "H013",
      "z": -4.336052491535627,
      "a": 0.012919006572710294,
      "b": 0.043917104723752445,
      "w": [
        -0.5828311515848118,
        -1.4178620487386995,
        -1.676819342089986,
        0.13264126795840833,
        -0.3251703170796073,
        0.011254037633462305,
        -1.2819786742209573,
        1.659109052621088,
        0.5147434898803009,
        -1.1142351156780352,
        0.8696482146061478,
        0.0009835016351134199,
        0.09397556312685756,
        -1.4051154480953316,
        -0.24264572020506137,
        1.002439537705146,
        -0.22617462119717988,
        0.966865562890427,
        -0.057151690220774626,
        -0.13258053425623353,
        0.4721228990905463,
        0.5675607229135686,
        0.19797920009443412,
        -0.9648297210725427,
        -0.3079284982610629,
        0.44707142264228555,
        1.478418650412391,
        -1.0865954819347918,
        -1.127481312050387,
        0.44264415295322795,
        -0.4240170653888042,
        -1.3600077808541475,
        -0.17607985907047566,
        -0.6822043718960068,
        -0.019546128204178177
      ],
      "delta": -3.410731861151131e-06,
      "dw": [
        0.0004892752311518024,
        -0.0010816916761069856,
        -0.0015597745203864825,
        0.0012504756337371656,
        -7.80214183995188e-06,
        0.0005897850421145206,
        -0.0011969037664606899,
        0.002220788176385837,
        0.0013200075484990986,
        -0.001004219955465228,
        0.0013317680207778737,
        0.000570267738579851,
        0.000222841870633059,
        -0.001131522498925488,
        0.0009329627719622136,
        0.0021117337276276116,
        0.0005385028994824931,
        0.0015384717189998206,
        0.0008947310846549594,
        0.001034821604662571,
        0.0014030974694136235,
        0.0013964427270320313,
        0.0013548638149384047,
        0.0002580271338193449,
        0.0002934227050374571,
        0.0008636492798062936,
        0.0025370351956066853,
        -0.0002796077608587416,
        -0.00024708988735433604,
        0.0008971801745954259,
        0.0006792651298340219,
        -0.0008257088348233041,
        0.0010885949533482938,
        -0.000925832746423347,
        0.0004176799279681584
      ],
      "db": 0.00012130269909593869,
      "ap": -0.0035497026868348065,
      "app": 0.0
    },
    {
      "desc": "H014",
      "z": -4.353010726502832,
      "a": 0.012704530088490063,
      "b": 0.10447039618966819,
      "w": [
        -0.4524249096948965,
        -1.4885329656943191,
        -3.059258529002871,
        0.47238505632713346,
        -1.032518263811599,
        0.01799862397854861,
        -2.222191216488241,
        2.0041837613325084,
        0.7307001028787516,
        -2.066273434968297,
        0.6723275856050436,
        0.25531668764870014,
        -0.058367757889553104,
        -2.3185856107103495,
        0.5757220035650613,
        1.7243537710804706,
        -0.34278319108642885,
        0.8992012431274249,
        0.029835273401188366,
        0.2686675259514002,
        1.2753713815848828,
        0.31256252558432046,
        1.1575133845989334,
        -0.5835366969123105,
        -0.36889740145779726,
        0.4794799425776231,
        1.8354829135728128,
        -0.7019979533976354,
        -1.0617013704934504,
        0.5133305319903901,
        0.36217503605923357,
        -1.4458379944872548,
        0.5184133445125574,
        -2.098661342273254,
        -0.30459296872473884
      ],
      "delta": -6.436287175077628e-06,
      "dw": [
        0.0004828908194543613,
        -0.0010680265940363946,
        -0.0015400898599268156,
        0.0012345024057928158,
        -7.943443432686317e-06,
        0.0005818743112971307,
        -0.0011818954983415595,
        0.0021924991460215396,
        0.0013031645449011735,
        -0.0009915763116417424,
        0.0013146401199083818,
        0.0005627961502306963,
        0.00021973033613152413,
        -0.0011172830892979065,
        0.0009208795944378386,
        0.0020847216768788744,
        0.0005313399940167431,
        0.0015187161097114073,
        0.0008831652443747973,
        0.0010215099319079996,
        0.0013851312570735458,
        0.0013785612768872633,
        0.0013374093188349592,
        0.0002546968810051169,
        0.00028957227673394125,
        0.0008524695539478639,
        0.002504797013471097,
        -0.00027642366711805793,
        -0.0002443204808768397,
        0.0008855720667896807,
        0.0006704920159141999,
        -0.0008153552671436373,
        0.0010746348058215554,
        -0.0009142216055017061,
        0.00041218759314401
      ],
      "db": 0.00019234926139234245,
      "ap": -0.0035508517307630398,
      "app": 0.0
    },
    {
      "desc": "H015",
      "z": -4.34316864608661,
      "a": 0.012828574449038828,
      "b": 0.10440830337464589,
      "w": [
        0.009124661404697896,
        -1.7659355044626486,
        -2.687491523396076,
        0.10868271554124885,
        -0.41996134851058564,
        -0.7683989175032158,
        -2.808948677725108,
        1.7342158633072093,
        0.24504476644376902,
        -1.9696979110565098,
        0.441557628712929,
        -0.6343608804918571,
        -0.820491566149544,
        -2.2511784990334247,
        0.6725584105009602,
        2.114562898273706,
        -0.23535721033040735,
        1.2823901338352908,
        0.20154047833821206,
        0.43855396351149223,
        1.0032703979982212,
        1.160474650476824,
        1.0987221291329607,
        -0.45957705739395394,
        -0.13852440473994576,
        -0.18176032872907003,
        1.7873375153181468,
        -1.0386319232729995,
        -0.7248695174785631,
        0.1807460848380948,
        0.15235898806193154,
        -1.3632251526143715,
        0.3256057736967914,
        -1.6865831387870664,
        -0.9088595389243033
      ],
      "delta": -5.452986607304384e-06,
      "dw": [
        0.00048658605011829683,
        -0.0010759365279460655,
        -0.001551484215191686,
        0.0012437480977229509,
        -7.862045785110057e-06,
        0.0005864526176862828,
        -0.001190583113568722,
        0.002208873660503191,
        0.0013129137161252897,
        -0.0009988950631073443,
        0.001324553982549753,
        0.0005671205862235499,
        0.00022153092469398534,
        -0.0011255255616910791,
        0.000927873361419007,
        0.0021003568593293423,
        0.00053548559348985,
        0.0015301509748624925,
        0.000889859616410617,
        0.0010292149052521491,
        0.0013955304652421275,
        0.0013889114303154524,
        0.001347512172219216,
        0.00025662445486654845,
        0.00029180082343033053,
        0.0008589404072189286,
        0.0025234575498257745,
        -0.0002782673353561031,
        -0.0002459241193795111,
        0.000892290884804204,
        0.0006755699431004686,
        -0.0008213484772964148,
        0.0010827151959430029,
        -0.0009209427667018027,
        0.00041536643648973007
      ],
      "db": 0.00018399062217752814,
      "ap": -0.0035503107737994716,
      "app": 0.0
    },
    {
      "desc": "H016",
      "z": -0.5309882187410575,
      "a": 0.3702864312079614,
      "b": -0.06874604635836135,
      "w": [
        -0.04160858916823995,
        -0.06405472198528687,
        0.29015051179070045,
        -0.8069051698952033,
        -0.6370213760154497,
        -0.7077496910059377,
        -0.25299220365409264,
        -1.1053025288570546,
        -1.012388049923751,
        0.15509907404485782,
        -0.8346373387474202,
        -0.4157285048840661,
        -0.4265481894035954,
        0.045539644458400225,
        -0.680129572631207,
        -0.6368895557911419,
        -0.3939136795755472,
        -0.8661143424151291,
        -0.5306123700304486,
        -0.2454583335580096,
        -0.6193941522875871,
        -0.6679231975946697,
        -0.7399905173135313,
        -0.23687153243386014,
        -0.35314465728313055,
        -0.9218398985694216,
        -0.7289295424637662,
        0.08437732014057699,
        0.13540175151604147,
        -0.37347726936059655,
        -0.5864202104377311,
        0.2703387986098583,
        -0.6603839434467293,
        0.3174232357910625,
        -0.5454462580002383
      ],
      "delta": 9.74821405734538e-05,
      "dw": [
        0.007598910887344545,
        -0.01549405842000071,
        -0.02228680666533049,
        0.018425379105410807,
        0.0005712975284108402,
        0.009772803191045827,
        -0.016818071775086714,
        0.032480919950360926,
        0.019393533458315255,
        -0.014263388674299222,
        0.019941992058227727,
        0.008929901954834674,
        0.004062360087580608,
        -0.016045876399500492,
        0.014219724265616886,
        0.031198907659253074,
        0.008749233974395925,
        0.022950639867917705,
        0.013563772096044785,
        0.015503211928503761,
        0.02079985678728311,
        0.02068746499998859,
        0.02037087960811743,
        0.003902553182726103,
        0.004630640601663023,
        0.013152930523153458,
        0.03686422636589951,
        -0.003000414390994829,
        -0.0025189953689346615,
        0.013634269226826885,
        0.010297478901391176,
        -0.011615451838016525,
        0.016183362039818766,
        -0.01302539570919379,
        0.006598720527568007
      ],
      "db": -0.001075217352914383,
      "ap": 0.1825318491166776,
      "app": 0.0
    },
    {
      "desc": "H017",
      "z": 0.4123171306940292,
      "a": 0.6016433529618038,
      "b": -0.18248442425393177,
      "w": [
        -0.5026453188568073,
        0.34584430461914334,
        0.43472208381356253,
        -0.7931994556025515,
        -0.6916643350808708,
        -0.602033809459187,
        0.6503070084798969,
        -1.5608452405659277,
        -1.3548692614295894,
        0.004442900905632015,
        -1.3686060823356787,
        -0.5381235478496621,
        -0.7528206021721997,
        0.7170344314971038,
        -1.2971430165459894,
        -0.7178879124097006,
        -0.8931066962702163,
        -1.2313671676091325,
        -0.7262893867371509,
        -0.7617567830214063,
        -0.6259182517415524,
        -1.3856888386293547,
        -0.9453260408173852,
        -0.8482546964536368,
        -1.1972012265086416,
        -0.698481187392592,
        -1.4756200349694972,
        -0.7219454749566266,
        0.019644608859960767,
        -1.0977921189485387,
        -1.200310960082826,
        -0.13154197827039457,
        -1.2644724736938182,
        0.5020827651674485,
        -0.5348055957452806
      ],
      "delta": 0.00016375925560518863,
      "dw": [
        0.012553544825835504,
        -0.025530760072612457,
        -0.03671950678100337,
        0.030387959794432626,
        0.0009840534920777019,
        0.016180015629031503,
        -0.02769458298334561,
        0.05356031259097917,
        0.031982548170490746,
        -0.023495344094468313,
        0.03291268401264655,
        0.014761769800875655,
        0.006738574569421774,
        -0.02643181633962521,
        0.023480046804883473,
        0.05146738499443212,
        0.014477124900820948,
        0.03787270531661483,
        0.022396441198843972,
        0.025587531047893013,
        0.03431077594562738,
        0.03412999276436642,
        0.03362580248863613,
        0.006441469264997027,
        0.00765047564410643,
        0.021716030437456714,
        0.06077933047179347,
        -0.004886074899486287,
        -0.004092829758465343,
        0.022513588526836,
        0.016995306273499055,
        -0.019123670283377123,
        0.02670346923375822,
        -0.021446486258779818,
        0.01091093300804341
      ],
      "db": -0.0022685110472292908,
      "ap": 0.2506660966510398,
      "app": 0.0
    },
    {
      "desc": "H018",
      "z": -4.333486162638907,
      "a": 0.012951773611569765,
      "b": 0.11321797345184546,
      "w": [
        -0.16233113849531855,
        -2.3917781732402847,
        -3.061191746370792,
        0.7513765638571406,
        -1.070392189042134,
        -0.6671638673761817,
        -2.7668637025830667,
        1.647068894748068,
        0.7504216497025542,
        -2.2167080573494964,
        0.8362341015882477,
        -0.13414793076877352,
        -0.7269682387207131,
        -1.694689890942155,
        -0.1978415731002868,
        1.7125360512024872,
        0.10595836442093368,
        0.7025049833125414,
        -0.39792388767820774,
        0.05545908891045493,
        0.9132894259087024,
        0.4715335259526554,
        0.6133094618901213,
        -0.8811306705596915,
        -0.686071024887954,
        -0.3433650687029367,
        2.205561052779067,
        -0.9831796294856178,
        -1.215724452375153,
        0.3890610121246721,
        0.26478660512649865,
        -1.448671823909818,
        0.6558617475969284,
        -1.9762462911776981,
        -0.5624236082129179
      ],
      "delta": -4.9477024841497836e-06,
      "dw": [
        0.0004902486431463917,
        -0.0010837746269880045,
        -0.001562775004893394,
        0.0012529106247815079,
        -7.78032035798635e-06,
        0.0005909914130974484,
        -0.001199191322459481,
        0.002225100514466837,
        0.0013225751068592253,
        -0.0010061471597256656,
        0.001334379163308897,
        0.0005714069386779951,
        0.00022331651778515935,
        -0.0011336929268622477,
        0.0009348049495301826,
        0.0021158515335247276,
        0.0005395951607986637,
        0.0015414834195157882,
        0.0008964943606081486,
        0.0010368509677162116,
        0.0014058363264085683,
        0.0013991686571742474,
        0.0013575247806090938,
        0.0002585348454448558,
        0.0002940097976428262,
        0.0008653537146712193,
        0.0025419494374561407,
        -0.0002800926922112051,
        -0.0002475116019957251,
        0.0008989499079100337,
        0.0006806026389266014,
        -0.0008272869278487392,
        0.0010907231253040157,
        -0.0009276025197439887,
        0.00041851737265762473
      ],
      "db": 0.00018399414146505803,
      "ap": -0.0035494381609515913,
      "app": 0.0
    },
    {
      "desc": "H019",
      "z": -4.33825205597412,
      "a": 0.012890987524138009,
      "b": 0.08814005729100989,
      "w": [
        -0.5487242392418488,
        -1.8975593074388244,
        -2.236157845799426,
        0.47341695284705587,
        -1.009638899274299,
        -0.3830318198558037,
        -2.1276463829690226,
        1.4293597065305266,
        0.986345175467291,
        -1.7069242831182045,
        0.5686314132195285,
        -0.647249402131573,
        -0.790745072133403,
        -2.1774189427878783,
        0.18359899459224624,
        1.732973954363456,
        -0.32763374943597534,
        0.7098787954746646,
        0.06985394942336862,
        0.745877150459607,
        0.6878011724667504,
        0.1754988965719996,
        1.0763898264036629,
        -0.9774953743102744,
        -0.8637261483265926,
        0.3994136319203633,
        1.8058798876822122,
        -0.5140467685218287,
        -1.1103153348172252,
        -0.040214734425440345,
        -0.2697446819634711,
        -1.4918483638501998,
        0.7985349922836257,
        -1.7369073402502797,
        -0.027736613018261688
      ],
      "delta": -4.5971677293724446e-06,
      "dw": [
        0.0004884424545413341,
        -0.0010799095537585926,
        -0.0015572073736756945,
        0.0012483923588054674,
        -7.820752544819137e-06,
        0.0005887530150691568,
        -0.0011949465606768933,
        0.0022170987024000464,
        0.0013178108497806905,
        -0.0010025710756718924,
        0.0013295340654806503,
        0.0005692931325680099,
        0.0002224358493437763,
        -0.0011296655193148868,
        0.0009313867235805746,
        0.0021082107149751387,
        0.0005375684768772592,
        0.0015358950601248476,
        0.0008932225332568857,
        0.0010330853897460796,
        0.0014007542304321167,
        0.001394110546554224,
        0.0013525872406737933,
        0.0002575927659294806,
        0.00029292043981031263,
        0.0008621910743190911,
        0.0025328307346941773,
        -0.00027919277829477346,
        -0.00024672899012389204,
        0.0008956661014863123,
        0.000678120838532552,
        -0.0008243586382291694,
        0.0010867741921275547,
        -0.000924318550720457,
        0.0004169634839540333
      ],
      "db": 0.00016512422292978436,
      "ap": -0.0035499102680477596,
      "app": 0.0
    },
    {
      "desc": "H020",
      "z": -4.348156872025197,
      "a": 0.012765556816295095,
      "b": 0.08980468757468943,
      "w": [
        -0.2137494684970809,
        -2.1675089717232496,
        -2.4654066977735822,
        0.561940490550551,
        -0.43566943843209427,
        -0.018117464585254858,
        -2.534699169779776,
        1.6622560656258722,
        0.5334171433865756,
        -1.971449469989208,
        0.2563328970150771,
        -0.11040539741831583,
        -0.7077644984397028,
        -1.7536853591689994,
        0.6481513684166936,
        1.7984546778438377,
        -0.4414388165891903,
        0.8744376537055598,
        0.061797266806547284,
        0.16718000837785585,
        1.201194414866763,
        0.8953323020601387,
        0.8697985059827629,
        -0.10117551758985369,
        -0.7204415877399251,
        0.4772608520052963,
        1.8101371971306832,
        -0.9344856901828718,
        -0.46653093110107036,
        0.4207080801169786,
        -0.4558484722645249,
        -0.9159898490153873,
        -0.06820617691388149,
        -1.8014295805459926,
        -0.5594059603124939
      ],
      "delta": -5.419591601239213e-06,
      "dw": [
        0.000484709728145334,
        -0.001071920362787689,
        -0.0015456988918166044,
        0.0012390536171466187,
        -7.903510035109567e-06,
        0.0005841277798456846,
        -0.001186172155620695,
        0.0022005595825952047,
        0.001307963606036289,
        -0.0009951790870913319,
        0.0013195201769908187,
        0.00056492475938048,
        0.00022061652699329148,
        -0.001121340586564733,
        0.0009243221981755065,
        0.002092418111872902,
        0.0005333805142288721,
        0.0015243448907617052,
        0.0008864604883686267,
        0.0010253026710273594,
        0.0013902502645984694,
        0.001383656139747837,
        0.0013423823896077237,
        0.0002556457135713258,
        0.00029066922338489453,
        0.0008556547612831593,
        0.002513982803215446,
        -0.0002773314363402242,
        -0.00024511009540623564,
        0.000888879337654635,
        0.0006729915797743037,
        -0.0008183055456511476,
        0.0010786123666366243,
        -0.0009175302322411437,
        0.00041375229820277723
      ],
      "db": 0.00017294007635220625,
      "ap": -0.003550628140183127,
      "app": 0.0
    },
    {
      "desc": "H021",
      "z": -4.351549916979099,
      "a": 0.012722866254215866,
      "b": 0.07342704453055665,
      "w": [
        0.054018521497428036,
        -1.6644132242425496,
        -2.134098913271262,
        0.5306544180845171,
        -0.48963982233734615,
        0.13598117193946185,
        -1.8012200464007107,
        2.0958018128910494,
        0.8135037184243947,
        -1.7790035442253258,
        0.5602587197639664,
        0.28274659532483026,
        -0.8856977183951188,
        -1.7057367945992834,
        0.36789169323541043,
        1.6043722854666589,
        0.04198196066294339,
        0.6843253756179843,
        -0.4585225603319356,
        0.30100601432729013,
        1.0193415015718548,
        0.35334836509029627,
        0.6136501742997834,
        -0.17052087919220765,
        -0.48405988793518256,
        -0.2505932198363659,
        1.6675997239601974,
        -1.2171285518077684,
        -1.0644990560074996,
        -0.240859500788306,
        0.4094680593252668,
        -1.334684503100583,
        0.39786635143547444,
        -1.0464458852122742,
        -0.22373508518749297
      ],
      "delta": -4.694047840327015e-06,
      "dw": [
        0.00048343752451377077,
        -0.001069196986040529,
        -0.0015417758292920088,
        0.001235870391607317,
        -7.93146792912103e-06,
        0.0005825516069238357,
        -0.001183180992486568,
        0.0021949219310735896,
        0.0013046070307150286,
        -0.0009926592415600898,
        0.001316106936112466,
        0.0005634359383223638,
        0.00021999667283617176,
        -0.0011185027014974861,
        0.0009219143402317398,
        0.0020870350386822845,
        0.0005319532931755746,
        0.001520407976006326,
        0.0008841557010224774,
        0.0010226499287540284,
        0.0013866699038731524,
        0.0013800926669122915,
        0.0013389040891863566,
        0.00025498207346231333,
        0.00028990198050377183,
        0.0008534269343427001,
        0.002507558063947285,
        -0.0002766965658010998,
        -0.0002445578651630343,
        0.0008865661370576706,
        0.0006712433137809481,
        -0.0008162420727395992,
        0.001075830360162752,
        -0.0009152161246601512,
        0.00041265788841744045
      ],
      "db": 0.00015843307828659382,
      "ap": -0.0035507932348482953,
      "app": 0.0
    },
    {
      "desc": "H022",
      "z": -4.344766914417521,
      "a": 0.012808349727390887,
      "b": 0.08666127106286135,
      "w": [
        -0.6184116144683988,
        -1.678587778224192,
        -2.2218455748624195,
        0.969556089229519,
        -0.9076518733205464,
        -0.23904737297593975,
        -1.6170263414241643,
        1.6010667908522023,
        0.5278935398250586,
        -1.7614869993757836,
        0.762449028043256,
        -0.6743467767707102,
        -0.07307771686830777,
        -2.1232031125673227,
        -0.10695878087997096,
        1.572645042023874,
        -0.47223403674057096,
        0.6395527117828901,
        -0.2535159846558821,
        0.516107850805464,
        1.146443253580307,
        1.171176067059294,
        1.1075263416241852,
        -0.3465327161830078,
        -0.3498847619117199,
        0.22807808621794243,
        2.224328196853622,
        -1.181287908630741,
        -0.7996719114704461,
        0.3004203278600358,
        -0.31010227521686307,
        -1.6633562140502969,
        0.16129257119034449,
        -1.588185272059057,
        -0.05514577515434831
      ],
      "delta": -5.176596812543033e-06,
      "dw": [
        0.00048598408054158844,
        -0.0010746481010132408,
        -0.001549628226644829,
        0.0012422420374178288,
        -7.875378369229965e-06,
        0.000585706726931858,
        -0.001189168047575149,
        0.002206206389286409,
        0.0013113256484855883,
        -0.00099770294531304,
        0.0013229390475982398,
        0.0005664161085591143,
        0.0002212375378536523,
        -0.001124182985987476,
        0.000926734073774298,
        0.002097809985477671,
        0.0005348102163963181,
        0.0015282882829168111,
        0.0008887691080051091,
        0.001027959790124908,
        0.001393836491564423,
        0.0013872254487589796,
        0.0013458664424761855,
        0.0002563104554436566,
        0.0002914377755419393,
        0.0008578863035509375,
        0.0025204179306825302,
        -0.0002779671340742978,
        -0.00024566301755442956,
        0.0008911963906552898,
        0.000674742752509644,
        -0.000820372283104943,
        0.0010813989399670841,
        -0.0009198480012120581,
        0.00041484857696062744
      ],
      "db": 0.00017234544929625243,
      "ap": -0.0035504221773166606,
      "app": 0.0
    },
    {
      "desc": "H023",
      "z": -4.348019448869686,
      "a": 0.012767288820961687,
      "b": 0.0887493482984657,
      "w": [
        -0.533016670693911,
        -1.6294128034887754,
        -2.631593136635877,
        0.9025172229358129,
        -0.9486554264045916,
        -0.5340910095791546,
        -1.8159858224353322,
        1.9083972315953122,
        0.9258695213975728,
        -1.600211669459805,
        0.7054012682453834,
        -0.20012282814059837,
        -0.8330497321418201,
        -1.9831330184135885,
        0.5576019654129276,
        1.3246495103431208,
        -0.010317369229385857,
        1.1654421381550724,
        0.37738337586579934,
        0.3312739569953033,
        0.4709501276119986,
        1.143390043555074,
        0.3897349198256844,
        -0.4843625430637499,
        -0.3832985330402157,
        0.14339389581750808,
        2.1860690017417035,
        -0.8665447352904239,
        -0.6355868231595233,
        -0.21871992768213327,
        -0.19753484283080533,
        -1.2479636093721942,
        0.8354835952385564,
        -1.7700678584351868,
        -0.025758487252600677
      ],
      "delta": -5.368555269333211e-06,
      "dw": [
        0.0004847613239117954,
        -0.0010720308076253092,
        -0.0015458579889387448,
        0.001239182712903138,
        -7.902373502831438e-06,
        0.0005841917058158049,
        -0.0011862934590715843,
        0.002200788216684904,
        0.001308099731774588,
        -0.0009952812773670154,
        0.0013196586022788967,
        0.0005649851406144363,
        0.00022064166824511115,
        -0.001121455674572885,
        0.0009244198507473562,
        0.0020926364228133583,
        0.0005334383984011417,
        0.0015245045535055238,
        0.0008865539605494275,
        0.00102541025403437,
        0.0013903954666714031,
        0.0013838006568794336,
        0.0013425234537350567,
        0.0002556726279005369,
        0.0002907003401357547,
        0.0008557451125153527,
        0.0025142433565765294,
        -0.0002773571791242603,
        -0.0002451324867028925,
        0.0008889731511694066,
        0.000673062481858109,
        -0.0008183892276573741,
        0.0010787251915145308,
        -0.000917624078483664,
        0.00041379668375538637
      ],
      "db": 0.0001764523951603218,
      "ap": -0.0035506205899293285,
      "app": 0.0
    },
    {
      "desc": "H024",
      "z": -4.347832943204027,
      "a": 0.0127696398051861,
      "b": 0.11895239062799053,
      "w": [
        -0.4527197876074485,
        -1.836671852614159,
        -3.230146230781265,
        0.9659511991150764,
        -0.9733446439423836,
        -0.10352445994257739,
        -2.878731639990519,
        1.5530766603701611,
        0.5712862314119701,
        -1.8275796539151525,
        0.9914023910085746,
        0.1113595271727065,
        -0.3792197824272669,
        -2.000828150521339,
        0.17016672930535398,
        1.9519786182233405,
        -0.5211729098481612,
        1.131837395881564,
        -0.11066185742984903,
        0.7926391517152915,
        1.21041436850362,
        0.9988935602444089,
        1.262420332985324,
        -0.24483492486508562,
        0.004349477859077849,
        0.38766097169770747,
        2.5892907983755458,
        -1.2745662123635537,
        -1.4073558185400892,
        0.3874563732344303,
        -0.25199081604990753,
        -1.108583846512066,
        0.4539232474651192,
        -1.5258005236702452,
        -0.9613198377322467
      ],
      "delta": -6.267299373863944e-06,
      "dw": [
        0.00048483135648146383,
        -0.0010721807172795873,
        -0.0015460739355783206,
        0.0012393579381894185,
        -7.9008305194105e-06,
        0.0005842784748557492,
        -0.0011864581072429747,
        0.002201098548020865,
        0.001308284499024502,
        -0.0009954199828294853,
        0.0013198464909561902,
        0.0005650670980130748,
        0.00022067579355138252,
        -0.0011216118864433723,
        0.0009245523975499843,
        0.002092932742408991,
        0.0005335169666084742,
        0.0015247212683581971,
        0.0008866808331451471,
        0.0010255562795886055,
        0.0013905925535735583,
        0.0013839968140849485,
        0.001342714924226211,
        0.00025570915952268804,
        0.00029074257592341337,
        0.0008558677489827594,
        0.002514597012698625,
        -0.0002773921199779369,
        -0.0002451628784877497,
        0.0008891004870840402,
        0.0006731587193834395,
        -0.0008185028113183992,
        0.0010788783319520647,
        -0.0009177514583153828,
        0.00041385692972700235
      ],
      "db": 0.00020681670090479017,
      "ap": -0.0035506102351986583,
      "app": 0.0
    },
    {
      "desc": "H025",
      "z": -4.335510555154508,
      "a": 0.012925919227344793,
      "b": 0.05052157845637217,
      "w": [
        -0.418150820706951,
        -1.6639632489100074,
        -2.2759541110321613,
        0.5196099878724989,
        -0.410573121617126,
        -0.13963502859644786,
        -1.0662247276331014,
        0.7854730957091137,
        0.3454411530305057,
        -1.6410637094478309,
        0.2815710642965147,
        -0.6128546635177945,
        -0.4318561806339202,
        -1.5502952281053652,
        0.11415737729309752,
        1.5800793492536322,
        -0.4840755302743708,
        0.11368574916660722,
        0.3688157163760058,
        0.040764858412284506,
        0.28585548712032177,
        0.5162742201242697,
        0.6380455698411478,
        -0.10425261319783527,
        -0.5371440397279389,
        0.01935728754821446,
        1.8711108892080546,
        -0.7456916412306622,
        -1.0414085436363405,
        -0.3655677216917386,
        0.31970035262549046,
        -1.0191283910566364,
        0.3655858738096608,
        -0.9757152324730087,
        -0.10269330505337966
      ],
      "delta": -3.2359420061922743e-06,
      "dw": [
        0.0004894806290452455,
        -0.0010821312072470937,
        -0.0015604076641811458,
        0.001250989445510037,
        -7.797543415505069e-06,
        0.0005900395908734867,
        -0.0011973864750411485,
        0.0022216981326464995,
        0.0013205493340413203,
        -0.0010046266230356793,
        0.0013323189997201089,
        0.0005705081184718702,
        0.00022294201978354186,
        -0.0011319804903898007,
        0.000933351488867658,
        0.002112602632388194,
        0.0005387333721631856,
        0.0015391072207247495,
        0.0008951031532175724,
        0.0010352498218563452,
        0.0014036753993519606,
        0.0013970179293742078,
        0.0013554253063536392,
        0.0002581342660456775,
        0.0002935465857343295,
        0.0008640089317900325,
        0.002538072163123353,
        -0.0002797100971317145,
        -0.00024717888417811264,
        0.0008975536054298977,
        0.000679547357410135,
        -0.0008260418359758985,
        0.0010890440213899648,
        -0.0009262061949601774,
        0.0004178566346626178
      ],
      "db": 0.0001243666576310195,
      "ap": -0.003549648833018229,
      "app": 0.0
    },
    {
      "desc": "H026",
      "z": -0.019679285480789233,
      "a": 0.4950803374003426,
      "b": -0.09886986875810136,
      "w": [
        -0.7710142733704947,
        0.02774465213693758,
        0.4787461332564106,
        -0.9832428041668588,
        0.18972599899389095,
        -0.25403566275469297,
        0.6176489256499961,
        -0.9754923671376621,
        -0.885881361162098,
        0.4012078988120685,
        -0.7437958049022512,
        -0.46753034858489695,
        -0.2510806256537298,
        0.5280053617310139,
        -0.2433873996685243,
        -1.2076187072455173,
        -0.4177050211537298,
        -1.246656619859728,
        -0.6227787380342453,
        -1.0945833729421457,
        -0.8182393814471665,
        -0.483060613520596,
        -0.47802626451069724,
        -0.14780127550237465,
        -0.22965830330539988,
        -0.3885512037644203,
        -1.2579690385461049,
        -0.47303052490483605,
        -0.798889302933632,
        -0.9924125364872547,
        -0.7172866197100611,
        0.26277381280029793,
        -0.6780100709509047,
        -0.3152179289338158,
        -0.5468389057647015
      ],
      "delta": 0.00012510061748074568,
      "dw": [
        0.010131367101228228,
        -0.02059783778210498,
        -0.029625015049096398,
        0.024519966420116626,
        0.0007951556686797148,
        0.013059202119094183,
        -0.022341738006683484,
        0.043214188833972274,
        0.025805873897176954,
        -0.018955503465907565,
        0.02655560440973964,
        0.011911069596254173,
        0.005443021766416226,
        -0.02132356671195659,
        0.018947019057146988,
        0.041525077961440136,
        0.011683943493964705,
        0.030557619605735203,
        0.018070587988442837,
        0.020645213308824403,
        0.027685924784137846,
        0.027537285074328895,
        0.027130959571968937,
        0.005198255397558664,
        0.006176375315949114,
        0.01752452788205456,
        0.04903535156427269,
        -0.0039377689225604294,
        -0.003297169793050219,
        0.01816577169364105,
        0.01371661820799923,
        -0.015429776877720203,
        0.021544957172515974,
        -0.0173031895966248,
        0.008804252525677885
      ],
      "db": -0.0015752689767550647,
      "ap": 0.23132982592983364,
      "app": 0.0
    },
    {
      "desc": "H027",
      "z": -4.34764164714114,
      "a": 0.012772051618347656,
      "b": 0.12828222416323076,
      "w": [
        -0.5400414222259101,
        -2.2212032623116134,
        -3.014155018477046,
        0.8476651718929336,
        -1.1627579659623246,
        -0.08217397655508603,
        -2.756057701333621,
        2.3903977556275486,
        1.142414446777009,
        -1.7510336500981458,
        1.1299159475029448,
        -0.0018966776777916351,
        0.007669691846704513,
        -2.4025937049009434,
        -0.12373193366274374,
        1.8038626465159064,
        -0.4584700838724943,
        1.212555456394646,
        0.11170766771013986,
        0.8918447005477756,
        0.9426267430740461,
        0.7402899182768081,
        0.8287994921316935,
        -0.5659995808874791,
        -0.4128176768006395,
        0.040329696637236984,
        2.574500721218381,
        -1.2875539154031082,
        -1.0613460913339872,
        0.13150599750651765,
        0.5600372932533697,
        -1.7874320612691417,
        0.8370278479384609,
        -1.4389531116210046,
        -0.7894995117505996
      ],
      "delta": -6.827948071987423e-06,
      "dw": [
        0.0004849031982319851,
        -0.0010723344988647105,
        -0.0015462954597474535,
        0.0012395376895735343,
        -7.899247278085063e-06,
        0.0005843674857884802,
        -0.0011866270078247803,
        0.0022014168951248656,
        0.001308474038809779,
        -0.0009955622707644302,
        0.0013200392330160317,
        0.0005651511726940386,
        0.00022071080077571157,
        -0.0011217721329252507,
        0.0009246883683353436,
        0.002093236716037697,
        0.0005335975647228207,
        0.0015249435811565291,
        0.0008868109831040099,
        0.0010257060771568856,
        0.0013907947313362078,
        0.0013841980381288713,
        0.00134291134067071,
        0.00025574663482153995,
        0.0002907859028480152,
        0.0008559935534205199,
        0.0025149598035135987,
        -0.000277427962703763,
        -0.00024519405464021776,
        0.0008892311123494662,
        0.0006732574429085318,
        -0.0008186193285410118,
        0.0010790354281165686,
        -0.0009178821280278366,
        0.00041391873212254254
      ],
      "db": 0.00021741523176864387,
      "ap": -0.003550599485503045,
      "app": 0.0
    },
    {
      "desc": "H028",
      "z": -4.312075062592486,
      "a": 0.01322836747361111,
      "b": 0.030390540093020002,
      "w": [
        -0.008394575545644323,
        -1.0169948002737021,
        -1.7881490007457574,
        0.274991254665677,
        -0.9559663659655538,
        0.04923470237061623,
        -1.1264893777076097,
        1.5783702246928881,
        0.8747750286479477,
        -0.709228888857445,
        0.2602368166224785,
        -0.5712188333681382,
        -0.271956887698172,
        -1.5967039604811746,
        -0.02286638627129224,
        0.8287771852915284,
        0.01546928649491552,
        0.4940989612513501,
        0.16128064058885747,
        0.4034634158879791,
        0.21345128609261918,
        0.5275724942110904,
        0.07801680959799656,
        -0.6399296052034638,
        -0.3066776689543395,
        0.23531290996900558,
        1.0035092838203905,
        -0.5812168976241285,
        -0.8449575296547828,
        0.02116880236353136,
        -0.3652571723572537,
        -0.7705772372475371,
        0.10609246910818089,
        -0.7458210386881818,
        -0.4877902760266595
      ],
      "delta": -2.768502699791044e-06,
      "dw": [
        0.0004984448830782379,
        -0.0011013078819796503,
        -0.0015880313678968971,
        0.0012734093867065842,
        -7.593699328791545e-06,
        0.000601151744498551,
        -0.001218445440789536,
        0.002261402535115859,
        0.001344189635983181,
        -0.0010223688962428775,
        0.0013563621987279693,
        0.000580999439500551,
        0.00022731560176571296,
        -0.0011519618253418816,
        0.0009503151725222408,
        0.0021505172837875714,
        0.0005487937312978007,
        0.0015668383601430819,
        0.0009113399655392164,
        0.0010539360732868992,
        0.0014288936911979833,
        0.0014221171402542432,
        0.00137992762462148,
        0.00026280939951142955,
        0.00029895349010462233,
        0.0008797041686397944,
        0.0025833173604169362,
        -0.0002841702867981195,
        -0.00025105700213013906,
        0.0009138500192020799,
        0.0006918635686191413,
        -0.0008405696250656233,
        0.0011086395685193614,
        -0.0009424985835967456,
        0.0004255692186752421
      ],
      "db": 0.00010428050886252754,
      "ap": -0.0035462781992433717,
      "app": 0.0
    },
    {
      "desc": "H029",
      "z": -4.34132025471618,
      "a": 0.012852003572152082,
      "b": 0.07774586499926665,
      "w": [
        -0.48429198327151873,
        -1.799034833315962,
        -2.506750419091362,
        0.15506567723564751,
        -0.6049061770093889,
        -0.22712010514456535,
        -1.8734657227348024,
        1.7833423858887487,
        0.37760121137825176,
        -1.3743645518387932,
        0.5024524954477825,
        0.1565697718246068,
        -0.7391359081019074,
        -1.3678608307147335,
        -0.2527309108105269,
        1.8359791405412542,
        -0.4723111963839364,
        1.1620634913801573,
        -0.005727945476155807,
        0.3688699596961352,
        1.0256081188284762,
        0.5600600525253601,
        1.0499777654134796,
        -0.6611273705574797,
        -0.7939081326131535,
        0.5612457046121878,
        1.6562729215702168,
        -1.0040540110544016,
        -0.5311033975141997,
        0.22427833602339167,
        -0.2620282413007496,
        -1.244721043429271,
        0.12482346260435499,
        -1.6384618719037378,
        -0.6675718646057037
      ],
      "delta": -4.6105029988411785e-06,
      "dw": [
        0.00048728314521943427,
        -0.0010774284907680985,
        -0.0015536333957865667,
        0.0012454921008930038,
        -7.846571165567183e-06,
        0.0005873164080616609,
        -0.0011922217038271312,
        0.002211962322103451,
        0.0013147526800726481,
        -0.00100027549625903,
        0.0013264240780721576,
        0.0005679363918760672,
        0.00022187070414852363,
        -0.0011270802188142635,
        0.0009291926699479845,
        0.0021033061188208023,
        0.0005362677158418723,
        0.0015323079686492352,
        0.00089112243428319,
        0.0010306683296307537,
        0.0013974920767779594,
        0.0013908637863532297,
        0.0013494179324090984,
        0.0002569880683567975,
        0.0002922212452532704,
        0.000860161071161597,
        0.00252697737240266,
        -0.00027861490746549673,
        -0.0002462264145787949,
        0.0008935583199037624,
        0.0006765278366881756,
        -0.0008224788720781823,
        0.0010842394150154672,
        -0.0009222104625105001,
        0.0004159661358496688
      ],
      "db": 0.00015787526679668774,
      "ap": -0.0035501704610230358,
      "app": 0.0
    },
    {
      "desc": "H030",
      "z": -4.301529131211559,
      "a": 0.013366736529473726,
      "b": 0.03683417126896532,
      "w": [
        -0.6508410705598994,
        -1.8797504799539482,
        -1.5988769585909912,
        0.3398952766076627,
        -0.4790165758738933,
        -0.15696870687872114,
        -1.3813810154024493,
        1.023839760063709,
        0.06869145885965477,
        -1.734935057798193,
        0.4441240949068299,
        -0.7276436331942299,
        -0.824911064790032,
        -1.1584080627992173,
        -0.005421078054982241,
        0.7389914945269069,
        -0.10711452653007342,
        0.556666107424351,
        0.008218119076207293,
        -0.27447993410712074,
        0.8023173348315513,
        0.0006132256288992969,
        0.6920059820290398,
        -0.03423347162038278,
        -0.37095661582011796,
        -0.29836979468895986,
        1.401799211641741,
        -0.39780465438876905,
        -0.818697260119854,
        -0.349127011899832,
        -0.4965865300225938,
        -0.9768291988012296,
        -0.36619207760726213,
        -0.7320263306704683,
        -0.298700312793173
      ],
      "delta": -2.1119836878409077e-06,
      "dw": [
        0.000502531545984672,
        -0.0011100464077990588,
        -0.0016006189117079748,
        0.0012836273736035251,
        -7.498742866502533e-06,
        0.000606219395183206,
        -0.00122804071209745,
        0.002279497269523603,
        0.0013549636391900321,
        -0.0010304534206305655,
        0.001367320947275522,
        0.0005857824833466601,
        0.0002293112090327196,
        -0.0011610665334905186,
        0.0009580478603730298,
        0.00216779730350417,
        0.0005533812208590138,
        0.001579477792848526,
        0.0009187411027745876,
        0.001062453179809211,
        0.0014403874142038784,
        0.0014335565503149708,
        0.0013910958838689916,
        0.0002649404130778461,
        0.00030141862847802485,
        0.0008868586199468083,
        0.0026039365109449047,
        -0.0002861996896733002,
        -0.00025282111610791833,
        0.0009212784225996163,
        0.000697477598253501,
        -0.0008471890805974376,
        0.0011175707551780278,
        -0.0009499220678645128,
        0.00042908559264128615
      ],
      "db": 9.865780962724495e-05,
      "ap": -0.0035440824573690845,
      "app": 0.0
    },
    {
      "desc": "H031",
      "z": 0.39534576722630055,
      "a": 0.5975689188398607,
      "b": -0.19147281183718498,
      "w": [
        -0.5639588156623778,
        0.5565470498026496,
        0.6772535853139201,
        -1.2110506011667779,
        -0.610316098512037,
        -0.6901872279131955,
        0.937560013853063,
        -1.136856356348788,
        -0.9603145025913866,
        0.6312480075127883,
        -1.2435863771698963,
        -0.606836698259622,
        -0.7935929691952044,
        0.5102063285795322,
        -0.49844222492070217,
        -0.8913601420533421,
        -0.829365786185073,
        -0.7791395123581526,
        -0.7626045612490583,
        -0.4826337961143869,
        -1.5326629073505154,
        -1.357288169537888,
        -1.134804589285208,
        -0.7687802939274191,
        -0.44348031348609185,
        -0.7695890140714994,
        -1.1901849454788742,
        -0.6690340229907402,
        -0.1720934135195101,
        -0.7960827885744586,
        -0.5145696893191951,
        -0.005728775532420283,
        -0.7827315677982611,
        0.6844722614760275,
        -0.7842374736552534
      ],
      "delta": 0.00015471096784998165,
      "dw": [
        0.012454866942071964,
        -0.025328544211194386,
        -0.036428632250190274,
        0.030147954530418877,
        0.0009769833394039638,
        0.016053432160526,
        -0.027474813214900983,
        0.053136867179791776,
        0.03172985264011814,
        -0.023309124606781997,
        0.03265294441823612,
        0.014645661496446392,
        0.006686399200819598,
        -0.02622223998961602,
        0.023295096634888938,
        0.05106075055966889,
        0.014363674960706414,
        0.03757374434445208,
        0.022219847179506022,
        0.025385602703348466,
        0.034039940262057866,
        0.033860415175916724,
        0.03336050911805114,
        0.006390725435488218,
        0.007590522259667942,
        0.021545022238769616,
        0.060298394249679525,
        -0.004846173190916413,
        -0.004059156939501046,
        0.02233613796884733,
        0.016861522369620834,
        -0.01897206334377567,
        0.026492583282309544,
        -0.02127642320307232,
        0.010825184957639384
      ],
      "db": -0.0021624205838066,
      "ap": 0.25037681198615647,
      "app": 0.0
    },
    {
      "desc": "H032",
      "z": -4.3395628587320045,
      "a": 0.012874318453794716,
      "b": 0.0681974620394962,
      "w": [
        -0.21613427398021998,
        -2.1146956733143956,
        -1.9126094912373766,
        0.05336898524764369,
        -0.4530044664098808,
        -0.44928924421955774,
        -2.060546165803427,
        1.5538994599145466,
        0.21993166172316744,
        -1.4560352096892695,
        0.1684664326154756,
        -0.5543151024592304,
        -0.3994932017139683,
        -1.72330033412139,
        -0.25591727683244764,
        1.3025428006532778,
        -0.15800730432887333,
        0.4658486609049426,
        -0.4005092041196219,
        0.22607315819531343,
        0.9706260066498673,
        1.0009012457606883,
        0.3231872849615953,
        -0.31727453840484326,
        -0.6614056010213122,
        0.024844606148184872,
        2.0535153778989,
        -0.4015300901862275,
        -0.8392639324888481,
        0.21240160495300453,
        -0.25031386449039905,
        -0.8013126724401795,
        0.6169918089334389,
        -1.8358118209375385,
        -0.4266621784686691
      ],
      "delta": -3.786950498520606e-06,
      "dw": [
        0.00048794683848193363,
        -0.0010788488990916124,
        -0.0015556794988382868,
        0.0012471524885189903,
        -7.83180299762572e-06,
        0.0005881388402657314,
        -0.0011937816903071813,
        0.002214902886591204,
        0.0013165034727127586,
        -0.0010015897175514239,
        0.0013282045291064045,
        0.0005687131113132983,
        0.00022219423319958128,
        -0.0011285603061750049,
        0.000930448749179544,
        0.0021061139815780803,
        0.0005370123817290699,
        0.0015343615608087097,
        0.0008923247265268297,
        0.0010320520833777362,
        0.0013993596461061753,
        0.0013927225432368894,
        0.0013512323427624497,
        0.0002573342537364918,
        0.00029262152595741127,
        0.000861323232921979,
        0.0025303284117836043,
        -0.00027894575754869126,
        -0.0002465141584157899,
        0.000894765009771234,
        0.000677439819323483,
        -0.0008235550420560811,
        0.0010856905634423156,
        -0.0009234173473030834,
        0.0004165371058340968
      ],
      "db": 0.00014117365209097646,
      "ap": -0.0035500256042192823,
      "app": 0.0
    },
    {
      "desc": "H033",
      "z": -4.3055926795044455,
      "a": 0.013313252019756392,
      "b": 0.03770467352331012,
      "w": [
        -0.17875987480807506,
        -0.9175777768347716,
        -2.2414870852149456,
        0.1653276063195632,
        -0.975522872283109,
        0.15581674212238694,
        -1.196630609553651,
        0.8177647784395,
        0.2727627573864926,
        -1.1280600477401197,
        0.3165069875907315,
        -0.44110384654866547,
        -0.7967199352700385,
        -1.704323390362656,
        0.0630341935277295,
        0.8439946040447508,
        0.2926139151667308,
        0.2467482670969876,
        0.2858060443755928,
        0.2887994205514947,
        0.5162709778006379,
        0.4486889754334741,
        0.07172668952757229,
        -0.8574453414515946,
        -0.31748190910171553,
        -0.4239026739763051,
        1.5404528090304064,
        -0.7077304584783193,
        -0.3787904995893629,
        0.07553343816888251,
        -0.4337793328122868,
        -0.8355618142795295,
        -0.3961688536058192,
        -1.3852043052075005,
        -0.36632920048964795
      ],
      "delta": -2.534976745675389e-06,
      "dw": [
        0.0005009529697005969,
        -0.0011066712138401945,
        -0.001595757074046853,
        0.0012796806338235297,
        -7.535571465760136e-06,
        0.0006042617555946375,
        -0.0012243346789310452,
        0.002272508156576778,
        0.0013508021482227966,
        -0.0010273308570721087,
        0.0013630880149305246,
        0.0005839348966062389,
        0.00022854022593008665,
        -0.0011575499402521792,
        0.0009550609734640405,
        0.002161122805875799,
        0.0005516091045146886,
        0.001574595697455211,
        0.0009158822989983889,
        0.0010591633557751445,
        0.0014359478884034284,
        0.0014291380061804769,
        0.0013867820076243435,
        0.00026411727808718925,
        0.00030046639092589587,
        0.0008840950893312157,
        0.0025959723926513084,
        -0.000285416071063015,
        -0.00025213996696681903,
        0.0009184090795967168,
        0.0006953090925117348,
        -0.0008446324098839433,
        0.0011141210156848306,
        -0.0009470548521117296,
        0.0004277272806722621
      ],
      "db": 0.00010277399888342115,
      "ap": -0.003544979362963536,
      "app": 0.0
    },
    {
      "desc": "H034",
      "z": -4.143975142505325,
      "a": 0.015612078938558968,
      "b": 0.00532385639321347,
      "w": [
        -0.0411962398583589,
        -0.6433392311640884,
        -1.4510317674154964,
        0.6462247811268705,
        0.12015820012396768,
        -0.7052982806361678,
        -0.4843751084305746,
        0.4488345798363996,
        0.3135155360884989,
        -0.9239635740582884,
        0.037124319518865224,
        0.22599137673302833,
        -0.6980636818925002,
        -1.24521173116222,
        -0.24815693371249356,
        0.08136202945008915,
        -0.5360388102126907,
        -0.21337709156475473,
        -0.3622337840818249,
        -0.32018966765576445,
        0.05889786316362097,
        0.479074688630498,
        0.517887045831047,
        -0.6316849494924923,
        -0.4091775946500983,
        0.11021100698690423,
        0.9314398228836507,
        -0.905724743247617,
        -0.08279846092250097,
        0.22299850567530397,
        0.2830726678012012,
        -1.2845327626490723,
        -0.09325613157459084,
        -1.0144176507924398,
        -0.2695112270359602
      ],
      "delta": -1.405803478635497e-06,
      "dw": [
        0.0005676756913931866,
        -0.0012490375816341349,
        -0.0018008174503283232,
        0.001446275009324629,
        -5.822422842679692e-06,
        0.0006871451024638673,
        -0.001380579630600333,
        0.0025674670729861036,
        0.001526448250305271,
        -0.0011590129626442615,
        0.0015418363457566757,
        0.0006620444975516015,
        0.0002612639792005456,
        -0.0013058427000733736,
        0.0010812485875175157,
        0.002442876627974182,
        0.0006265994825348878,
        0.00178073703307001,
        0.0010366420212985156,
        0.0011980878769310198,
        0.0016233720943472688,
        0.0016156731952569761,
        0.0015689674866599865,
        0.00029888559704087825,
        0.0003407320087526667,
        0.001000844234129523,
        0.0029320229254217066,
        -0.00031823435193445676,
        -0.00028063234952261745,
        0.0010396216260680003,
        0.0007869098402251705,
        -0.0009524238067923085,
        0.0012597697358185387,
        -0.0010679394187981786,
        0.00048516514970458783
      ],
      "db": 7.03526285891188e-05,
      "ap": -0.0034547206020472507,
      "app": 0.0
    },
    {
      "desc": "H035",
      "z": -4.339317643639192,
      "a": 0.012877435159336143,
      "b": 0.10536734194100611,
      "w": [
        -0.590054616135487,
        -2.1692081381501724,
        -3.048878520455329,
        0.4905516372700042,
        -1.0165959598916656,
        -0.5595152455432724,
        -2.3126193225989473,
        1.4409582682408573,
        1.1468934901186583,
        -1.8807624589108751,
        0.33506499667229256,
        -0.6440216969330457,
        -0.5447827505083048,
        -2.1546932047171525,
        0.23954734107803852,
        1.940848463749379,
        -0.5536686007451548,
        0.7391657048067912,
        0.40944442933252667,
        0.3004522610377649,
        1.2587101144869948,
        0.5853782919874707,
        0.7045431480267763,
        -0.951030492912791,
        0.07522085908582377,
        0.05089255549945304,
        2.424862151492794,
        -1.1911724105261148,
        -0.39957396062442685,
        -0.10348345083100483,
        0.2987101100458264,
        -1.7650009662921813,
        0.3823496893947488,
        -1.276293031572124,
        -0.2440757578431241
      ],
      "delta": -5.4907700950309985e-06,
      "dw": [
        0.00048803951676778395,
        -0.0010790472401341405,
        -0.00155596520956428,
        0.001247384341542808,
        -7.829738051295036e-06,
        0.0005882536872987647,
        -0.0011939995202535213,
        0.0022153134998447056,
        0.0013167479494765912,
        -0.0010017732305038344,
        0.0013284531488108077,
        0.0005688215728903006,
        0.0002222394132297175,
        -0.001128766979942647,
        0.0009306241473267086,
        0.002106506065944576,
        0.0005371163685650019,
        0.001534648321214881,
        0.000892492613603878,
        0.0010322453088560896,
        0.00139962043004838,
        0.0013929820965737755,
        0.001351485704829627,
        0.0002573825947350932,
        0.0002926774215383894,
        0.0008614855164486642,
        0.002530796341780613,
        -0.00027899195227280285,
        -0.000246554333865363,
        0.0008949335110602925,
        0.0006775671678075892,
        -0.0008237053139528421,
        0.0010858931993225423,
        -0.0009235858716794713,
        0.0004166168366590266
      ],
      "db": 0.00018506097956807427,
      "ap": -0.0035500045022781555,
      "app": 0.0
    },
    {
      "desc": "H036",
      "z": 0.25172817394653446,
      "a": 0.5626018175880366,
      "b": -0.1334340515536459,
      "w": [
        -0.8358671934135878,
        0.6847216432628986,
        0.765265774407815,
        -1.0792151973967692,
        -0.713088384127885,
        -0.2975521471198313,
        0.22971673857139102,
        -1.416642565386937,
        -0.6319944890956164,
        0.6106440755889566,
        -0.8560841539765994,
        -0.8039215761720723,
        -0.44427033270895955,
        0.3075587360998907,
        -0.9617960611006142,
        -1.081165999759167,
        -0.7471458176566058,
        -1.0426611067214322,
        -0.709495211049599,
        -1.0699327938194372,
        -0.5061897669982316,
        -1.106944159449162,
        -0.7428173766783981,
        -0.14881553192011637,
        -0.46817505348380456,
        -1.2027492363103336,
        -0.670894139846811,
        -0.04530041278770344,
        -0.13389117896189806,
        -0.6315270940887561,
        -0.729704732472027,
        0.26487709504535834,
        -0.6727497321009975,
        0.5923667807025806,
        -0.42444823353187794
      ],
      "delta": 0.0001407883208858884,
      "dw": [
        0.011629781508176975,
        -0.02364215059008115,
        -0.03400303801583549,
        0.028144515735303372,
        0.000915650923145731,
        0.014993046621463,
        -0.025643219088094988,
        0.04960314673060055,
        0.029620709022883853,
        -0.02175654634613257,
        0.03048381481103313,
        0.013674726000829576,
        0.0062480124356231155,
        -0.02447506906450257,
        0.021749628576549617,
        0.047666317253667115,
        0.013413859623494047,
        0.0350773495166617,
        0.02074453842950601,
        0.023699241242186884,
        0.031778704066815364,
        0.031609869841579055,
        0.031144733606108282,
        0.00596677520157529,
        0.007088878569479091,
        0.02011603181253877,
        0.05628587762213519,
        -0.004517018105503811,
        -0.003782047425687783,
        0.020853534328327927,
        0.015743656823754813,
        -0.017708374453384655,
        0.024731852426017154,
        -0.019858934908760423,
        0.010107932690293073
      ],
      "db": -0.0018935334547535098,
      "ap": 0.24635177923794527,
      "app": 0.0
    },
    {
      "desc": "H037",
      "z": -4.35295898079663,
      "a": 0.012705179157717794,
      "b": 0.06687502494335464,
      "w": [
        -0.14329178902466908,
        -1.3236430228511749,
        -2.2367574460279056,
        0.7272926582358363,
        -0.8062540074528529,
        0.07934222150736388,
        -1.7071652758825853,
        1.4420559009042744,
        0.1515403444563569,
        -1.386646716458196,
        0.29093572717148086,
        0.050745799603035956,
        -0.8034714832597534,
        -1.2211472369110263,
        0.3837163634896427,
        1.423289341471947,
        -0.38716654382743293,
        1.0530061317523176,
        -0.027916041597969003,
        0.5369914317947554,
        0.8132818393638108,
        1.0588692890818057,
        0.7776623328847523,
        -0.5797854236838225,
        -0.6225401286247749,
        0.3311362040591678,
        2.17792102152294,
        -1.0689761993600708,
        -1.2444824632462315,
        0.5082826681256218,
        0.4274218482016629,
        -0.9441212090377306,
        0.5845820093825439,
        -1.0310209165728803,
        -0.34238240112043367
      ],
      "delta": -4.610687244850743e-06,
      "dw": [
        0.0004829101747316713,
        -0.0010680680307720552,
        -0.001540149550274442,
        0.0012345508378641388,
        -7.94301985727404e-06,
        0.0005818982895852425,
        -0.0011819410103649773,
        0.0021925849222710213,
        0.001303215614598227,
        -0.0009916146519285453,
        0.001314692050775468,
        0.0005628188009313503,
        0.00021973976503895188,
        -0.0011173262687290914,
        0.0009209162282249189,
        0.0020848035789239666,
        0.0005313617067362319,
        0.0015187760082575423,
        0.0008832003102062807,
        0.0010215502921234305,
        0.0013851857311401876,
        0.0013786154940434575,
        0.0013374622393364372,
        0.00025470697787913086,
        0.00028958394936195883,
        0.0008525034487228692,
        0.0025048947658075802,
        -0.00027643332946254305,
        -0.00024432888587351987,
        0.0008856072605373762,
        0.0006705186146402437,
        -0.0008153866638697649,
        0.0010746771330565525,
        -0.000914256815749434,
        0.00041220424318206785
      ],
      "db": 0.0001569477364420286,
      "ap": -0.0035508497876747037,
      "app": 0.0
    },
    {
      "desc": "H038",
      "z": -3.5011767443276005,
      "a": 0.029278767355441934,
      "b": -0.025223459699669305,
      "w": [
        -0.17830668060488242,
        -1.1296214297484672,
        -0.4549631198209012,
        0.062069700447237065,
        -0.6577221008653381,
        -0.6163770135700675,
        -0.532311474886875,
        0.05319315777340922,
        0.4659240865924953,
        -0.37111174077837183,
        0.17251037513723638,
        -0.3821303806843078,
        0.1392741691583328,
        -0.26731242919138937,
        -0.35779651648391997,
        -0.16946519380111943,
        -0.03882846355955554,
        -0.14552602194173742,
        -0.4543701503184085,
        -0.6598892466347148,
        0.021947512087380834,
        0.3495709052702853,
        -0.3916621087407468,
        0.051985192543989436,
        -0.38955172566134155,
        -0.6819862637328244,
        -0.014359021337810094,
        -0.36017334011082963,
        -0.7821530132982136,
        -0.3102367093624079,
        -0.0767897539233342,
        -0.7938819463813975,
        0.08955201347825972,
        -0.3116559528437548,
        -0.35650903167082076
      ],
      "delta": 2.3912778680506547e-06,
      "dw": [
        0.0009310511908651029,
        -0.002015946902024089,
        -0.002905085940052754,
        0.0023471363794735642,
        7.954895500558125e-06,
        0.0011424701791331502,
        -0.002220069122380114,
        0.004160844820463341,
        0.0024758799844539197,
        -0.0018675632742130366,
        0.002510497906179178,
        0.0010878815370445032,
        0.00044337679714813444,
        -0.0021035915029558455,
        0.0017667200264410079,
        0.003966975246757883,
        0.0010374755548492095,
        0.00289728125059704,
        0.0016921379159462453,
        0.001950988912989428,
        0.0026377000513556604,
        0.0026250767914215954,
        0.002556795871022026,
        0.0004875620388863191,
        0.0005605131260573349,
        0.0016349873034595282,
        0.004745757163982557,
        -0.0004883130404040454,
        -0.00042729661516705377,
        0.0016977971344099925,
        0.0012841622205949127,
        -0.0015316847531101094,
        0.002048289944153551,
        -0.0017175651434084217,
        0.0007986791577185821
      ],
      "db": 1.4919260198486976e-05,
      "ap": -0.0012939722950553888,
      "app": 0.0
    },
    {
      "desc": "H039",
      "z": -2.6989845680697004,
      "a": 0.0630333009690379,
      "b": -0.04176613382512356,
      "w": [
        -0.05927291523197673,
        0.16519881724361726,
        -0.19751509521213487,
        -0.582906176878797,
        -0.535158565248807,
        -0.0720772667875235,
        0.15062064670856712,
        -0.057741003817697485,
        -0.6448951294678933,
        -0.7249964443129554,
        -0.34268609080131235,
        -0.21234867405797597,
        -0.5151077288159458,
        -0.19808706617088584,
        -0.6712935408589827,
        -0.42086610069745095,
        -0.508555739190469,
        0.0361540039551702,
        -0.33081026490356363,
        0.05386176377672953,
        -0.2160679880243726,
        -0.4984978288735789,
        -0.2617454508365836,
        -0.052665487384807995,
        -0.7057404452350057,
        -0.3982995383723365,
        0.35572275166067696,
        -0.19473915991122415,
        -0.2654920528844581,
        -0.025956163830990656,
        -0.2723737343506987,
        -0.8608782806242363,
        -0.832229493522915,
        -0.18300680579166986,
        -0.19971286037536257
      ],
      "delta": 1.0610990517343184e-05,
      "dw": [
        0.0017097452643994088,
        -0.0036295778956811128,
        -0.0052272662811739335,
        0.004254940718384159,
        5.308437532792366e-05,
        0.002132036126344901,
        -0.003978607864434334,
        0.007529354102145418,
        0.004485176500100479,
        -0.0033555521965001915,
        0.004569118873848747,
        0.0020018696499937536,
        0.0008475072688041192,
        -0.003778212801164748,
        0.0032293846510857,
        0.007196240485757991,
        0.0019266236402766673,
        0.005268205860990085,
        0.0030890178748448497,
        0.003551243220549036,
        0.00478875024155782,
        0.004765143219351186,
        0.004658047574109978,
        0.0008895136228041088,
        0.0010333241825620531,
        0.0029879790203728683,
        0.008574223691222937,
        -0.0008222392110549634,
        -0.0007115275197385828,
        0.0031011987421106914,
        0.0023441444795963503,
        -0.002745611131466583,
        0.0037213275934633644,
        -0.0030789234472183816,
        0.0014729130386535016
      ],
      "db": -7.871751098795342e-05,
      "ap": 0.010523997758649676,
      "app": 0.0
    }
  ],
  [
    {
      "desc": "H10",
      "z": -1.969523615901237,
      "a": 0.12244006437156339,
      "b": 0.005290231879560637,
      "w": [
        -0.07979378557493794,
        -0.8341435523692395,
        0.2487080931878789,
        -0.6278099443870948,
        0.16243547609475567,
        0.07685916390776754,
        0.5411382996704203,
        0.2166849261027937,
        -0.29251364192410345,
        -0.6434925643750222,
        -0.4751381132284399,
        0.029067619007423946,
        0.0730359850684509,
        -0.2409637101871405,
        -0.5180561012990021,
        0.296990224259599,
        -0.1241807704872237,
        0.09293802365524784,
        0.3083144476823909,
        -0.7694613610289022,
        0.2305547051598602,
        -0.3217989690545896,
        0.06326237824595606,
        -0.027370199761692648,
        -0.5384327277129842
      ],
      "delta": -1.8396936960857257e-05,
      "dw": [
        0.0014625804354674666,
        -0.008716197691729764,
        -0.0036071682846970546,
        -0.004974074538571979,
        0.004689147537665639,
        -0.004853045395056432,
        0.017961943438145625,
        0.0003170959290331265,
        0.0020707685296708907,
        -0.022542088013479834,
        0.0010806820335347131,
        0.004706378165486591,
        -0.007319248241684946,
        0.0043915434075706495,
        0.003246932376513327,
        0.0022893532591673807,
        0.0009715412701424734,
        0.005243522321798842,
        0.0024920304045688256,
        -0.008674452850821017,
        -0.005996112971513647,
        -3.694748567472613e-05,
        0.0027284255096799805,
        0.0029008478603727845,
        -0.008947195204871533
      ],
      "db": 0.00015378979163736004,
      "ap": -0.15207427766701415,
      "app": 0.0
    },
    {
