[
  [
    {
      "desc": "I0",
      "z": 0.6,
      "a": 0.6456563062257954,
      "b": -0.040205705969555035,
      "w": [
        9.367999191427053,
        12.991820167451932,
        -0.6203577535516637
      ],
      "delta": -0.0021025914627185297,
      "dw": [
        0.05517605668240137,
        -0.04246658271857669,
        -0.02358869903630375
      ],
      "db": -0.0008349471524397849
    },
    {
      "desc": "I1",
      "z": 0.25,
      "a": 0.5621765008857981,
      "b": -7.578586444885575,
      "w": [
        1.7029355826009132,
        -15.797145923556327,
        17.700255132731492
      ],
      "delta": 0.017993369328666752,
      "dw": [
        0.046415677168788805,
        -0.03562055160025452,
        -0.020569686110015705
      ],
      "db": 0.007671847845504058
    },
    {
      "desc": "I2",
      "z": 0.15,
      "a": 0.5374298453437496,
      "b": -2.9871292334504673,
      "w": [
        9.18694694790703,
        0.10900776332645709,
        -8.59159548166809
      ],
      "delta": 0.01121981444996884,
      "dw": [
        0.04943694077282385,
        -0.0404436788268544,
        -0.019776223956396874
      ],
      "db": 0.012393052187611005
    },
    {
      "desc": "I3",
      "z": 0.75,
      "a": 0.679178699175393,
      "b": 2.2317072479707374,
      "w": [
        -6.28982751960167,
        12.092017143813802,
        6.785462405352665
      ],
      "delta": -0.017917425905329618,
      "dw": [
        0.053836273001629485,
        -0.04429134330132605,
        -0.018731425890648655
      ],
      "db": -0.017175726021012853
    }
  ],
  [
    {
      "desc": "H00",
      "z": -0.684803962004815,
      "a": 0.33518995282835806,
      "b": -1.0753792495702823,
      "w": [
        7.964611035571527,
        -8.428260813620588,
        -1.7295499253396953,
        -0.06617351890584211
      ],
      "delta": 0.004856993672013444,
      "dw": [
        0.011587320566705608,
        -0.014770726271694422,
        -0.00022727034255171162,
        -0.002451825924137356
      ],
      "db": 0.00415562249873227
    },
    {
      "desc": "H01",
      "z": -0.6094099505017483,
      "a": 0.35219380793335237,
      "b": 1.4884726971260729,
      "w": [
        0.2378124410579833,
        7.579013321646503,
        -2.4607049517204134,
        15.46454794094424
      ],
      "delta": -0.004219632167247314,
      "dw": [
        0.002835976353417666,
        -0.013345139024508361,
        0.00032339267447573127,
        -0.0011183872283169265
      ],
      "db": -0.003285424315151907
    },
    {
      "desc": "H02",
      "z": 1.1602071509263463,
      "a": 0.7613703532082305,
      "b": -0.27348603558459555,
      "w": [
        -12.492224780565735,
        0.05285005294035234,
        7.06438894857358,
        -14.345962577968518
      ],
      "delta": -0.00010617644409163407,
      "dw": [
        0.010497292063163003,
        -0.017187205101515002,
        -0.0004338894583476659,
        -0.002183719764823296
      ],
      "db": -0.001658131275061431
    }
  ],
  [
    {
      "desc": "H10",
      "z": -6.616461777833792,
      "a": 0.001336369005107789,
      "b": 0.6359752323649561,
      "w": [
        13.172485009427596,
        -3.4551621320103383,
        11.275644538402481
      ],
      "delta": -4.1412717436726485e-05,
      "dw": [
        0.0012340255101739037,
        0.0040496825096001665,
        0.0008704376349239163
      ],
      "db": 0.0008921960944424464
    },
    {
      "desc": "H11",
      "z": 0.020698402190743703,
      "a": 0.505174415812075,
      "b": 0.9553384174389875,
      "w": [
        2.975253534338208,
        -9.08182387261995,
        5.568819896541602
      ],
      "delta": -0.002646286594989469,
      "dw": [
        -0.00025047772582183084,
        0.005021193110279182,
        0.0002359481925218517
      ],
      "db": -0.0014268696357754738
    },
    {
      "desc": "H12",
      "z": 4.071696549411274,
      "a": 0.983237336827731,
      "b": -0.28032401543966,
      "w": [
        -2.791967078606032,
        1.1709010055486864,
        -1.9474563644095486
      ],
      "delta": 0.00010138439181404128,
      "dw": [
        0.005070403314590807,
        0.01355081163954021,
        0.0024249301893749754
      ],
      "db": -3.0015880871575453e-05
    },
    {
      "desc": "H13",
      "z": -5.359169607242063,
      "a": 0.004682779732053335,
      "b": -0.07454886659198794,
      "w": [
        -7.680124751004605,
        2.7323491977348864,
        -13.502923474122648
      ],
      "delta": 0.00011741900124219968,
      "dw": [
        0.0008732950393069694,
        0.006688166230051763,
        0.0007999920802640736
      ],
      "db": -0.0002891303457031026
    }
  ],
  [
    {
      "desc": "O0",
      "z": -0.023491602312153415,
      "a": 0.49412736948970576,
      "b": 36971.75662364774,
      "delta": -0.0014679550935309978,
      "dw": 0.0,
      "db": -2.329894262569766
    },
    {
      "desc": "O1",
      "z": -2.1898640754022614,
      "a": 0.1006643982964457,
      "b": -4197.297733436375,
      "delta": 6.014869347508677e-05,
      "dw": 0.0,
      "db": 0.48472558482898215
    },
    {
      "desc": "O2",
      "z": 2.0869278685938,
      "a": 0.8896261293934886,
      "b": -47333.988297327516,
      "delta": -0.0010186257008563276,
      "dw": 0.0,
      "db": 2.3026634771884598
    }
  ]
]